//#include "../jedi.h"

#ifndef W1_1_H_
#define W1_1_H_

// numpy array shape [P, 30];
;
/*
input_t w1_1[2*P * N_LAYER_2] = {
        1, 1, 1, 1, 1, 1,1, 1, 1,1, 1, 1,1, 1, 1,
        1, 1, 1, 1, 1, 1,1, 1, 1,1, 1, 1,1, 1, 1,
        1, 1, 1, 1, 1, 1,1, 1, 1,1, 1, 1,1, 1, 1,
        1, 1, 1, 1, 1, 1,1, 1, 1,1, 1, 1,1, 1, 1,
        1, 1, 1, 1, 1, 1,1, 1, 1,1, 1, 1,1, 1, 1,
        1, 1, 1, 1, 1, 1,1, 1, 1,1, 1, 1,1, 1, 1,
        1, 1, 1, 1, 1, 1,1, 1, 1,1, 1, 1,1, 1, 1,
        1, 1, 1, 1, 1, 1,1, 1, 1,1, 1, 1,1, 1, 1
};*/

input_t w1_1[2*P * N_LAYER_2] = {
        0.00172785,  0.06515077,  0.00603867, -0.00094163, -0.03359681,
        0.00128876, -0.0020127 ,  0.02885874,  0.01517094,  0.03677033,
       -0.02884408,  0.0168464 ,  0.00092554,  0.02937462, -0.01435657,
       -0.04056197, -0.0046058 , -0.01678107, -0.00738538,  0.01757832,
        0.00734897, -0.01912726,  0.00045954, -0.05529361, -0.10547899,
       -0.04532978,  0.02855114,  0.03094926,  0.01395184, -0.00532729,
       -0.00412804, -0.05870492,  0.00788217,  0.00028252, -0.03310025,
       -0.00064987,  0.00126824,  0.03033806,  0.08685704, -0.06032653,
       -0.069724  ,  0.02309981,  0.00404996,  0.10144556,  0.00585234,
       -0.07819237,  0.00390523,  0.00667586,  0.01511931,  0.0014221 ,
        0.00028885,  0.01362821, -0.0025498 , -0.00299727, -0.03565871,
        0.1036539 , -0.01457438,  0.05426751, -0.00042779,  0.0065656 ,
       -0.07933569, -0.01290882, -0.05993097,  0.03165699, -0.00140118,
        0.00103879,  0.00005656, -0.07315801, -0.04241456,  0.01356838,
       -0.00867079,  0.00185844, -0.0104081 , -0.02074676,  0.00831165,
        0.01792715, -0.01047481,  0.03541201,  0.00889402, -0.0081678 ,
       -0.00448771, -0.00552081, -0.01565189, -0.10516927,  0.0474753 ,
       -0.00284446, -0.03582086, -0.02780747, -0.04817086, -0.00985113,
       -0.0831714 , -0.01361833, -0.05757929, -0.02211944, -0.00632224,
        0.06697433, -0.01389794,  0.04743758,  0.08302421,  0.12957156,
       -0.0068635 , -0.01406716, -0.00421103, -0.09612546, -0.02596461,
       -0.07044182, -0.01697005,  0.0415497 ,  0.03577743,  0.02632418,
       -0.03159428, -0.0393742 ,  0.05241982, -0.05824734, -0.44822824,
        0.02297626,  0.03775245, -0.10368931, -0.05164082,  0.00318513,
        0.13866645,  0.03020509, -0.16985331, -0.04695195,  0.01626313,
       -0.02827912,  0.14094113,  0.14662495, -0.0673455 ,  0.08828289,
       -0.15722345, -0.0077096 ,  0.18172783, -0.05162053, -0.31287056,
       -0.04877709, -0.1241772 ,  0.00092572,  0.02358156,  0.00687208,
       -0.22337389, -0.30928645,  0.03683084, -0.33583784, -0.25681514,
        0.03478433, -0.1475537 , -0.05305632,  0.0807053 , -0.08659834,
        0.00625835,  0.17644562, -0.03181607,  0.00962622,  0.04378603,
       -0.06844551,  0.02721492,  0.1479421 ,  0.06354071, -0.04153397,
        0.11658936,  0.0470149 ,  0.01314818, -0.06469347, -0.04683651,
       -0.12489774,  0.05765173,  0.01719757, -0.0243325 , -0.14464974,
        0.04532326,  0.10174099, -0.0606201 , -0.5537495 , -0.1706414 ,
        0.08918076, -0.0047112 , -0.0410574 , -0.03904103,  0.0243959 ,
       -0.08807892, -0.00826164,  0.09866518, -0.07499027, -0.19969128,
        0.03757309,  0.17727849,  0.17731504, -0.14629748,  0.22572517,
       -0.06334997, -0.35359314,  0.17128511,  0.05321198, -0.33407867,
        0.06578586,  0.13450006, -0.08704321, -0.24165407,  0.12063985,
       -0.06399743, -0.15550758,  0.3693413 , -0.5751909 , -0.28091964,
        0.1383126 , -0.32914108, -0.18994057, -0.13014217, -0.01793592,
        0.04434739, -0.06538306,  0.14008686, -0.17053825,  0.09814014,
        0.16304697, -0.0395803 ,  0.21430047,  0.09402894, -0.17338532,
       -0.04966894, -0.05241678,  0.18531378,  0.22226265,  0.15594955,
        0.00562936,  0.0209808 , -0.04543257,  0.07492775,  0.02726866,
        0.02547895,  0.04485077,  0.06595311, -0.01262566, -0.06281511,
        0.0421184 ,  0.15035819,  0.06497633,  0.01015784,  0.01379668,
       -0.05915709,  0.00875707,  0.11173104,  0.00413243,  0.04514499,
        0.11259662, -0.12582903, -0.11048678, -0.11727413,  0.01401522,
        0.00965719, -0.01018695,  0.06930791, -0.04225401,  0.23047861,
       -0.02200786,  0.08533102,  0.0168662 , -0.13030916, -0.11380707,
       -0.08305258, -0.03294202,  0.0616811 ,  0.05692415, -0.2323271 ,
        0.0944026 , -0.04084914, -0.00231397, -0.06704335, -0.07454541,
        0.03372521, -0.01932479, -0.01058127, -0.13651225, -0.05627438,
        0.01682446, -0.12071938, -0.15475528,  0.09320967, -0.13144547,
        0.02100664, -0.20937686, -0.04876938,  0.06248233, -0.18468961,
       -0.19220565, -0.23423997, -0.05159424,  0.171451  ,  0.20105259,
       -0.28666607, -0.05608346, -0.06056145,  0.01177249,  0.13451278,
        0.00965819,  0.00339801,  0.01396422,  0.07414825, -0.0943618 ,
       -0.02125367,  0.04831439, -0.01197187,  0.00030022,  0.0483733 ,
        0.05506703, -0.01221766, -0.17414944, -0.12967366,  0.12229728,
        0.04062344, -0.08677455, -0.0315646 ,  0.06311602, -0.01696772,
        0.01948985,  0.02617298,  0.01702796,  0.06649896,  0.00802224,
       -0.00878934, -0.06174902,  0.02146594, -0.01680007, -0.03474   ,
       -0.03829467,  0.04412226,  0.07718965,  0.01446391, -0.07126751,
       -0.04534445,  0.09995582, -0.05207997,  0.02798078, -0.03101569,
        0.06501362, -0.04628214, -0.00481639, -0.05158299,  0.06698395,
       -0.01063983, -0.16322118, -0.04860486,  0.12089163, -0.08833826,
       -0.13200323, -0.03595652,  0.09078257,  0.10811239, -0.03635038,
       -0.03561176,  0.05875869, -0.02726736,  0.01266747, -0.08296894,
        0.01483545,  0.03575993, -0.02231138, -0.01413171, -0.02148552,
        0.7381452 , -1.4952663 , -0.94691527,  1.4303372 , -0.7516311 ,
       -2.2897031 ,  1.5581086 ,  1.910142  , -2.4930754 ,  2.1972895 ,
       -2.313331  , -1.2822342 ,  2.0606463 ,  0.50035393, -0.6612052 ,
        0.35427445, -1.0558051 , -0.47234514, -1.3862569 ,  0.7468483 ,
       -1.0016761 ,  0.956321  ,  1.2439708 , -0.10726996,  0.11562094,
        2.0300467 , -0.6528542 , -0.3140709 ,  0.04510244, -1.7617668 ,
        0.45866436,  3.7999723 , -0.64647555, -0.27961737, -0.9572994 ,
        4.10713   ,  1.6977327 , -3.6141055 ,  2.965058  , -1.7129344 ,
        1.4302696 , -0.91336787,  1.1646829 ,  0.6806451 , -0.6904854 ,
        0.6708405 , -2.650817  , -3.392716  , -0.15161385,  0.42627525,
       -0.31304517,  1.9372816 ,  0.9347531 , -0.35978192, -1.4806409 ,
       -0.73639405, -1.5094941 , -0.5935538 , -1.3426208 ,  4.451763  ,
        0.21510775, -0.10413427,  0.00799564, -0.02298511, -0.04794526,
       -0.06276349, -0.12071858,  0.18887404,  0.07945233, -0.08884799,
        0.15356347, -0.05077597,  0.09779169, -0.10163627,  0.0504314 ,
        0.04702846,  0.30641454, -0.1444751 , -0.07308348,  0.11989831,
       -0.03326217, -0.00591329,  0.12471171, -0.05947616,  0.05933314,
        0.28394237,  0.11195786, -0.03026511,  0.02074472,  0.1198992 ,
        0.13704656, -0.13765545,  0.05861019, -0.1486667 ,  0.02974429,
       -0.00666786,  0.11106844, -0.03240048, -0.09519708,  0.06257979,
       -0.02785054, -0.04115749, -0.00335202,  0.09541718,  0.09877358,
       -0.3982795 ,  0.07355955,  0.10124896,  0.10139135, -0.0213256 ,
       -0.07482682, -0.19139023,  0.08637215,  0.04691746, -0.15942559,
        0.09397415,  0.12409604,  0.08059779, -0.06903913, -0.02275706,
        0.0713373 , -0.04384392,  0.00131743,  0.06838673,  0.02250212,
       -0.01128377, -0.00225824, -0.00444409,  0.0085942 , -0.00749888,
       -0.07190502,  0.03630925,  0.07637762, -0.06046962,  0.11158067,
        0.08413763,  0.01310157,  0.00514927,  0.04400127, -0.08390138,
        0.01035478, -0.060604  ,  0.00337115,  0.01593852, -0.06518037,
        0.04115209, -0.06822076,  0.04868392, -0.09054629,  0.04484314,
       -0.01996364, -0.05713858, -0.0094315 , -0.11535563,  0.01780718,
        0.00636142, -0.00685764,  0.01461236, -0.03363558, -0.01721073,
       -0.00768109, -0.06324214, -0.04329609, -0.05288379, -0.1084081 ,
        0.07999289, -0.00349605, -0.01806998,  0.05325634, -0.05325615,
       -0.00268302,  0.07130551, -0.00034135, -0.02869886,  0.01119881,
       -0.00365898,  0.0925768 ,  0.06622606, -0.01307486,  0.05298808,
       -0.0163956 ,  0.01325619, -0.02040924, -0.01284168, -0.08742797,
       -0.01107757,  0.0069651 ,  0.03622282,  0.00866742,  0.02864682,
        0.10787528,  0.00589156,  0.01043473,  0.01414547,  0.03665848,
        0.02337468, -0.04747268, -0.01394642, -0.08527815, -0.06735878,
        0.01661414,  0.05235394,  0.03413369,  0.02633769,  0.01138181,
       -0.05122837,  0.01527005,  0.03516594,  0.02929464, -0.01679463,
       -0.35790563,  0.01161262,  0.14052095, -0.02031014,  0.04793643,
        0.00987393,  0.05016574,  0.16851927, -0.08495435, -0.15570062,
        0.11611892, -0.03250377, -0.14858872, -0.10362762,  0.11009037,
        0.02952275, -0.1109051 , -0.05181099,  0.1127635 ,  0.03751704,
        0.10426652,  0.07252501,  0.11413844, -0.05072907,  0.00842299,
        0.01630054,  0.06699432,  0.06822207,  0.01021878,  0.06190756,
        0.00254102, -0.09097081, -0.03240493,  0.01617965,  0.02621229,
       -0.2787414 ,  0.02412628,  0.19516687, -0.31227377,  0.14343803,
        0.02877865, -0.11449548, -0.10552415, -0.0020111 , -0.02486502,
       -0.07867227,  0.23438348,  0.18625636,  0.0351275 ,  0.07726612,
        0.05019713, -0.1967537 ,  0.05953306,  0.06426373,  0.39274386,
        0.3722873 , -0.1557972 , -0.11167637,  0.04179595, -0.29969433,
       -0.14191899,  0.04475701, -0.14974926,  0.21177004, -0.08686716,
       -0.08203924, -0.05726926, -0.16994174, -0.14866836,  0.14669925,
       -0.00259074,  0.11900672, -0.16044481, -0.03285194,  0.18942842,
        0.00010798,  0.0210963 , -0.01284131,  0.02964545,  0.10645742,
       -0.13154903,  0.2915104 , -0.13446303, -0.0288932 , -0.064745  ,
        0.02206036,  0.2140177 , -0.05521307,  0.27678272,  0.17304921,
       -0.18173526, -0.10565978, -0.20572107,  0.02444614,  0.13264565,
       -0.269344  ,  0.10677249,  0.08447537, -0.34792852,  0.00009783,
       -0.05797417, -0.3333863 , -0.43213087,  0.04931891, -0.19167826,
        0.15563346,  0.01748881,  0.06629042, -0.26656592, -0.1482561 ,
        0.18387774, -0.06435819,  0.41863295, -0.23437999,  0.30867326,
        0.32431608, -0.2864158 , -0.19190006, -0.16003908, -0.22051114,
        0.35527188, -0.04541245, -0.07859313, -0.19525038,  0.07570711,
        0.1539177 , -0.18367317,  0.0420677 ,  0.01117075,  0.05632494,
       -0.1515104 ,  0.04165748, -0.0455426 , -0.2533915 ,  0.15752465,
        0.01739866, -0.03591837, -0.02664964, -0.16206312,  0.22342113,
        0.10842222, -0.02390255,  0.20751178, -0.06436442, -0.01729933,
        0.07111873,  0.09830584, -0.11088517, -0.09141881,  0.04090567,
       -0.28004888,  0.06167111,  0.05153243,  0.15484452, -0.12766887,
        0.00119222,  0.00776594, -0.11573577, -0.13662887,  0.20426953,
        0.11384219, -0.2093108 ,  0.32465404, -0.29059285, -0.02980144,
        0.04678326,  0.1724624 ,  0.01251548,  0.08226316,  0.06357026,
        0.14999346, -0.13346425,  0.15397091, -0.02459109, -0.15753733,
       -0.03758805,  0.00581193,  0.03942585, -0.07276136, -0.01875424,
        0.03534985,  0.21769364,  0.12324858, -0.00249136, -0.01867186,
        0.10198665,  0.04569526, -0.04219072,  0.10769291,  0.4662934 ,
        0.22361447,  0.28556132,  0.02323014, -0.3625363 ,  0.0436779 ,
        0.15878764, -0.10119132,  0.03609616, -0.09319341,  0.00816403,
        0.00479273, -0.10253251,  0.18835299, -0.08259709,  0.25323042,
        0.03176324,  0.23689856,  0.21647856, -0.04055896, -0.0723092 ,
       -0.01148342,  0.01668289, -0.02147775, -0.03438136, -0.13083695,
        0.01152515, -0.04466521, -0.0602856 ,  0.05272026,  0.02235605,
        0.04883755, -0.01749359,  0.02090873, -0.06720603,  0.10862471,
        0.08631848,  0.05008352,  0.01392486, -0.09081088,  0.0484348 ,
        0.01512192, -0.02431103, -0.03677823,  0.0173328 , -0.05810948,
        0.09484202, -0.04986813, -0.02191851, -0.01768985, -0.08417212,
       -0.01639057,  0.01686836, -0.0273782 , -0.08556058, -0.00892515,
       -0.11980408, -0.09958188, -0.15330623, -0.12296903,  0.01566521,
        0.02719288,  0.02369449,  0.11016256, -0.19966562,  0.03366758,
        0.07286299,  0.02576677,  0.007615  , -0.0379761 ,  0.04190017,
       -0.01124146, -0.03949392,  0.00705494, -0.0425883 , -0.10037395,
       -0.01761561, -0.10320968, -0.05268033, -0.10250299,  0.06649187,
       -0.7584987 , -0.16633466, -0.65666264, -1.3223469 ,  0.9179635 ,
        0.06505847,  0.2843045 ,  0.14668351,  0.9285205 ,  0.19955589,
       -1.2012215 , -0.075191  , -0.5029376 ,  0.55032784,  0.95085573,
        0.7463174 , -0.00578554, -0.28170764,  0.860825  ,  1.7899718 ,
       -0.3974025 ,  0.6680637 , -0.26866236,  0.06390353,  0.666741  ,
       -0.72924435, -0.16202581, -0.17120846,  0.36983028,  0.39200047,
        0.50909775,  1.0949847 , -0.39623272,  0.9058575 , -0.3575562 ,
        0.957263  ,  0.71253806, -1.1541995 ,  0.5575496 , -0.96202826,
        0.14040926, -0.3382084 ,  0.39198577,  0.6258657 , -0.94260097,
        1.4717399 , -0.20438257, -0.49905175, -0.9704938 , -0.6912845 ,
        1.0608177 ,  0.89352864,  1.1824743 , -0.00744939,  0.40445828,
        0.6061003 , -0.43424362, -1.4015306 , -0.6405692 ,  0.34179494,
        0.3074574 ,  0.10522421,  0.01746028,  0.02733522,  0.17590457,
       -0.05375303, -0.12082577,  0.09016395,  0.03387335, -0.06766276,
        0.08328584, -0.03810564,  0.13236003, -0.17128135, -0.10825189,
        0.00347662,  0.10369566,  0.03035431, -0.01624935,  0.11031625,
       -0.02009784, -0.1225994 , -0.1259477 , -0.09005594, -0.08113882,
       -0.06015699,  0.00694995, -0.2163621 , -0.0601957 ,  0.05108053,
       -0.01629795,  0.13011017,  0.09829686,  0.06078965,  0.12984312,
        0.02954862, -0.01152952,  0.04888883,  0.16037358,  0.6356679 ,
        0.03529945,  0.02769238, -0.29021248, -0.16033113, -0.02406658,
        0.08749845, -0.02944597, -0.08488728, -0.0281224 , -0.13087432,
        0.05015958, -0.19379705, -0.01707773,  0.16498023,  0.269491  ,
       -0.05686554,  0.0329603 ,  0.13616867, -0.11512578,  0.06899006
};

#endif

