//#include "../jedi.h"

#ifndef W1_2_H_
#define W1_2_H_

// numpy array shape [15, 10]
/*
input_t w1_2[(P + D_e) * N_LAYER_6] = {
        1, 1, 1, 1, 1, 1,1, 1, 1,1, 1, 1,1, 1, 1,
        1, 1, 1, 1, 1, 1,1, 1, 1,1, 1, 1,1, 1, 1,
        1, 1, 1, 1, 1, 1,1, 1, 1,1, 1, 1,1, 1, 1,
        1, 1, 1, 1, 1, 1,1, 1, 1,1, 1, 1,1, 1, 1,
        1, 1, 1, 1, 1, 1,1, 1, 1,1, 1, 1,1, 1, 1,
        1, 1, 1, 1, 1, 1,1, 1, 1,1, 1, 1,1, 1, 1,
        1, 1, 1, 1, 1, 1,1, 1, 1,1, 1, 1,1, 1, 1,
        1, 1, 1, 1, 1, 1,1, 1, 1,1, 1, 1,1, 1, 1,
        1, 1, 1, 1, 1, 1,1, 1, 1,1, 1, 1,1, 1, 1,
        1, 1, 1, 1, 1, 1,1, 1, 1,1, 1, 1,1, 1, 1,
        1, 1, 1, 1, 1, 1,1, 1, 1,1, 1, 1,1, 1, 1,
        1, 1, 1, 1, 1, 1,1, 1, 1,1, 1, 1,1, 1, 1,
        1, 1, 1, 1, 1, 1,1, 1, 1,1, 1, 1,1, 1, 1,
        1, 1, 1, 1, 1, 1,1, 1, 1,1, 1, 1,1, 1, 1,
        1, 1, 1, 1, 1, 1,1, 1, 1,1, 1, 1,1, 1, 1,
        1, 1, 1, 1, 1, 1,1, 1, 1,1, 1, 1,1, 1, 1,
        1, 1, 1, 1, 1, 1,1, 1, 1,1, 1, 1,1, 1, 1,
        1, 1, 1, 1, 1, 1,1, 1, 1,1, 1, 1,1, 1, 1,
        1, 1, 1, 1, 1, 1,1, 1, 1,1, 1, 1,1, 1, 1,
        1, 1, 1, 1, 1, 1,1, 1, 1,1, 1, 1,1, 1, 1,
        1, 1, 1, 1, 1, 1,1, 1, 1,1, 1, 1,1, 1, 1,
        1, 1, 1, 1, 1, 1,1, 1, 1,1, 1, 1,1, 1, 1,
        1, 1, 1, 1, 1, 1,1, 1, 1,1, 1, 1,1, 1, 1,
        1, 1, 1, 1, 1, 1,1, 1, 1,1, 1, 1,1, 1, 1
};*/

input_t w1_2[(P + D_e) * N_LAYER_6] = {
        0.08178159, -0.01229037,  0.03385347, -0.19558334, -0.11005092,
        -0.08240094, -0.27074006, -0.18211475,  0.10562295,  0.00991289,
        0.07451817,  0.09471766, -0.05401599, -1.1385219 , -0.08744719,
        -0.03910647, -0.13433735,  0.00374672, -0.05615067, -0.13471542,
        0.04496063, -0.17676488,  0.00820603,  0.0547667 ,  0.06369584,
        0.09874042, -0.01664135, -0.02786849,  0.0031129 , -0.04520541,
        0.0416155 , -0.08665019,  0.09873918, -0.03445088, -0.14333808,
        -0.23813316, -0.13750018, -0.23628502,  5.4994144 , -4.719884  ,
        -0.26826298, -0.17675035,  0.06417368, -0.07374647,  0.13883907,
        0.05832772, -0.3426359 ,  0.28221962, -0.26052046, -0.36514133,
        0.05365318,  0.15597099, -0.07731058,  0.14092039,  0.01750859,
        0.19417381, -0.00741487,  0.21903533,  0.15773666, -0.23862585,
        0.16701967,  0.17055677, -0.01490927,  0.10148645, -1.3363663 ,
        2.1178405 , -0.11484525, -0.03646786, -0.05169413, -0.12706983,
        -0.00424551,  0.06210552,  0.16929397, -0.07267718,  0.02692322,
        0.19836327,  0.05788967,  0.02995065, -0.01920222, -0.12934238,
        -0.08086558, -0.04554856, -0.22257559, -0.22671294, -0.40589604,
        -0.06502239, -0.21009377,  0.17222424,  0.0046108 , -0.12034432,
        0.28429905, -1.2860525 ,  0.08170092, -0.18036856,  0.0167828 ,
        0.08683069,  0.06605536, -0.04710284,  0.16117068, -0.12028843,
        0.14853936, -0.01810509, -0.01271363, -0.14177847,  0.00553661,
        -0.06201207,  0.11887243,  0.06093731,  0.16875868,  0.02904937,
        0.12772302, -0.22141992,  0.28437844, -0.0889486 ,  0.09423179,
        0.13110058, -1.3320773 ,  1.0991086 , -0.03482126,  0.1413081 ,
        0.18126765, -0.18387792, -0.1292325 , -0.23228115,  0.3083317 ,
        0.3608061 , -0.29399267,  0.08684558,  0.0125513 , -0.09497488,
        -0.01510372, -0.05839996, -0.1673165 ,  0.0325653 ,  0.08165901,
        -0.09441887, -0.06696916,  0.19379213, -0.00257614,  0.01474262,
        0.14564456,  0.17526047, -0.4329701 ,  2.2984846 ,  0.25286052,
        0.15468487,  0.07654104, -0.15569086, -0.08054831,  0.3155466 ,
        -0.05911088, -0.00703585, -0.00524742,  0.01320228, -0.20297861,
        -0.1803471 ,  0.00456161, -0.05445835,  0.18057956, -0.12843482,
        -0.16839764, -0.13366963, -0.04999077, -0.21127681, -0.4816817 ,
        -0.02193163, -0.3178961 , -0.0252333 ,  1.1542897 , -0.9719505 ,
        -0.01731578, -0.070411  ,  0.0453591 ,  0.32262027, -0.04082482,
        0.08379114,  0.10224351,  0.29124644, -0.16974528,  0.04809576,
        -0.12232043,  0.19587885,  0.00979505,  0.0273816 ,  0.10448848,
        0.14453319,  0.16943192,  0.14017497, -0.08666376, -0.09927443,
        0.19149692,  0.1989982 , -0.03934275,  0.09175242,  0.69080114,
        -2.4720778 , -0.00170471, -0.12312789, -0.18130672,  0.02627897,
        -0.1531082 , -0.01667742,  0.1868457 ,  0.3154747 , -0.1245611 ,
        -0.06814206,  0.07476435, -0.18560913, -0.01316087,  0.10460303,
        0.00537522, -0.1303954 , -0.01347753, -0.08328205, -0.00900288,
        0.05092783,  0.36573806, -0.05891626,  0.02033575, -0.12870914,
        -1.6135664 ,  2.2584133 ,  0.03089764, -0.21235715,  0.35640347,
        -0.24858698,  0.0593026 ,  0.14559309,  0.277108  ,  0.20623441,
        0.02473307,  0.06205351, -0.0379183 , -0.05814507, -0.11931742,
        -0.0987658 , -0.02317834, -0.05524169,  0.07955404,  0.09018108,
        0.04431079, -0.10986713,  0.06079431, -0.2266764 , -0.10186587,
        -0.22681394,  4.176498  , -2.2694945 , -0.0194218 , -0.17095222,
        0.0824638 ,  0.24335201,  0.1425154 ,  0.19453114, -0.08484585,
        0.17400935, -0.01397141, -0.276789  ,  0.0846565 ,  0.09009107,
        -0.10538857,  0.04945328, -0.0324485 , -0.08449231,  0.16131143,
        0.093681  ,  0.0053428 , -0.05353423, -0.4090828 ,  0.13087435,
        -0.15212715, -0.18200104,  4.4307265 , -5.4980216 , -0.14160314,
        0.12696658, -0.00215725,  0.0460467 ,  0.3433796 ,  0.10833675,
        -0.36555973,  0.1983944 , -0.21052909, -0.04505941, -0.00644109,
        0.2729465 , -0.11447431,  0.04391678, -0.01051091, -0.15371987,
        -0.08277617, -0.06877878, -0.02821345, -0.06594567, -0.23361842,
        -0.20908813,  0.16056672,  0.03878159,  0.0746107 , -0.4918989 ,
        -0.1052281 , -0.27944088, -0.07859717,  0.02153618,  0.0386034 ,
        0.027079  ,  0.00942462, -0.09953574,  0.20707622,  0.18697414,
        -0.12988238,  0.02021858,  0.12718527, -0.19450471,  0.00174214,
        -0.11527189, -0.11032659, -0.06161428,  0.07302687,  0.05830957,
        -0.02707671,  0.10005631, -0.16534854,  0.11798453, -1.1251808 ,
        -0.10806585, -0.28698394,  0.25746146, -0.05238403,  0.02277252,
        0.05382414, -0.17930192, -0.05784505,  0.00540813,  0.16619249,
        -0.16067399, -0.16014025, -0.16059801, -0.04922942,  0.03074576,
        -0.08770888, -0.04936072, -0.17293239,  0.03012845,  0.02038198,
        0.1499291 ,  0.18749173,  0.04356796,  0.2838207 , -0.10082833,
        0.49381208,  0.43990833, -0.2170992 , -0.09523191, -0.11740172,
        -0.06404649, -0.11287966,  0.0954332 , -0.11782201, -0.08817106,
        -0.05826813,  0.10319337,  0.11161102, -0.10997764, -0.00298484,
        0.00438033,  0.0217864 ,  0.05264201, -0.2018131 ,  0.07157275,
        -0.11855946,  0.05038237, -0.24780251,  0.10264715,  0.07903977,
        0.1578817 ,  3.8362958 , -2.0786574 , -0.12399232, -0.06800859,
        0.281811  ,  0.00379623,  0.11202791,  0.18350185, -0.09199156,
        0.07401478,  0.05421296, -0.02356558,  0.0183103 ,  0.25575963,
        0.01714128, -0.07860527,  0.16398683, -0.12386609, -0.14541447,
        -0.04784178,  0.09107985, -0.21444567,  0.21988846, -0.17149882,
        0.10752109, -0.00885235, -0.18610486, -1.0726124 , -0.02286483,
        -0.05440511, -0.01953254, -0.07878459, -0.12987657, -0.16455518,
        -0.08017693, -0.1073139 ,  0.02021341,  0.06070974, -0.20446041,
        0.06074585, -0.01923287, -0.0008236 ,  0.03176639, -0.18943095,
        -0.33202437, -0.39560142, -0.35244086, -0.07149754, -0.00662599,
        -0.11902023, -0.3552856 ,  0.10634516, -0.14558654,  0.20898889,
        -0.02968835, -0.04391433,  0.2785124 ,  0.14056183, -0.2280774 ,
        0.05577511, -0.06791853,  0.15339412,  0.17575912,  0.10842317,
        -0.20762728, -0.10786954, -0.01673455,  0.00953051, -0.01598474,
        -0.16408436,  0.06324835,  0.03612005,  0.11715282, -0.20772122,
        0.09482556, -0.02090448,  0.3258672 , -0.36649135,  1.3788544 ,
        0.07094426, -0.16964667, -0.15906852,  0.01136446, -0.04670061,
        0.06139767,  0.13636038, -0.10194383,  0.06503171,  0.04991484,
        -0.07270731,  0.1777796 ,  0.05652172, -0.10482953, -0.02281631,
        0.00012503,  0.16991681,  0.12985821, -0.0741507 , -0.00148301,
        -0.14136674,  0.18065993, -0.09376621,  0.13412048, -0.01611427,
        -0.11981969, -0.53146577,  0.22487518,  0.05000362,  0.24963684,
        0.16300848, -0.09733433,  0.13073999, -0.08184311,  0.18944617,
        0.18300374, -0.02246829,  0.04413823,  0.12318126, -0.06946499,
        -0.07033525, -0.02352978, -0.06713812,  0.00358569,  0.07504313,
        -0.29165563, -0.1419575 , -0.3104362 ,  0.11971903,  0.00927903,
        -0.15765846,  0.35501996,  2.3034248 ,  0.09955896,  0.308059  ,
        0.05339028,  0.18663236,  0.10762566, -0.24770108, -0.09581278,
        -0.11443882, -0.12419674,  0.05602019, -0.06648031,  0.04637628,
        -0.04483357,  0.02010268,  0.03082223,  0.10164619, -0.08656846,
        -0.08848169, -0.15830892,  0.06325394, -0.16894448, -0.40869048,
        -0.01347403, -0.23472124, -1.3366452 ,  1.1527377 ,  0.11380668,
        -0.3169414 ,  0.26304758, -0.53320104, -0.00321495, -0.05588352,
        0.16692585,  0.24428634,  0.11459304, -0.04466961,  0.22008798,
        -0.09503204, -0.14729284, -0.00318922,  0.01289413,  0.02149105,
        -0.11367391, -0.25863755,  0.00551535, -0.06580697, -0.27706838,
        0.19746202,  0.06136493,  0.42783245,  1.9857732 , -1.3803608 ,
        0.07456152,  0.02831192,  0.20285423,  0.21236095,  0.1337849 ,
        0.15029213,  0.04438879,  0.2053674 ,  0.11109208, -0.11136112,
        0.1385149 ,  0.02249259, -0.09383723,  0.12713717,  0.01372665,
        -0.108225  ,  0.10333525,  0.04515244, -0.05068067, -0.06927045,
        0.4058806 , -0.18502371,  0.11430085,  0.01404222, -0.15295789,
        1.6375961 ,  0.03342457, -0.29451886, -0.10038169, -0.23092796,
        0.37421703,  0.03304222,  0.11083181,  0.1957843 , -0.36379355,
        0.07393038,  0.26636893, -0.04845172, -0.05406249, -0.1984663 ,
        0.0079658 , -0.40751112, -0.3941877 , -0.36465943, -0.47079185,
        0.17260405,  0.02850007,  0.13122018, -0.03414385,  0.15710633,
        -0.79486024, -0.64523804,  0.17935798, -0.03636757,  0.255622  ,
        0.05013062,  0.09174331, -0.08886126,  0.27791134, -0.14303343,
        0.03788615, -0.00208381,  0.06162357,  0.10716139,  0.02615737,
        -0.04308961, -0.07769118, -0.09986272, -0.01817763, -0.17130035,
        0.17546651,  0.12854241, -0.07564326, -0.12641752,  0.12296417,
        -0.04393147, -0.37656957, -0.43326977,  0.19437616, -0.23580782,
        0.07466122,  0.11210258, -0.07875204, -0.3419519 ,  0.11529763,
        -0.12406218, -0.1217821 , -0.05426274, -0.38832083, -0.03125776,
        0.04157081,  0.06548418, -0.02287781,  0.00231639,  0.19394751,
        0.08601895,  0.098256  , -0.09989593,  0.17679657,  0.07855881,
        0.11084566, -0.01319132, -1.5670099 ,  2.2069867 ,  0.08381123,
        0.29751617,  0.00958725, -0.11171119,  0.095178  , -0.07480462,
        0.09871815, -0.1695903 , -0.09259956,  0.1665328 ,  0.01474922,
        -0.183329  , -0.02593475, -0.02613904,  0.12629066,  0.01503762,
        -0.04316853,  0.01504371,  0.10388444,  0.16694573,  0.03476069,
        0.00569973, -0.10299162,  0.01300401,  1.0985273 , -2.7753406 ,
        -0.14267437,  0.16298787, -0.1842942 , -0.09496164, -0.19449413,
        -0.15927413, -0.16096207,  0.08589967, -0.19827329, -0.0380587 ,
        0.03410455, -0.04510405,  0.0426677 , -0.08116154,  0.10036832,
        -0.23370953, -0.19149081, -0.2940226 , -0.3329036 , -0.0755446 ,
        0.2545223 ,  0.48316416,  0.08549282,  0.2175637 ,  0.5289551 ,
        0.2294738 , -0.14765985,  0.1581455 ,  0.10246062,  0.12556633,
        -0.17704557, -0.19831112,  0.18878902, -0.03142498, -0.01093736,
        0.03478823, -0.0186036 , -0.13952276, -0.02563335, -0.03002676,
        -0.03809707,  0.11687283,  0.1408199 ,  0.04278034,  0.15155748,
        0.33475766,  0.14250268,  0.40831032,  0.05795227,  0.14614464,
        0.47367862, -2.8983762 ,  0.346156  ,  0.42577088,  0.07186845,
        0.19428971,  0.11708017,  0.1263279 , -0.02754243, -0.09162164,
        -0.10910323, -0.11004098,  0.07979021, -0.12900405, -0.01659898,
        0.07523882, -0.09946979,  0.14650694, -0.07187637,  0.09030754,
        0.02788961, -0.14258485,  0.06927228, -0.36498538, -0.10565789,
        0.08602286, -2.2173324 ,  1.8550092 ,  0.0454168 , -0.17051405,
        0.0167555 , -0.10061165, -0.03471416,  0.09714918,  0.1181935 ,
        0.27890688, -0.06347453, -0.053308  , -0.06570429,  0.03782396
};

#endif