//#include "../jedi.h"

#ifndef W1_2_H_
#define W1_2_H_

// numpy array shape [15, 10]
/*
input_t w1_2[(P + D_e) * N_LAYER_6] = {
        1, 1, 1, 1, 1, 1,1, 1, 1,1, 1, 1,1, 1, 1,
        1, 1, 1, 1, 1, 1,1, 1, 1,1, 1, 1,1, 1, 1,
        1, 1, 1, 1, 1, 1,1, 1, 1,1, 1, 1,1, 1, 1,
        1, 1, 1, 1, 1, 1,1, 1, 1,1, 1, 1,1, 1, 1,
        1, 1, 1, 1, 1, 1,1, 1, 1,1, 1, 1,1, 1, 1,
        1, 1, 1, 1, 1, 1,1, 1, 1,1, 1, 1,1, 1, 1,
        1, 1, 1, 1, 1, 1,1, 1, 1,1, 1, 1,1, 1, 1,
        1, 1, 1, 1, 1, 1,1, 1, 1,1, 1, 1,1, 1, 1,
        1, 1, 1, 1, 1, 1,1, 1, 1,1, 1, 1,1, 1, 1,
        1, 1, 1, 1, 1, 1,1, 1, 1,1, 1, 1,1, 1, 1,
        1, 1, 1, 1, 1, 1,1, 1, 1,1, 1, 1,1, 1, 1,
        1, 1, 1, 1, 1, 1,1, 1, 1,1, 1, 1,1, 1, 1,
        1, 1, 1, 1, 1, 1,1, 1, 1,1, 1, 1,1, 1, 1,
        1, 1, 1, 1, 1, 1,1, 1, 1,1, 1, 1,1, 1, 1,
        1, 1, 1, 1, 1, 1,1, 1, 1,1, 1, 1,1, 1, 1,
        1, 1, 1, 1, 1, 1,1, 1, 1,1, 1, 1,1, 1, 1,
        1, 1, 1, 1, 1, 1,1, 1, 1,1, 1, 1,1, 1, 1,
        1, 1, 1, 1, 1, 1,1, 1, 1,1, 1, 1,1, 1, 1,
        1, 1, 1, 1, 1, 1,1, 1, 1,1, 1, 1,1, 1, 1,
        1, 1, 1, 1, 1, 1,1, 1, 1,1, 1, 1,1, 1, 1,
        1, 1, 1, 1, 1, 1,1, 1, 1,1, 1, 1,1, 1, 1,
        1, 1, 1, 1, 1, 1,1, 1, 1,1, 1, 1,1, 1, 1,
        1, 1, 1, 1, 1, 1,1, 1, 1,1, 1, 1,1, 1, 1,
        1, 1, 1, 1, 1, 1,1, 1, 1,1, 1, 1,1, 1, 1
};*/

input_t w1_2[(P + D_e) * N_LAYER_6] = {
        0.08278017,  0.00756523,  0.02970897, -0.00129692,  0.01102528,
        0.03769599,  0.0006957 ,  0.06204784, -0.02695141, -0.10352691,
       -0.07036386,  0.01762379,  0.06244766, -0.04430927,  0.05859125,
        0.02664033,  0.15546177, -0.03437139,  0.01139162,  0.08971749,
        0.01295807, -0.3061951 , -0.09950259, -0.011212  , -0.01456587,
        0.1646663 , -0.02011138, -0.01012336, -0.02618556,  0.0915826 ,
       -0.01141512,  0.00576911,  0.00038089,  0.03670092, -0.02518116,
       -0.1012351 , -0.03213456,  0.00482842,  0.0606287 , -0.01750471,
       -0.02624813,  0.00350508, -0.05667491,  0.00550094, -0.050212  ,
        0.01917609, -0.19176099,  0.03813571,  0.0632023 ,  0.07004133,
        0.03610136,  0.08161978, -0.06379813, -0.00772485, -0.02017586,
       -0.0154759 , -0.02565135, -0.01689125, -0.02145982,  0.01579003,
        0.01809265, -0.01901331, -0.04425536, -0.00240506, -0.00074461,
       -0.06497885, -0.01986494,  0.01651052,  0.02287555,  0.01025399,
       -0.06056248, -0.0201087 , -0.00064511,  0.01872329, -0.04387317,
       -0.06485765,  0.12058549,  0.01148935, -0.01377753,  0.02027837,
       -0.03614482,  0.09407782,  0.01346478,  0.02162486,  0.03447612,
       -0.15160172, -0.03280832,  0.00416761,  0.00450192, -0.041494  ,
        0.02085836, -0.071573  , -0.10333131, -0.0121844 , -0.06737071,
        0.22933593,  0.14850469, -0.11485626, -0.24793254, -0.12995003,
       -0.12779965,  0.21901482, -0.21243003,  0.06838561,  0.03371548,
        0.14197943, -1.029025  ,  0.26096776,  0.07569329, -0.02107374,
        0.13069119,  0.23265344, -0.84553695, -0.02489089, -0.00150641,
       -0.39412266,  0.11736457, -0.00101579, -0.0342759 , -0.07240377,
       -0.07666336, -0.18390627, -0.15618804, -0.18491404, -0.0451158 ,
       -0.01926261,  0.10776524,  0.17161424,  0.06301337, -0.04797964,
       -0.23813906, -0.10635959, -0.13626263,  0.17226405,  0.01655143,
        0.15688552, -1.5833057 ,  0.37927353, -0.01885843,  0.24426015,
        0.01019581, -0.11847229, -1.0743675 ,  0.04860194,  0.2148888 ,
       -0.44252297, -0.33116704,  0.08169309,  0.05233245,  0.02426277,
        0.12070005,  0.02147509, -0.03680777, -0.10972779, -0.13837026,
        0.02990535, -0.09843424,  0.12848683,  0.08903368,  0.10806634,
       -0.41700426,  0.06745286, -0.12538654,  0.04198361, -0.05251273,
       -0.09170672, -1.5539643 ,  0.47449425,  0.10750581, -0.0010429 ,
        0.03550801, -0.03575902, -0.6846716 , -0.07142892,  0.01986308,
       -0.3130871 , -0.08916966,  0.06744128, -0.08526084, -0.03779735,
        0.01993774,  0.1000999 , -0.0939104 , -0.05920344,  0.03608021,
       -0.01053782, -0.10107524,  0.13909449, -0.12331607,  0.33011416,
       -0.26002452,  0.1062251 ,  0.0735217 ,  0.20127918, -0.15606824,
        0.15786414, -1.4961362 ,  0.29219148,  0.07130576,  0.0271303 ,
       -0.01816752,  0.04022498, -0.97965926,  0.11370151,  0.18410158,
       -0.34396845, -0.05779421,  0.32976118, -0.25898564, -0.22482552,
       -0.08781243, -0.29859173,  0.09845596, -0.02344174,  0.00722644,
       -0.2574724 , -0.26801988,  0.14322594, -0.19911711,  0.22908442,
       -0.19185899,  0.32760352, -0.06545705, -0.27902806,  0.02626581,
       -0.08948807,  0.20822246, -0.10810571, -0.11573283,  0.00335594,
       -0.2563798 , -0.07416701, -0.1273444 ,  0.07112727, -0.1508679 ,
       -0.19975418,  0.00166739, -0.17547527, -0.05900815,  0.35190362,
       -0.64302105, -0.11681004,  0.04247081,  0.16308704,  0.24163818,
        0.16002995, -0.04609099,  0.42322347,  0.00174941, -0.05112127,
       -0.20284158, -0.9188143 , -0.16947977, -0.0439488 ,  0.22715205,
        0.44056177, -0.09165104, -0.00115928,  0.03918532, -0.02267663,
       -0.14152092,  0.30413967,  0.13182297, -0.1844666 , -0.22022413,
        0.09845883,  0.3338046 , -0.12268444,  0.22075087,  0.47068113,
       -0.23153341,  0.45124152,  0.17151324, -0.12006663, -0.5161603 ,
       -0.74463   , -0.6659451 ,  0.09180327, -0.52793133, -0.06495219,
       -0.03680255, -0.21678309, -0.13816422, -0.43828824,  0.69523025,
       -0.14073817,  0.19053133,  0.21945368,  0.23624302,  0.12561345,
        0.3373208 ,  0.30380556,  0.08469275, -0.05618916, -0.6305559 ,
       -0.04872015, -0.23509847,  0.00241975, -0.10940991,  0.49797836,
       -0.0483389 , -0.04152758, -0.03065575,  0.0257458 , -0.1311837 ,
        0.22399242,  0.11245055,  0.17336643, -0.12334011,  0.06908225,
        0.19050437, -0.15476751, -0.00417502, -0.26193878, -0.22635733,
       -0.1513433 ,  0.11374226, -0.20092003,  0.16602024, -0.20776904,
       -0.00027596,  0.27237183,  0.09460111, -0.014657  ,  0.33196425,
        0.00346848,  0.02537089, -0.08862868,  0.0451128 , -0.19846979,
        0.1043826 ,  0.3127122 , -0.02515111,  0.2896982 , -0.18803978,
       -0.15488315, -0.20858115,  0.0418525 , -0.30766246,  0.05638281,
        0.08633524, -0.27731922,  0.38416788, -0.1942874 , -0.11439127,
        0.0237539 ,  0.10987397,  0.20772874,  0.06913391,  0.26425815,
        0.0261757 , -0.11965508,  0.22793595,  0.2035239 , -0.5875204 ,
       -0.26169062, -0.24922112,  0.07548987, -0.05391199,  0.2216197 ,
        2.3334727 ,  0.8392903 , -1.6830212 , -2.7021458 , -0.35832837,
        1.4462719 , -0.73838514,  1.8723317 ,  0.63917863,  0.9176337 ,
        1.1292981 ,  6.7197866 ,  0.93986267,  4.781873  , -1.7266968 ,
        2.74991   ,  0.10102006,  1.2044222 , -2.3603647 , -1.6830072 ,
        1.4081415 , -1.4228958 , -0.48591405, -2.0014417 ,  1.9957539 ,
        0.5836015 , -3.5016112 ,  9.756149  , -1.8810847 , -0.47054374,
       -3.0860636 ,  0.95662564,  2.7872546 ,  0.95511603,  0.31640434,
       -4.087637  , -2.130198  ,  0.59566617,  0.43624654, -1.0812385 ,
       -0.02705424,  5.531484  , -2.250601  , -7.747604  ,  2.7077193 ,
       -5.9932895 ,  0.05130639, -0.9465166 ,  2.9853303 ,  2.7142725 ,
       -2.566561  ,  0.9124807 , -0.4142037 ,  3.1835372 ,  2.1203752 ,
        0.49259618,  3.201305  , -8.839612  ,  1.3430134 , -1.3627291 ,
       -0.05142312, -0.291623  , -0.15227315, -0.0566719 , -0.03867954,
       -0.15531765, -0.49107888,  0.07882732, -0.24615194,  0.165599  ,
       -0.05711237,  0.10876061,  0.04642524, -0.36890557, -0.08113372,
       -0.05351649,  0.40019485,  0.10904762, -0.15634853,  0.01600968,
       -0.10263158,  0.05074908, -0.0155986 , -0.0140227 , -0.28406322,
       -0.0399016 ,  0.03837869, -0.10648578, -0.22483583,  0.06358104,
       -0.21452679,  0.5485113 ,  0.17492993, -0.13192509, -0.274335  ,
       -0.57966954, -0.6213037 ,  0.17462635, -0.47934785, -0.16339037,
        0.10487418, -0.30028534, -0.24394622, -0.5541559 ,  0.5263227 ,
       -0.28281972, -0.07470756, -0.10698597, -0.01507634,  0.2531473 ,
        0.27221936,  0.35318834,  0.0118453 , -0.19891664, -0.6995687 ,
       -0.21291968, -0.2728962 ,  0.05619021, -0.37486762,  0.457441  ,
       -0.08300137,  0.12088633,  0.11086823, -0.14222029,  0.0967667 ,
       -0.02162106, -0.27960005, -0.05428368, -0.06169972, -0.05769172,
       -0.12999831,  0.09439655, -0.14172134, -0.07491182, -0.13365638,
       -0.19834709,  0.20724922,  0.03896782, -0.10518568,  0.0892242 ,
       -0.2750729 ,  0.05456737,  0.05764377,  0.03848549,  0.11392086,
        0.02049104, -0.141962  ,  0.06343907,  0.02498102,  0.12054092,
       -0.17244965,  0.07498388, -0.02656876, -0.04335025,  0.03843807,
        0.07825503, -0.11930999, -0.08701336, -0.1582526 ,  0.0237118 ,
        0.25983077, -0.61222917,  0.04709399, -0.077392  ,  0.08025717,
       -0.26875907,  0.04485607, -0.02649563, -0.03104451, -0.21724363,
        0.21515699, -0.0674658 ,  0.00426479,  0.16933413, -0.09127551,
       -0.17052701,  0.26084676, -0.11071263,  0.13228709,  0.06316011,
        0.02493067,  0.0525379 ,  0.03483529, -0.02047344,  0.33426228,
        0.07179975, -0.1547826 ,  0.11590563,  0.02624072, -0.09871039,
        0.15381387, -0.14424519, -0.19017017, -0.21032323, -0.0202681 ,
       -0.11882009,  0.1369936 , -0.0926446 ,  0.02931406, -0.07834236,
        0.01807212,  0.05474632,  0.02807923,  0.04677378,  0.31885394,
        0.07004254, -0.13650809, -0.29967093,  0.13577244,  0.07164606,
        0.0201198 ,  0.11558305, -0.19944784, -0.00355293, -0.21421206,
       -0.03046479, -0.45611942,  0.1618643 , -0.0700158 , -0.11981803,
       -0.07661578,  0.15586439,  0.09037336,  0.094599  , -0.07926887,
        0.12321053,  0.0147761 , -0.15740028, -0.32069874,  0.14630158,
       -0.14323577,  0.05030635,  0.15579945, -0.11207241, -0.4219697 ,
       -0.1013262 ,  0.17835622, -0.19653085, -0.02441357,  0.3046644 ,
        0.01878766, -0.0864348 , -0.14926445, -0.0715611 ,  0.2815294 ,
        0.07968912,  0.54804295,  0.18468496, -0.16596596, -0.11539561,
       -0.06512746,  0.03844107, -0.10180095,  0.11338117, -0.04429153,
       -0.0181957 ,  0.00046102, -0.02541367,  0.19759147,  0.13440266,
        0.12269887, -0.02725706,  0.05965324,  0.10417598,  0.00755515,
       -0.15558709,  0.26222494,  0.08669052,  0.45465696,  0.29910183,
        0.03631129, -0.09211593,  0.12376324,  0.05225923,  0.02705237,
        0.16399114, -0.01342048, -0.19401237, -0.20838468, -0.2426358 ,
       -0.13159801, -0.39688063, -0.00951699,  0.13439259,  0.05229223,
       -0.14795987, -0.2063601 , -0.17141935,  0.05031857,  0.00389734,
        0.10642723, -0.06357133,  0.04258669,  0.15550005, -0.30474773,
        0.14254437,  0.19375694,  0.09594751,  0.06399538,  0.02148632,
        0.20273821, -0.08600261,  0.01632996,  0.0117234 , -0.3880413 ,
       -0.03319743, -0.5972813 ,  0.21252485, -0.04687753,  0.04199887,
       -0.08354753, -0.20469092,  0.00050919, -0.08198918, -0.05792776,
       -0.27083984, -0.38236544, -0.18478085, -0.0340925 , -0.135281  ,
       -0.27036425,  0.00181983,  0.12049187,  0.11433802, -0.1125937 ,
       -0.03170341, -0.30694005, -0.3585016 , -0.570861  ,  0.11195978,
        0.19423494,  0.06134558,  0.20340249,  0.10288366,  0.35326847,
       -0.10427574,  0.5185702 ,  0.26301953, -0.16314173, -0.0862446 ,
        0.16839151,  0.05605374,  0.0693094 , -0.13490973, -0.01021904,
        0.014229  ,  0.29432404,  0.02985276,  0.21444081, -0.04441051,
        0.08681054,  0.1153646 ,  0.01848585, -0.03815652,  0.35723728,
        0.14506368, -0.00558039,  0.23050016, -0.02451346,  0.10450311,
       -0.08394235, -0.04327479, -0.05854771,  0.02079109, -0.14416556,
       -0.08258884,  0.00487208, -0.00637605,  0.12914096,  0.02273398,
        0.08909895,  0.19609319, -0.0952467 ,  0.0341668 , -0.04786172,
        0.06821933,  0.1338167 ,  0.03028293, -0.13083057,  0.2921182 ,
        0.19468367,  0.09364204,  0.11031598, -0.18603553,  0.05261311,
        0.0528909 ,  0.02830431,  0.24327876,  0.01575543,  0.00952245,
       -0.11675388, -0.0091276 , -0.15041186, -0.07011098, -0.09057835,
       -0.12689397, -0.27757135, -0.17096682,  0.1958813 , -0.11507562,
        0.10695323,  0.10393213,  0.0639751 ,  0.11755326, -0.0334636 ,
       -0.09920635,  0.49524432, -0.2519486 , -0.19277841, -0.11333313,
       -0.14500743,  0.28177047,  0.1548245 , -0.10062693, -0.06707389,
        0.17935896,  0.08155198,  0.34081763,  0.01794271, -0.18260609
};

#endif
