//#include "../jedi.h"

#ifndef W1_3_H_
#define W1_3_H_

// numpy array shape [15, 10]
/*
input_t w1_3[D_o * N_LAYER_10] = {
        2, 2, 2, 2, 2, 2,2, 2, 2,2, 2, 2,2, 2, 2,
        2, 2, 2, 2, 2, 2,2, 2, 2,2, 2, 2,2, 2, 2,
        2, 2, 2, 2, 2, 2,2, 2, 2,2, 2, 2,2, 2, 2,
        2, 2, 2, 2, 2, 2,2, 2, 2,2, 2, 2,2, 2, 2,
        2, 2, 2, 2, 2, 2,2, 2, 2,2, 2, 2,2, 2, 2,
        2, 2, 2, 2, 2, 2,2, 2, 2,2, 2, 2,2, 2, 2,
        2, 2, 2, 2, 2, 2,2, 2, 2,2, 2, 2,2, 2, 2,
        2, 2, 2, 2, 2, 2,2, 2, 2,2, 2, 2,2, 2, 2,
        2, 2, 2, 2, 2, 2,2, 2, 2,2, 2, 2,2, 2, 2,
        2, 2, 2, 2, 2, 2,2, 2, 2,2, 2, 2,2, 2, 2,
        2, 2, 2, 2, 2, 2,2, 2, 2,2, 2, 2,2, 2, 2,
        2, 2, 2, 2, 2, 2,2, 2, 2,2, 2, 2,2, 2, 2,
        2, 2, 2, 2, 2, 2,2, 2, 2,2, 2, 2,2, 2, 2,
        2, 2, 2, 2, 2, 2,2, 2, 2,2, 2, 2,2, 2, 2,
        2, 2, 2, 2, 2, 2,2, 2, 2,2, 2, 2,2, 2, 2,
        2, 2, 2, 2, 2, 2,2, 2, 2,2, 2, 2,2, 2, 2,
        2, 2, 2, 2, 2, 2,2, 2, 2,2, 2, 2,2, 2, 2,
        2, 2, 2, 2, 2, 2,2, 2, 2,2, 2, 2,2, 2, 2,
        2, 2, 2, 2, 2, 2,2, 2, 2,2, 2, 2,2, 2, 2,
        2, 2, 2, 2, 2, 2,2, 2, 2,2, 2, 2,2, 2, 2
};*/

input_t w1_3[D_o * N_LAYER_10] = {
        0.15658939,  0.06180927, -0.05516735,  0.23370655, -0.22325283,
        0.17097543,  0.1470136 , -0.11620438,  0.13219422, -0.31767276,
        0.04077676, -0.1663504 , -0.17550585, -0.23384972,  0.03134279,
        0.1387349 , -0.22197694,  0.07038639, -0.21433012, -0.22008464,
       -0.13497415,  0.05246435, -0.17099072, -0.37182358, -0.1393011 ,
        0.06757416, -0.17157418, -0.13772377, -0.13440005,  0.01775621,
        0.1860476 ,  0.03990444, -0.02944046, -0.06563649, -0.10383812,
       -0.23400849, -0.3071586 ,  0.26890957,  0.18784119,  0.05910314,
        0.23458922,  0.03778877,  0.04618511,  0.07166744,  0.1736815 ,
        0.08716246,  0.17689116,  0.14406453, -0.27522513,  0.03110667,
        0.18208618,  0.00433868, -0.03472363,  0.18822089,  0.05375449,
        0.3596353 , -0.21207505,  0.32944998, -0.19372684,  0.05303853,
        0.00446692, -0.10523284, -0.10604358, -0.19324136, -0.15448393,
       -0.19432688,  0.13901135,  0.22985758, -0.14273338,  0.00516048,
        0.18845744,  0.04095907, -0.20121   , -0.03410424,  0.03327143,
        0.22061901,  0.02767844, -0.08390607,  0.10379156,  0.2549403 ,
        0.25648972,  0.01611476, -0.19547231, -0.06519148,  0.11263039,
       -0.22252762,  0.05141011,  0.20755108,  0.01075616, -0.18630172,
       -0.27597636, -0.30951512, -0.0158779 ,  0.12889189, -0.08572061,
       -0.17861964,  0.17725259, -0.01957714,  0.27099907,  0.17063534,
        0.25291497,  0.19212288,  0.06412213, -0.10317375,  0.14713824,
       -0.05494165, -0.35641864,  0.00711097, -0.16344774,  0.09146272,
       -0.08274843,  0.21884301,  0.06026174, -0.14600949,  0.07876938,
       -0.05348315,  0.21817912, -0.28592333,  0.03313623, -0.05758715,
        0.23832472, -0.13775903, -0.08366727, -0.30253977,  0.10256606,
        0.00083489, -0.07568406,  0.32467937,  0.22469276, -0.00625851,
        0.17782147,  0.05093034, -0.08067499, -0.0659155 ,  0.12908971,
       -0.02219769,  0.19244985, -0.251391  ,  0.22482437, -0.02913062,
        0.03816149,  0.18626979,  0.05784399,  0.02332485,  0.16213651,
       -0.08114123, -0.06675629,  0.28988415, -0.1487881 , -0.33377618,
       -0.21704572,  0.0460671 ,  0.02528012, -0.27457672,  0.25798047,
        0.13901524, -0.25477466,  0.19612908, -0.22322184,  0.05619616,
       -0.16433859,  0.16638218,  0.41884172, -0.08828094, -0.00462075,
       -0.05864846,  0.06960642, -0.1449024 , -0.18923102, -0.16880316,
        0.01219195,  0.08092675,  0.24946043, -0.11339737, -0.16132888,
       -0.19004466, -0.20496483, -0.40275612, -0.007599  ,  0.1984488 ,
        0.19101693, -0.05761023, -0.3667672 ,  0.00788017,  0.03154961,
        0.14756809,  0.09587875,  0.02340327,  0.23955125,  0.2558036 ,
        0.00327988, -0.08915327,  0.10643147, -0.16340931, -0.04616269,
        0.2790267 , -0.24443716,  0.08155761,  0.31247437, -0.09306534,
        0.09662505,  0.26420146,  0.19302157,  0.23996337, -0.11317149,
        0.08010899,  0.21054439, -0.15518335, -0.22418961,  0.11517326,
       -0.24825065,  0.16115281, -0.02030739, -0.1786137 ,  0.260932  ,
       -0.22469103, -0.11161607, -0.01942267, -0.11112395, -0.03494215,
       -0.23390467, -0.04127881, -0.01218773,  0.21561657,  0.14213324,
        0.01399437,  0.2627544 ,  0.06516305,  0.10210893, -0.24660225,
        0.14968291,  0.23723337, -0.07763886, -0.16193877, -0.1798571 ,
        0.12675709, -0.44146255, -0.20743173,  0.12786667,  0.13546413,
       -0.13659547, -0.00952593, -0.09793741, -0.23271887,  0.22927345,
        0.02772692, -0.22690329,  0.17277214, -0.06923494,  0.11993726,
       -0.05380891, -0.09070699, -0.30415973,  0.32198715, -0.11471859,
       -0.06369606, -0.08033216,  0.22585353, -0.0445782 , -0.06348873,
        0.02426006,  0.20641747,  0.11763083, -0.18196234, -0.16020612,
       -0.16355124, -0.10261715, -0.0692355 , -0.06198099, -0.07296592,
        0.3026468 ,  0.06583308,  0.12744404, -0.02162618,  0.19447398,
        0.11476699, -0.024246  ,  0.32379875, -0.00692132, -0.13367979,
        0.21194671, -0.179658  ,  0.04626194, -0.27226585, -0.10577816,
       -0.03406425, -0.09532085, -0.27789813,  0.23662011,  0.48023373,
       -0.05092102,  0.1261328 ,  0.31462717, -0.1752871 ,  0.2100683 ,
        0.15305595,  0.13233006, -0.07401855, -0.00093397, -0.00189641
};

#endif
