//#include "../jedi.h"

#ifndef W1_3_H_
#define W1_3_H_

// numpy array shape [15, 10]
/*
input_t w1_3[D_o * N_LAYER_10] = {
        2, 2, 2, 2, 2, 2,2, 2, 2,2, 2, 2,2, 2, 2,
        2, 2, 2, 2, 2, 2,2, 2, 2,2, 2, 2,2, 2, 2,
        2, 2, 2, 2, 2, 2,2, 2, 2,2, 2, 2,2, 2, 2,
        2, 2, 2, 2, 2, 2,2, 2, 2,2, 2, 2,2, 2, 2,
        2, 2, 2, 2, 2, 2,2, 2, 2,2, 2, 2,2, 2, 2,
        2, 2, 2, 2, 2, 2,2, 2, 2,2, 2, 2,2, 2, 2,
        2, 2, 2, 2, 2, 2,2, 2, 2,2, 2, 2,2, 2, 2,
        2, 2, 2, 2, 2, 2,2, 2, 2,2, 2, 2,2, 2, 2,
        2, 2, 2, 2, 2, 2,2, 2, 2,2, 2, 2,2, 2, 2,
        2, 2, 2, 2, 2, 2,2, 2, 2,2, 2, 2,2, 2, 2,
        2, 2, 2, 2, 2, 2,2, 2, 2,2, 2, 2,2, 2, 2,
        2, 2, 2, 2, 2, 2,2, 2, 2,2, 2, 2,2, 2, 2,
        2, 2, 2, 2, 2, 2,2, 2, 2,2, 2, 2,2, 2, 2,
        2, 2, 2, 2, 2, 2,2, 2, 2,2, 2, 2,2, 2, 2,
        2, 2, 2, 2, 2, 2,2, 2, 2,2, 2, 2,2, 2, 2,
        2, 2, 2, 2, 2, 2,2, 2, 2,2, 2, 2,2, 2, 2,
        2, 2, 2, 2, 2, 2,2, 2, 2,2, 2, 2,2, 2, 2,
        2, 2, 2, 2, 2, 2,2, 2, 2,2, 2, 2,2, 2, 2,
        2, 2, 2, 2, 2, 2,2, 2, 2,2, 2, 2,2, 2, 2,
        2, 2, 2, 2, 2, 2,2, 2, 2,2, 2, 2,2, 2, 2
};*/

input_t w1_3[D_o * N_LAYER_10] = {
        -0.44522297, -0.13784486,  0.26119342,  0.12159031, -0.20268774,
        0.19636548,  0.23325583,  0.04783351,  0.01512258, -0.3208661 ,
        -0.09435516,  0.26513222, -0.30162188, -0.06393254, -0.00499237,
        -0.22849305,  0.16344203,  0.01383838,  0.12228899, -0.07627348,
        0.05340507, -0.19062607, -0.07899057,  0.0494508 ,  0.25809693,
        -0.23071298, -0.21038283, -0.049922  ,  0.28953096,  0.24444506,
        -0.10407154, -0.39469033, -0.07228214,  0.26098228, -0.1009484 ,
        -0.12846203, -0.0303488 , -0.08052412, -0.14402895,  0.17861238,
        -0.0682942 ,  0.20001188, -0.05629773, -0.07473049,  0.10421416,
        0.15650722, -0.00932169, -0.04888934, -0.1652763 ,  0.44543442,
        -0.2044578 , -0.0513691 , -0.28100678,  0.01233867,  0.2772741 ,
        0.04945718,  0.15336883,  0.04735748,  0.03064038, -0.03865962,
        -0.24337435,  0.13801272,  0.05825261, -0.13722208,  0.1727713 ,
        0.05110284, -0.05216184, -0.31196982,  0.10579953,  0.14178614,
        -0.22431824, -0.3099383 , -0.00814331, -0.05449075, -0.15720129,
        -0.04782729,  0.04263482, -0.14559287, -0.04220276, -0.01300608,
        -0.06492176,  0.14687558, -0.1352693 , -0.06094759,  0.17646179,
        0.32001382,  0.18299998,  0.09041335, -0.07856225, -0.12738083,
        0.11873805,  0.01209112, -0.0599863 , -0.02034028,  0.06313136,
        -0.23750025,  0.0799446 , -0.18326625, -0.103682  ,  0.03249337,
        0.28993842,  0.09171084, -0.20794956,  0.18478785, -0.13330951,
        0.17952517, -0.07018849, -0.28583527,  0.16218412, -0.2586222 ,
        -0.1928288 , -0.03700678,  0.09136997,  0.11276226, -0.26786524,
        0.1290371 ,  0.07523944,  0.03145279,  0.03693696, -0.1598541 ,
        -0.2325945 ,  0.16141292, -0.18409102, -0.10387563, -0.01968236,
        0.3980358 , -0.10037404,  0.15322255, -0.31236795,  0.18537764,
        -0.0476152 , -0.20186502, -0.06206276,  0.176913  , -0.02599669,
        0.39414847, -0.30575716,  0.32777816, -0.23468156,  0.0903156 ,
        -0.07829417, -0.02908225,  0.20269355, -0.04735215, -0.07691573,
        0.3066479 ,  0.23634578,  0.06909955, -0.01217792, -0.03260221,
        -0.08530367, -0.19092841,  0.29008043, -0.08176859, -0.02046174,
        -0.1617144 , -0.1107226 ,  0.13081479, -0.21387732,  0.00220856,
        -0.15785806,  0.01757018, -0.08055221, -0.02939344,  0.04172991,
        0.2812038 , -0.1465311 , -0.06017247, -0.21004613,  0.09831417,
        -0.14682747, -0.17060727, -0.13308223, -0.11263257,  0.2692546 ,
        0.0025521 , -0.17189026,  0.1614841 ,  0.26273257,  0.00761812,
        0.3360818 ,  0.14741515,  0.15258282, -0.05844115,  0.02194954,
        -0.24223377, -0.17884415, -0.10148224, -0.00713378,  0.07710092,
        0.00491806,  0.17702287,  0.35785675, -0.00574808, -0.19125053,
        0.1464724 , -0.08620434, -0.19573843, -0.30462742, -0.0938829 ,
        -0.26712933,  0.18088415,  0.2665696 ,  0.23178677,  0.12090545,
        -0.15209901,  0.1434369 ,  0.00733995,  0.23039833,  0.1945888 ,
        -0.2667381 ,  0.21177389, -0.05111938,  0.16003183,  0.00988527,
        0.00824724, -0.23967405,  0.24434108, -0.14684795,  0.08966395,
        0.27709422,  0.02226073, -0.15098523, -0.06459851, -0.26701388,
        -0.09476089, -0.20967883,  0.06610114, -0.00336084,  0.11683158,
        -0.19741276, -0.3435787 ,  0.18668693,  0.09949797, -0.2840216 ,
        0.01269175,  0.21515316, -0.14553092,  0.13168934, -0.12687409,
        -0.0939557 ,  0.26602718,  0.1877121 , -0.16105998,  0.19685465,
        0.00228171,  0.04607922, -0.2784509 ,  0.30502287,  0.03424452,
        0.0664504 ,  0.15925875, -0.23342462, -0.02879918,  0.10057982,
        -0.23378591,  0.09352882,  0.20151976,  0.2286831 ,  0.3996767 ,
        -0.10188904, -0.18915471, -0.33196953,  0.25455388, -0.20035882,
        -0.32661268,  0.03414424,  0.05300495, -0.04158878,  0.07813885,
        -0.3298431 ,  0.02860077, -0.17459159,  0.21217173, -0.19040579,
        0.32515717,  0.04234632,  0.06243895, -0.21771467, -0.1503788 ,
        0.03402871,  0.16121799, -0.177625  , -0.24148075,  0.05927313,
        -0.06125557,  0.0213898 ,  0.12375467,  0.25583038, -0.12741148,
        -0.39279872,  0.32365063, -0.05507535, -0.02587131, -0.24107106,
        0.31204587,  0.1882678 ,  0.40680385, -0.21062097,  0.24889566
};

#endif