//#include "../jedi.h"

#ifndef W2_1_H_
#define W2_1_H_

// numpy array shape [30, 15]
/*
input_t w2_1[N_LAYER_2 * N_LAYER_4] = {
        1, 1, 1, 1, 1, 1,1, 1, 1,1, 1, 1,1, 1, 1,
        1, 1, 1, 1, 1, 1,1, 1, 1,1, 1, 1,1, 1, 1,
        1, 1, 1, 1, 1, 1,1, 1, 1,1, 1, 1,1, 1, 1,
        1, 1, 1, 1, 1, 1,1, 1, 1,1, 1, 1,1, 1, 1,
        1, 1, 1, 1, 1, 1,1, 1, 1,1, 1, 1,1, 1, 1,
        1, 1, 1, 1, 1, 1,1, 1, 1,1, 1, 1,1, 1, 1,
        1, 1, 1, 1, 1, 1,1, 1, 1,1, 1, 1,1, 1, 1,
        1, 1, 1, 1, 1, 1,1, 1, 1,1, 1, 1,1, 1, 1,
        1, 1, 1, 1, 1, 1,1, 1, 1,1, 1, 1,1, 1, 1,
        1, 1, 1, 1, 1, 1,1, 1, 1,1, 1, 1,1, 1, 1,
        1, 1, 1, 1, 1, 1,1, 1, 1,1, 1, 1,1, 1, 1,
        1, 1, 1, 1, 1, 1,1, 1, 1,1, 1, 1,1, 1, 1,
        1, 1, 1, 1, 1, 1,1, 1, 1,1, 1, 1,1, 1, 1,
        1, 1, 1, 1, 1, 1,1, 1, 1,1, 1, 1,1, 1, 1,
        1, 1, 1, 1, 1, 1,1, 1, 1,1, 1, 1,1, 1, 1,
        1, 1, 1, 1, 1, 1,1, 1, 1,1, 1, 1,1, 1, 1,
        1, 1, 1, 1, 1, 1,1, 1, 1,1, 1, 1,1, 1, 1,
        1, 1, 1, 1, 1, 1,1, 1, 1,1, 1, 1,1, 1, 1,
        1, 1, 1, 1, 1, 1,1, 1, 1,1, 1, 1,1, 1, 1,
        1, 1, 1, 1, 1, 1,1, 1, 1,1, 1, 1,1, 1, 1,
        1, 1, 1, 1, 1, 1,1, 1, 1,1, 1, 1,1, 1, 1,
        1, 1, 1, 1, 1, 1,1, 1, 1,1, 1, 1,1, 1, 1,
        1, 1, 1, 1, 1, 1,1, 1, 1,1, 1, 1,1, 1, 1,
        1, 1, 1, 1, 1, 1,1, 1, 1,1, 1, 1,1, 1, 1,
        1, 1, 1, 1, 1, 1,1, 1, 1,1, 1, 1,1, 1, 1,
        1, 1, 1, 1, 1, 1,1, 1, 1,1, 1, 1,1, 1, 1,
        1, 1, 1, 1, 1, 1,1, 1, 1,1, 1, 1,1, 1, 1,
        1, 1, 1, 1, 1, 1,1, 1, 1,1, 1, 1,1, 1, 1,
        1, 1, 1, 1, 1, 1,1, 1, 1,1, 1, 1,1, 1, 1,
        1, 1, 1, 1, 1, 1,1, 1, 1,1, 1, 1,1, 1, 1
}; */

input_t w2_1[N_LAYER_2 * N_LAYER_4] = {
       -0.09540232, -0.0303574 , -0.05431924, -0.01111871,  0.03555064,
        0.08672374, -0.05229042,  0.07041802, -0.06616198, -0.0081023 ,
        0.00764933,  0.11648706, -0.02372601,  0.05506527,  0.08621495,
       -0.04780484, -0.11215333,  0.01648376, -0.01253936,  0.1134149 ,
       -0.06693908,  0.1227512 , -0.20560104,  0.12442105,  0.05625777,
       -0.21174942,  0.15790449,  0.03344956, -0.08785789,  0.19439457,
        0.19229244,  0.11146636, -0.04215921, -0.04124429,  0.03648653,
       -0.11546941, -0.02601793,  0.02454365, -0.22378388, -0.11234988,
       -0.04326686,  0.08731161,  0.05191831, -0.10951267,  0.08870088,
       -0.04592604,  0.05908397, -0.03468049,  0.00016041,  0.07003359,
        0.06805491, -0.04790702,  0.03353476,  0.01747503,  0.12154243,
       -0.1851692 ,  0.14428857,  0.0579275 ,  0.1437693 ,  0.15839674,
        0.08408189, -0.07433186,  0.03809245,  0.02140414, -0.07631306,
       -0.08491371, -0.00549441,  0.00173692,  0.1456465 , -0.02028145,
        0.16512331,  0.01206397, -0.06845895,  0.05475027,  0.14708352,
       -0.07192038, -0.0446655 , -0.00469619,  0.12342188,  0.28266823,
       -0.17480472,  0.08835549, -0.3948662 , -0.06655388,  0.02743766,
       -0.32383057, -0.09344425,  0.12471214, -0.2493675 ,  0.0386915 ,
       -0.36527175, -0.07941125, -0.28052703,  0.2289411 , -0.06066967,
        0.10928556,  0.36325446, -0.08953232,  0.0503579 ,  0.01588944,
        0.16836253,  0.03035926, -0.03449783, -0.1380561 , -0.04084288,
        0.00025229,  0.23173255,  0.07680877,  0.08557893, -0.25083962,
        0.11803358, -0.03737705,  0.11708254, -0.12639652,  0.06743212,
        0.05605505, -0.12977087, -0.28870878,  0.08963796, -0.13282794,
        0.18609948, -0.2569232 ,  0.05355035, -0.08369385,  0.20837203,
       -0.1411409 , -0.13448775, -0.1769448 ,  0.13046621, -0.13742138,
       -0.06673355, -0.01930385,  0.0476261 , -0.14284919,  0.13729976,
       -0.19109558,  0.1664899 , -0.14905706,  0.06685179, -0.10670006,
        0.09008081,  0.06398062,  0.05244786,  0.02051791, -0.04442016,
        0.1142606 , -0.08019827,  0.00192079,  0.11096675, -0.09492526,
        0.09879847,  0.01296573,  0.06768025, -0.12128408,  0.15987849,
       -0.0307841 , -0.08638259, -0.1024577 , -0.05701518,  0.09614459,
       -0.30851933,  0.08220676, -0.04463938, -0.04586922, -0.0613763 ,
        0.12710616,  0.07215147,  0.02499139, -0.0853984 ,  0.03761362,
       -0.10122122, -0.10581099, -0.09075225,  0.0588677 ,  0.20949787,
       -0.21957228,  0.02471321, -0.02504615,  0.17673929,  0.03304327,
       -0.175077  ,  0.05039172, -0.09370209,  0.2816465 ,  0.0495276 ,
        0.12613042,  0.13521063,  0.10419373,  0.02178084,  0.03954624,
        0.19476001,  0.20237637,  0.01796936,  0.07251219,  0.09090539,
       -0.16137888, -0.04798462, -0.10888063, -0.07508043, -0.01593561,
       -0.0173667 ,  0.07998224, -0.01681536, -0.14478838,  0.06753155,
        0.12399746, -0.00951686,  0.12121909,  0.06493512, -0.02165374,
       -0.02736411, -0.05121812, -0.04399138, -0.31977072,  0.01677473,
       -0.01465072, -0.0305994 ,  0.00699815,  0.15252185, -0.20707884,
        0.03446257, -0.32073736, -0.00395454,  0.09368268, -0.10847338,
       -0.00422758,  0.00329248, -0.0332825 ,  0.01842314, -0.03687295,
        0.01927076,  0.04763899, -0.09081637,  0.07208191,  0.13735732,
        0.3917652 , -0.07216057,  0.17713107,  0.06003724,  0.251014  ,
        0.19799663, -0.1332425 ,  0.20833206, -0.04241524, -0.12432596,
       -0.08996508, -0.10980546,  0.14366563,  0.01268803,  0.08981975,
        0.0032801 , -0.15806791, -0.14599231, -0.03385904, -0.11529057,
        0.18489543, -0.1673496 ,  0.11944465, -0.17237729, -0.1798258 ,
       -0.01299504, -0.16451804,  0.23279479,  0.03821559,  0.12938109,
       -0.20355925, -0.03298178, -0.21317928, -0.01165415, -0.10014073,
        0.17434652,  0.03464093,  0.03443845, -0.01660315,  0.10303156,
        0.06436189, -0.15252322, -0.1470861 ,  0.03101192,  0.02553904,
       -0.20440754, -0.21700497, -0.12032608,  0.14940049, -0.02769558,
       -0.14014752, -0.02474721, -0.02478829,  0.05567836,  0.00910684,
       -0.03174017, -0.02462268, -0.08402118,  0.05590267, -0.10135615,
        0.3202131 , -0.3197917 , -0.01836335,  0.03867434,  0.00333435,
        0.02567296,  0.03067295,  0.02343648, -0.10127947, -0.00097936,
       -0.00970257,  0.06602197,  0.13192797, -0.13894437,  0.10914335,
       -0.16573377, -0.08127437,  0.09622123, -0.11618386, -0.03320429,
       -0.16822222,  0.0311181 , -0.16558333, -0.08402359,  0.08190572,
        0.05267239, -0.0452149 , -0.07552833,  0.12721723, -0.05586796,
       -0.1330812 , -0.11384939,  0.08404377,  0.17498633,  0.1607735 ,
       -0.03748364, -0.09485444, -0.17363103, -0.0784952 , -0.09133972,
       -0.00536319,  0.13791223, -0.00754289,  0.04080727, -0.02019306,
        0.04205617,  0.17182538,  0.1482166 , -0.08117753,  0.13905463,
       -0.0349645 , -0.22843273,  0.08143111,  0.00972584,  0.11742318,
       -0.32348067, -0.11717328, -0.00907776, -0.05640833,  0.13934085,
        0.290113  , -0.2917295 , -0.03518968,  0.00886608,  0.02461413,
        0.06169805,  0.09664681, -0.11406039, -0.05149968, -0.04996476,
       -0.23405328,  0.1675697 ,  0.00178042,  0.1789477 ,  0.1227752 ,
        0.31278634,  0.00039716,  0.12800239, -0.15503283,  0.00644524,
       -0.23915382,  0.15842839, -0.08017449, -0.00282945, -0.03827821,
        0.08770593,  0.20586622, -0.00000454,  0.00951183,  0.1382787 ,
       -0.08377124,  0.2254349 ,  0.0537818 ,  0.04662048,  0.00571516,
        0.03356906, -0.08424357, -0.02411776, -0.24327135,  0.01588362,
        0.05628995, -0.09876977,  0.18147345,  0.06976032,  0.10948402,
       -0.11176387,  0.04565903,  0.02604047,  0.16572419, -0.03230144,
        0.1058512 ,  0.04981842, -0.01545817, -0.12536444,  0.00535308,
       -0.08836225, -0.02918071, -0.04548814,  0.08593055, -0.12547891,
       -0.03216919, -0.10473125, -0.17151564, -0.04977957, -0.06027395,
        0.04746332, -0.03254775,  0.1189053 , -0.20275944,  0.0040641 ,
        0.00998236,  0.09876703,  0.07620629,  0.1543162 , -0.12299532,
        0.03366013, -0.07319524,  0.13750991,  0.12177759, -0.04249546,
       -0.18698047, -0.26686636, -0.20709264,  0.16756809,  0.26438347,
       -0.2527045 ,  0.21647692, -0.24757789,  0.10548338, -0.14078563,
       -0.3703411 , -0.02936511,  0.22413926, -0.1326799 , -0.10288145
};

#endif
