//#include "../jedi.h"

#ifndef W2_2_H_
#define W2_2_H_

// numpy array shape [15, 10]
/*
input_t w2_2[N_LAYER_6 * N_LAYER_8] = {
        1, 1, 1, 1, 1, 1,1, 1, 1,1, 1, 1,1, 1, 1,
        1, 1, 1, 1, 1, 1,1, 1, 1,1, 1, 1,1, 1, 1,
        1, 1, 1, 1, 1, 1,1, 1, 1,1, 1, 1,1, 1, 1,
        1, 1, 1, 1, 1, 1,1, 1, 1,1, 1, 1,1, 1, 1,
        1, 1, 1, 1, 1, 1,1, 1, 1,1, 1, 1,1, 1, 1,
        1, 1, 1, 1, 1, 1,1, 1, 1,1, 1, 1,1, 1, 1,
        1, 1, 1, 1, 1, 1,1, 1, 1,1, 1, 1,1, 1, 1,
        1, 1, 1, 1, 1, 1,1, 1, 1,1, 1, 1,1, 1, 1,
        1, 1, 1, 1, 1, 1,1, 1, 1,1, 1, 1,1, 1, 1,
        1, 1, 1, 1, 1, 1,1, 1, 1,1, 1, 1,1, 1, 1,
        1, 1, 1, 1, 1, 1,1, 1, 1,1, 1, 1,1, 1, 1,
        1, 1, 1, 1, 1, 1,1, 1, 1,1, 1, 1,1, 1, 1,
        1, 1, 1, 1, 1, 1,1, 1, 1,1, 1, 1,1, 1, 1,
        1, 1, 1, 1, 1, 1,1, 1, 1,1, 1, 1,1, 1, 1,
        1, 1, 1, 1, 1, 1,1, 1, 1,1, 1, 1,1, 1, 1,
        1, 1, 1, 1, 1, 1,1, 1, 1,1, 1, 1,1, 1, 1,
        1, 1, 1, 1, 1, 1,1, 1, 1,1, 1, 1,1, 1, 1,
        1, 1, 1, 1, 1, 1,1, 1, 1,1, 1, 1,1, 1, 1,
        1, 1, 1, 1, 1, 1,1, 1, 1,1, 1, 1,1, 1, 1,
        1, 1, 1, 1, 1, 1,1, 1, 1,1, 1, 1,1, 1, 1,
        1, 1, 1, 1, 1, 1,1, 1, 1,1, 1, 1,1, 1, 1,
        1, 1, 1, 1, 1, 1,1, 1, 1,1, 1, 1,1, 1, 1,
        1, 1, 1, 1, 1, 1,1, 1, 1,1, 1, 1,1, 1, 1,
        1, 1, 1, 1, 1, 1,1, 1, 1,1, 1, 1,1, 1, 1,
        1, 1, 1, 1, 1, 1,1, 1, 1,1, 1, 1,1, 1, 1,
        1, 1, 1, 1, 1, 1,1, 1, 1,1, 1, 1,1, 1, 1,
        1, 1, 1, 1, 1, 1,1, 1, 1,1, 1, 1,1, 1, 1,
        1, 1, 1, 1, 1, 1,1, 1, 1,1, 1, 1,1, 1, 1,
        1, 1, 1, 1, 1, 1,1, 1, 1,1, 1, 1,1, 1, 1,
        1, 1, 1, 1, 1, 1,1, 1, 1,1, 1, 1,1, 1, 1
};*/

input_t w2_2[N_LAYER_6 * N_LAYER_8] = {
        -0.55210125, -0.12453377,  0.02597903, -0.13977149, -0.11568499,
        0.19831914, -0.17578278, -0.3780664 ,  0.20666835,  0.15724765,
        -0.15629463,  0.06242123, -0.51907843,  0.13950099, -0.20500001,
        0.09194815,  0.09253647,  0.26638713, -0.01058049, -0.11104982,
        -0.04829477, -0.15786748,  0.1301123 , -0.3836841 ,  0.04191268,
        0.04938789,  0.02203958,  0.1795996 , -0.27290758, -0.00013882,
        -0.09741122, -0.03016431,  0.05528722,  0.04368543, -0.02820489,
        0.13986695,  0.23388922,  0.09888435,  0.22583945, -0.2201074 ,
        -0.15855978, -0.08810557, -0.02354075, -0.11488914, -0.03649651,
        -0.02614326,  0.1931938 , -0.01012886, -0.12304398, -0.01401742,
        0.08002913, -0.20444381, -0.12430622, -0.23986705, -0.13427234,
        0.03311197,  0.10873877, -0.11900999,  0.144916  , -0.06722752,
        -0.3708976 ,  0.052332  ,  0.08887812, -0.4477988 , -0.03992764,
        0.07330934,  0.23201555,  0.097165  ,  0.01202068,  0.10516364,
        0.16385512, -0.6339853 , -0.18719505, -0.09813833,  0.282584  ,
        0.05632355, -0.14687292, -0.04813528,  0.27391723, -0.19893707,
        0.04865116,  0.2954865 , -0.10705043, -0.37759203,  0.16240774,
        -0.16852212, -0.0286618 , -0.05446813,  0.21710907,  0.09725332,
        0.04988913,  0.23073496, -0.00021713, -0.07445541, -0.0486681 ,
        -0.0047452 ,  0.07678539,  0.10000616, -0.463479  ,  0.2012007 ,
        0.01307492, -0.00641536, -0.05389494,  0.15992603,  0.04525732,
        0.08046047, -0.18638611, -0.05649811,  0.00279481,  0.02005554,
        0.12881838, -0.04154949,  0.166867  ,  0.10302041, -0.11284232,
        0.01243764,  0.10810022, -0.15989518, -0.19246002, -0.07078145,
        -0.09278862, -0.7850804 ,  0.2195501 , -0.19689585,  0.26548806,
        0.13340193, -0.05238658,  0.04950871,  0.32013535, -0.22277735,
        -0.30831072, -0.12626486, -0.02665399,  0.15002893, -0.316359  ,
        -0.05991015, -0.25137204, -0.06273378, -0.18873683,  0.08731188,
        0.4236815 , -0.16333027,  0.22663052, -0.5338805 , -0.15768461,
        0.17231302, -0.10131228, -0.16007772, -0.02214792,  0.10933726,
        0.05478932, -0.13006279,  0.05858221,  0.14042133,  0.33846194,
        0.03832076, -0.04315262,  0.01220387,  0.10923441, -0.03287972,
        0.04759265,  0.01911577, -0.09818095,  0.11187965,  0.00096104,
        -0.00668461, -0.06807335, -0.10776823,  0.07449585,  0.10641716,
        -0.03074197, -0.05321754, -0.27686185, -0.05497224, -0.22561516,
        0.21519467, -0.23122793,  0.1560259 ,  0.00505822,  0.07820053,
        0.05984381,  0.12640195,  0.07190043,  0.06995165,  0.06603791,
        -0.11342992, -0.00484834, -0.17365062,  0.0306148 , -0.14310057,
        0.03828334,  0.02141861, -0.11363754,  0.04977967, -0.01592966,
        0.05916498,  0.0046955 , -0.03098859, -0.0745341 ,  0.15233001,
        0.16374812, -0.13423173,  0.02116729, -0.07978546, -0.01109118,
        -0.06100652, -0.0877477 , -0.07484052,  0.07885312, -0.03999751,
        -0.0720147 ,  0.13818447,  0.07726036, -0.04503556,  0.01812162,
        -0.35486105, -0.15912005, -0.11281538, -0.24937244,  0.01617906,
        -0.22776414,  0.14690524,  0.0099026 ,  0.06910912,  0.06579835,
        -0.06621859, -0.22758159,  0.0112433 ,  0.05639135,  0.03811271,
        0.09417725,  0.01540746, -0.05015665,  0.16112103,  0.08288853,
        -0.17593063, -0.00640323,  0.00569923,  0.00414354,  0.04111262,
        0.00624399, -0.23968308, -0.00933876, -0.08276032,  0.04845708,
        -0.1137082 ,  0.01203244,  0.12241069, -0.351717  , -0.17392427,
        0.01263417, -0.29204634,  0.03765772,  0.10434721, -0.18710043,
        0.04252008,  0.13975532,  0.00716903,  0.14291148,  0.05981882,
        0.07076085,  0.03117742,  0.12606306, -0.10338575, -0.16351485,
        0.06273166, -0.01292374, -0.02661959,  0.10348526, -0.0836402 ,
        0.06789044,  0.11066405, -0.08272214, -0.01145256,  0.09216377,
        -0.00552402, -0.1030589 , -0.09691817,  0.15318108,  0.19271173,
        -0.03734072, -0.00859552, -0.08371817,  0.22562993, -0.17563272,
        0.08508171,  0.27827546, -0.11997537, -0.11454707, -0.03880726,
        -0.00061284, -0.12199581, -0.02058299, -0.21796472, -0.19536577,
        -0.19558522,  0.03386237, -0.0468596 , -0.09562804,  0.08487872,
        0.16895217,  0.21842909, -0.01045704, -0.02887975,  0.1044841 ,
        0.02539735,  0.05791543, -0.2824628 ,  0.12168986,  0.22295746,
        -0.19152798, -0.1385242 ,  0.09205119, -0.0697237 ,  0.0566774 ,
        0.06769373,  0.0101951 , -0.02848099,  0.0046191 ,  0.1352486 ,
        -0.13071543, -0.15350913, -0.00728636, -0.00231841, -0.02787566,
        0.08764321, -0.22461544, -0.13460274, -0.00005007, -0.00168727,
        -0.04793202,  0.36707938, -0.02046288,  0.11248611, -0.19905512,
        -0.10589032, -0.0294418 , -0.01192664, -0.29317838,  0.15624534,
        0.33293077,  0.07208994, -0.04856486, -0.04061535,  0.07416055,
        -0.17905803, -0.14387272,  0.06585811,  0.09352098, -0.13825363,
        -0.0497697 ,  0.16310023,  0.05379356, -0.03484773,  0.13946341,
        -0.31124923,  0.1316047 , -0.01797978,  0.07867573, -0.06445422,
        0.1459462 ,  0.24189675, -0.09295567,  0.07388741, -0.06287017,
        -0.02026673, -0.06255477, -0.07968326, -0.01140274,  0.02267312,
        0.16955736,  0.12807763,  0.03519426, -0.000095  ,  0.11556868,
        0.0128728 ,  0.10061938, -0.08598948,  0.19013247, -0.00374311,
        0.1441104 ,  0.04889853,  0.03434282,  0.0261628 ,  0.10232123,
        -0.1295116 , -0.0743438 , -0.10671466,  0.01254393, -0.0448436 ,
        0.06683706, -0.20786329, -0.15424459, -0.06442954, -0.04316052,
        0.06858386, -0.08587176, -0.37061235, -0.02850846,  0.07325309,
        -0.05704877,  0.04881677,  0.01206847, -0.03983143, -0.06129987,
        0.10395601,  0.10664743, -0.19313063, -0.20365994,  0.05460061,
        0.04300234,  0.05186621,  0.17644383, -0.13726333,  0.06340032,
        0.03851722, -0.07802162, -0.06424317,  0.14619793, -0.09864864,
        0.10783059,  0.07554559,  0.08607129, -0.10657296,  0.40827277,
        -0.11619684, -0.04929331, -0.07380677, -0.07146359, -0.11600278,
        -0.09593086, -0.05522   ,  0.07402556, -0.26607728,  0.00979371,
        0.02015018,  0.04473899,  0.04505312, -0.09309612,  0.03217784,
        0.01871864, -0.2817855 , -0.1062008 ,  0.00338976, -0.17032772,
        0.09361134, -0.15478012, -0.16325343, -0.02515661,  0.22632687
};

#endif