//#include "../jedi.h"

#ifndef W2_3_H_
#define W2_3_H_

// numpy array shape [15, 10]
/*
input_t w2_3[N_LAYER_10 * N_LAYER_12] = {
        1, 1, 1, 1, 1, 1,1, 1, 1,1, 1, 1,1, 1, 1,
        1, 1, 1, 1, 1, 1,1, 1, 1,1, 1, 1,1, 1, 1,
        1, 1, 1, 1, 1, 1,1, 1, 1,1, 1, 1,1, 1, 1,
        1, 1, 1, 1, 1, 1,1, 1, 1,1, 1, 1,1, 1, 1,
        1, 1, 1, 1, 1, 1,1, 1, 1,1, 1, 1,1, 1, 1,
        1, 1, 1, 1, 1, 1,1, 1, 1,1, 1, 1,1, 1, 1,
        1, 1, 1, 1, 1, 1,1, 1, 1,1, 1, 1,1, 1, 1,
        1, 1, 1, 1, 1, 1,1, 1, 1,1, 1, 1,1, 1, 1,
        1, 1, 1, 1, 1, 1,1, 1, 1,1, 1, 1,1, 1, 1,
        1, 1, 1, 1, 1, 1,1, 1, 1,1, 1, 1,1, 1, 1,
        1, 1, 1, 1, 1, 1,1, 1, 1,1, 1, 1,1, 1, 1,
        1, 1, 1, 1, 1, 1,1, 1, 1,1, 1, 1,1, 1, 1,
        1, 1, 1, 1, 1, 1,1, 1, 1,1, 1, 1,1, 1, 1,
        1, 1, 1, 1, 1, 1,1, 1, 1,1, 1, 1,1, 1, 1,
        1, 1, 1, 1, 1, 1,1, 1, 1,1, 1, 1,1, 1, 1,
        1, 1, 1, 1, 1, 1,1, 1, 1,1, 1, 1,1, 1, 1,
        1, 1, 1, 1, 1, 1,1, 1, 1,1, 1, 1,1, 1, 1,
        1, 1, 1, 1, 1, 1,1, 1, 1,1, 1, 1,1, 1, 1,
        1, 1, 1, 1, 1, 1,1, 1, 1,1, 1, 1,1, 1, 1,
        1, 1, 1, 1, 1, 1,1, 1, 1,1, 1, 1,1, 1, 1,
        1, 1, 1, 1, 1, 1,1, 1, 1,1, 1, 1,1, 1, 1,
        1, 1, 1, 1, 1, 1,1, 1, 1,1, 1, 1,1, 1, 1,
        1, 1, 1, 1, 1, 1,1, 1, 1,1, 1, 1,1, 1, 1,
        1, 1, 1, 1, 1, 1,1, 1, 1,1, 1, 1,1, 1, 1,
        1, 1, 1, 1, 1, 1,1, 1, 1,1, 1, 1,1, 1, 1,
        1, 1, 1, 1, 1, 1,1, 1, 1,1, 1, 1,1, 1, 1,
        1, 1, 1, 1, 1, 1,1, 1, 1,1, 1, 1,1, 1, 1,
        1, 1, 1, 1, 1, 1,1, 1, 1,1, 1, 1,1, 1, 1,
        1, 1, 1, 1, 1, 1,1, 1, 1,1, 1, 1,1, 1, 1,
        1, 1, 1, 1, 1, 1,1, 1, 1,1, 1, 1,1, 1, 1
};*/

input_t w2_3[N_LAYER_10 * N_LAYER_12] = {
        0.05667562, -0.0361097 , -0.04699942, -0.09863002,  0.06686844,
        0.0906781 , -0.02867013, -0.3225547 ,  0.01925018,  0.10049615,
       -0.0552955 ,  0.09590095, -0.17177768,  0.06865417, -0.02700164,
        0.04367926,  0.19999288,  0.1985233 ,  0.23678328,  0.01325618,
        0.05086053, -0.07586381, -0.1745872 , -0.07218894,  0.0915855 ,
       -0.21225592, -0.02394659, -0.02108897, -0.0253366 , -0.25292936,
       -0.45305648, -0.1429419 ,  0.08367195, -0.1807616 , -0.01153142,
        0.20425668,  0.12349336,  0.01077049,  0.0238521 ,  0.23777147,
        0.14640711, -0.02507297, -0.11548458, -0.06749601, -0.07804006,
       -0.01859935, -0.04587036,  0.14950891, -0.03869817,  0.11098422,
        0.06938621,  0.07132327,  0.0480503 , -0.09338843, -0.17717287,
        0.06633534, -0.17059772, -0.01936171,  0.14910576, -0.1442346 ,
       -0.01463863, -0.04527193, -0.17806251, -0.08150885, -0.07323538,
       -0.03779725,  0.02112493,  0.01524992,  0.03641966,  0.08424047,
       -0.04966057, -0.06513525, -0.0633686 ,  0.0407842 ,  0.22406784,
        0.07203352,  0.07860114,  0.04182822,  0.06384858,  0.01154587,
       -0.08990035,  0.17348336, -0.03298079, -0.02674336,  0.17891234,
       -0.04548896, -0.06152992,  0.01055154, -0.06960129, -0.0202854 ,
        0.06086758,  0.0253659 ,  0.05114486,  0.05055225,  0.0778406 ,
        0.09488305,  0.02601468, -0.13726759,  0.12704575, -0.0052232 ,
        0.1320238 , -0.16596974, -0.00579059,  0.04481323, -0.01295915,
       -0.16043897,  0.2922083 , -0.03091362,  0.07172146,  0.04912362,
        0.01866415,  0.09311473,  0.01529773,  0.04527759,  0.1130024 ,
        0.12872028,  0.12824228,  0.05499814,  0.00196547, -0.06132351,
        0.05285246,  0.02289747, -0.18674067, -0.08658905, -0.0445639 ,
       -0.12606753, -0.12229037, -0.0507234 ,  0.20586278,  0.04393298,
       -0.09961043, -0.1256895 ,  0.06585217,  0.0139482 ,  0.25899154,
        0.00557431, -0.00195085, -0.10899235, -0.15376073, -0.05106357,
       -0.20187327, -0.09154648, -0.184957  ,  0.01502463, -0.06271046,
       -0.11652311, -0.06780822,  0.15806195, -0.18449412,  0.10580927,
        0.05442534, -0.03933513,  0.06875242,  0.12456603,  0.08372177,
        0.11359879, -0.0317585 , -0.21382686,  0.0759891 ,  0.08893581,
        0.00695405,  0.02142339, -0.128394  ,  0.13618581, -0.08033539,
        0.08640026,  0.21251562,  0.23913984, -0.5790524 , -0.09243311,
        0.03412475, -0.10195301, -0.2580848 ,  0.12540385,  0.14060263,
       -0.12378453, -0.08857561, -0.1907442 , -0.16604899, -0.16354519,
       -0.0360897 ,  0.13167031, -0.17085713,  0.05562519, -0.21098118,
        0.03022448, -0.03964072, -0.06992709,  0.00603872, -0.02672185,
        0.15332477,  0.22988713,  0.01113337, -0.08028848,  0.09743309,
       -0.06037728,  0.05547814,  0.1091179 ,  0.00876946, -0.0351432 ,
       -0.03075494,  0.02438845, -0.00835077,  0.1434306 , -0.03991328,
       -0.23000257,  0.00295936,  0.06825993,  0.10663386,  0.01620874,
        0.181879  ,  0.11223015, -0.01347989,  0.09133203, -0.02361334,
        0.09974537,  0.00296308,  0.10739177,  0.3768166 , -0.11940933,
       -0.00998166, -0.15122207,  0.10722046,  0.16228195, -0.01192521,
        0.12407936, -0.00695078,  0.06981149, -0.03271213,  0.0033641 ,
       -0.24776794, -0.0277    ,  0.11514873,  0.26148206, -0.18651232,
       -0.05796186, -0.0944308 ,  0.20561023,  0.31870985,  0.10090121,
        0.15072268,  0.02094274,  0.02075156,  0.04911139,  0.161979  ,
       -0.11115392,  0.10167748, -0.14451747,  0.16221508, -0.16110462,
        0.00637408,  0.02054791, -0.11649426, -0.03764362,  0.05023022,
       -0.02385958,  0.2762888 ,  0.10416051,  0.20763758,  0.06472355,
       -0.12268581,  0.06354503, -0.02448916, -0.08301631,  0.15673453,
       -0.02715806, -0.17150946, -0.03954004, -0.14669491, -0.15020521,
        0.04351854, -0.11775951,  0.13297255, -0.18220297,  0.16756992,
       -0.16992459,  0.003617  , -0.25306168, -0.00960881, -0.05589094,
       -0.08176342, -0.10799801, -0.15820847,  0.08477838, -0.08455937,
       -0.01038185, -0.03168527, -0.08286314, -0.21415587,  0.09962375,
       -0.09718791, -0.05031878,  0.02679943, -0.21034926,  0.00135412,
       -0.42909133,  0.14527507,  0.01095307,  0.00275936,  0.13255855,
       -0.00931146,  0.05508706,  0.09575157,  0.01483003, -0.09443832,
        0.00924944, -0.06650911, -0.11382812,  0.00949263, -0.11534404,
        0.16403824, -0.05640902,  0.14984831, -0.18277581, -0.01872682,
        0.00752336, -0.6926433 ,  0.03054726, -0.31799558, -0.13637988,
        0.12812857,  0.00597352, -0.00277904,  0.2209144 ,  0.03028734,
       -0.04045027,  0.0915253 ,  0.0392533 ,  0.24279754, -0.03601776,
        0.09579513,  0.0162296 ,  0.03638814, -0.04613993,  0.03252815,
        0.12545046,  0.07709622,  0.04832686,  0.1066865 ,  0.02614752,
        0.17346044, -0.03597307, -0.11669257, -0.00824028, -0.07965255,
        0.10133699,  0.05382548, -0.12888488, -0.12304025, -0.06748619,
       -0.07179092, -0.005562  , -0.12964733, -0.06820446,  0.01559429,
        0.19097419,  0.10667048,  0.05693446, -0.12382302,  0.16101047,
       -0.0089626 ,  0.06399463, -0.05564847,  0.11044703, -0.03830179,
        0.1680181 , -0.06258927,  0.05378771,  0.1020408 ,  0.04585331,
       -0.01495779,  0.16872491, -0.13608858, -0.05759357, -0.10589631,
       -0.10767654,  0.07886159, -0.01370362, -0.23444012,  0.10958757,
        0.16886392,  0.016811  , -0.12650758, -0.13970433,  0.04986932,
       -0.02706452,  0.05396546,  0.14847764, -0.02519614, -0.15193203,
       -0.01893807, -0.03561623,  0.12163638, -0.13099258,  0.10835112,
       -0.02336483, -0.13023983, -0.01440951,  0.07550988, -0.02251196,
       -0.06266459, -0.12107656, -0.13235155, -0.13977587, -0.03426174,
       -0.12916262, -0.20681626, -0.03575101, -0.0749361 , -0.2226678 ,
        0.17128961,  0.03872642,  0.12762788, -0.00476716, -0.01270627,
       -0.04897266, -0.01303088, -0.00000645, -0.10085523,  0.16566223,
        0.02345029,  0.03573855,  0.08532032, -0.03843141, -0.17194104,
        0.1065086 ,  0.03207765,  0.10720812,  0.08442996,  0.14167143,
        0.0456606 , -0.07079919, -0.10793112, -0.0026481 , -0.15448882,
        0.04601302,  0.17935593, -0.21396853,  0.08287041,  0.12003629,
        0.10361852, -0.08508933,  0.09020933, -0.06490996,  0.10223068,
        0.03074645,  0.01335617, -0.05514088, -0.12938313, -0.0769406

};



#endif
