//#include "../jedi.h"

#ifndef W3_2_H_
#define W3_2_H_

// numpy array shape [15, 10]
/*
input_t w3_2[N_LAYER_8 * N_OUTPUT_2] = {
        1, 1, 1, 1, 1, 1,1, 1, 1,1, 1, 1,1, 1, 1,
        1, 1, 1, 1, 1, 1,1, 1, 1,1, 1, 1,1, 1, 1,
        1, 1, 1, 1, 1, 1,1, 1, 1,1, 1, 1,1, 1, 1,
        1, 1, 1, 1, 1, 1,1, 1, 1,1, 1, 1,1, 1, 1,
        1, 1, 1, 1, 1, 1,1, 1, 1,1, 1, 1,1, 1, 1,
        1, 1, 1, 1, 1, 1,1, 1, 1,1, 1, 1,1, 1, 1,
        1, 1, 1, 1, 1, 1,1, 1, 1,1, 1, 1,1, 1, 1,
        1, 1, 1, 1, 1, 1,1, 1, 1,1, 1, 1,1, 1, 1,
        1, 1, 1, 1, 1, 1,1, 1, 1,1, 1, 1,1, 1, 1,
        1, 1, 1, 1, 1, 1,1, 1, 1,1, 1, 1,1, 1, 1,
};*/
input_t w3_2[N_LAYER_8 * N_OUTPUT_2] = {
        -0.03934497, -0.07571636, -0.11770582,  0.13708633, -0.00794975,
       -0.05786751,  0.12281761,  0.10337517,  0.16678713, -0.23595801,
       -0.17561169,  0.19921057, -0.17312227, -0.02011809,  0.12267637,
       -0.25580484, -0.18123443,  0.13615218,  0.14315322,  0.11135542,
       -0.3317768 , -0.2041256 ,  0.03149597, -0.00947031,  0.01422602,
        0.1479368 , -0.1788208 ,  0.1451763 ,  0.17834978, -0.01272084,
       -0.33849004, -0.22508605, -0.2838961 ,  0.08948144, -0.4963838 ,
        0.19605437, -0.15345478,  0.2739858 ,  0.17603047,  0.21419983,
        0.34088394,  0.24694473, -0.279881  , -0.07733519, -0.06835596,
       -0.13209076, -0.04714692,  0.04758577,  0.15867352,  0.06632423,
       -0.12718439, -0.30170015,  0.1914229 ,  0.05935946, -0.19984841,
       -0.05734371,  0.05468962,  0.06088591,  0.16699769,  0.07267947,
        0.07587422, -0.14431445,  0.21218538,  0.057328  ,  0.07166211,
       -0.01987118, -0.02250698, -0.02021096, -0.04987862,  0.03058555,
        0.17842393, -0.29914021, -0.13604243, -0.08407693,  0.10222393,
        0.16219956,  0.09803052, -0.17316037,  0.01130744, -0.22141299,
       -0.01652227, -0.07157321,  0.07210755,  0.05792794,  0.14467   ,
       -0.22742511,  0.07925028, -0.02417084, -0.16840087,  0.09167843,
        0.10307023, -0.02924082,  0.06675132,  0.29478738, -0.02670023,
        0.08025574, -0.05512919, -0.15913327,  0.08791947, -0.07488364,
       -0.16340055, -0.28163204,  0.10073816,  0.10393637, -0.1308724 ,
        0.03425506, -0.21917889, -0.11591464,  0.28144395,  0.11785851,
       -0.12481613,  0.26177722,  0.09414174, -0.04795266, -0.12272622,
        0.22358641, -0.00145736, -0.10723714,  0.14025542, -0.20591186,
       -0.07824259, -0.04967848, -0.17058869, -0.13868886,  0.13700226,
       -0.04080274, -0.18132761, -0.14031725,  0.00770569, -0.13865446,
        0.08781161, -0.11403807, -0.11121997, -0.01271991,  0.06883199,
       -0.10323441, -0.0182314 ,  0.07601824, -0.09635243, -0.07523915,
       -0.10627434,  0.07876011,  0.1603809 , -0.06984533,  0.2490174 ,
       -0.18748753,  0.08404534,  0.03707638,  0.16263664, -0.05621365
};

#endif
