//#include "../jedi.h"

#ifndef W3_2_H_
#define W3_2_H_

// numpy array shape [15, 10]
/*
input_t w3_2[N_LAYER_8 * N_OUTPUT_2] = {
        1, 1, 1, 1, 1, 1,1, 1, 1,1, 1, 1,1, 1, 1,
        1, 1, 1, 1, 1, 1,1, 1, 1,1, 1, 1,1, 1, 1,
        1, 1, 1, 1, 1, 1,1, 1, 1,1, 1, 1,1, 1, 1,
        1, 1, 1, 1, 1, 1,1, 1, 1,1, 1, 1,1, 1, 1,
        1, 1, 1, 1, 1, 1,1, 1, 1,1, 1, 1,1, 1, 1,
        1, 1, 1, 1, 1, 1,1, 1, 1,1, 1, 1,1, 1, 1,
        1, 1, 1, 1, 1, 1,1, 1, 1,1, 1, 1,1, 1, 1,
        1, 1, 1, 1, 1, 1,1, 1, 1,1, 1, 1,1, 1, 1,
        1, 1, 1, 1, 1, 1,1, 1, 1,1, 1, 1,1, 1, 1,
        1, 1, 1, 1, 1, 1,1, 1, 1,1, 1, 1,1, 1, 1,
};*/
input_t w3_2[N_LAYER_8 * N_OUTPUT_2] = {
        0.25611848,  0.00238182, -0.17624792, -0.2818024 ,  0.5434012 ,
        0.1019771 ,  0.00237914, -0.14961965, -0.40979555,  0.2278807 ,
        -0.36641192, -0.2748366 , -0.41311964,  0.10743348,  0.2866326 ,
        -0.13650693,  0.10695069, -0.12932077, -0.15238202,  0.39650944,
        -0.1500365 , -0.01438948,  0.15823817,  0.04718914,  0.03371553,
        0.03414977, -0.07591166,  0.05336208, -0.02167751, -0.07313008,
        0.02694667,  0.1399593 ,  0.02708779, -0.13364011, -0.31974575,
        -0.16735545, -0.12001669, -0.15255608,  0.02208338, -0.0395858 ,
        -0.13598499,  0.01703455, -0.11989024,  0.01824708, -0.06172412,
        -0.06250199,  0.11385299,  0.11759759,  0.1165228 ,  0.11779323,
        0.14028524, -0.14251952,  0.01343022,  0.23278013, -0.03327443,
        0.05390575, -0.1744096 ,  0.03407607, -0.0022677 , -0.16439597,
        0.3751803 ,  0.1039023 , -0.0533366 , -0.13988572,  0.3064699 ,
        0.09585468,  0.055767  , -0.1639888 , -0.18825157,  0.12517188,
        0.11161876, -0.43814743, -0.06182685, -0.09709115,  0.12938641,
        0.06978936, -0.17325455,  0.1275696 , -0.05831639,  0.09983584,
        -0.36076054,  0.09293222,  0.24298483,  0.1334657 ,  0.12232763,
        -0.28705814,  0.01724431, -0.21656026,  0.19756496, -0.04051928,
        0.14536831,  0.15503284, -0.04764456, -0.19561917, -0.2430055 ,
        -0.02408167,  0.11635451,  0.19096105,  0.09886716,  0.27255744,
        -0.02656908, -0.05669925, -0.04632537, -0.18828785,  0.10141956,
        0.33951697, -0.15196678, -0.00951608,  0.12260543,  0.1601477 ,
        -0.08528581,  0.01830929,  0.14238006, -0.02989258,  0.02860733,
        0.07190339, -0.1868219 , -0.1455909 , -0.18086421, -0.07970367,
        -0.13306656, -0.1440484 , -0.18517715,  0.08188884, -0.00124438,
        0.04623384, -0.01737735, -0.10110737,  0.1719415 ,  0.11549807,
        -0.08765105, -0.01243286,  0.11213863,  0.06512582, -0.1141243 ,
        -0.19582358, -0.3842131 , -0.22362752, -0.2339341 ,  0.479167  ,
        -0.08831662, -0.27442598, -0.0159685 ,  0.0057132 , -0.22716227,
        0.01344867, -0.5869622 , -0.38799912, -0.19471502,  0.2565546
};

#endif