//#include "../jedi.h"

#ifndef W3_3_H_
#define W3_3_H_

// numpy array shape [15, 10]
/*
input_t w3_3[N_LAYER_12 * N_OUTPUT_3] = {
        2, 1, 1, 1, 1, 1,1, 1, 1,1, 1, 1,1, 1, 1,
        2, 1, 1, 1, 1, 1,1, 1, 1,1, 1, 1,1, 1, 1,
        2, 1, 1, 1, 1, 1,1, 1, 1,1, 1, 1,1, 1, 1,
        2, 1, 1, 1, 1, 1,1, 1, 1,1, 1, 1,1, 1, 1,
        2, 1, 1, 1, 1, 1,1, 1, 1,1, 1, 1,1, 1, 1
};*/
input_t w3_3[N_LAYER_12 * N_OUTPUT_3] = {
       0.08182785,  0.11116635,  0.20439413, -0.41605085,  0.08914448,
       -0.12310451, -0.0843195 , -0.02544759, -0.04502368, -0.19482902,
       -0.07584721,  0.01134291, -0.02815334, -0.02376633, -0.01240265,
       -0.09549778,  0.07110326, -0.10579042,  0.10801485, -0.14029545,
       -0.1151267 , -0.09060965,  0.05796694, -0.05321709, -0.01127624,
       -0.09493539, -0.0705566 , -0.2863901 ,  0.17096509, -0.14696345,
       -0.12631962, -0.17538759,  0.07255728, -0.05819149,  0.03817434,
       -0.01415538,  0.04604015, -0.01837007, -0.01498467, -0.01537612,
        0.25003272,  0.03525694,  0.02452989, -0.01898561,  0.15334176,
        0.12340962,  0.09057765, -0.12046058, -0.01880729,  0.21993905,
       -0.06426765, -0.03041353,  0.26248482, -0.04864972,  0.06559028,
        0.05001146, -0.03350854,  0.16404821, -0.03200509, -0.07343993,
       -0.05757399, -0.11737187, -0.01219834,  0.06911714,  0.07827677,
       -0.11274237, -0.1523797 ,  0.02297213, -0.11046779, -0.03294806,
       -0.07200592, -0.00642352, -0.1622925 , -0.17572697,  0.00829891
};
#endif
