//#include "../jedi.h"

#ifndef W3_3_H_
#define W3_3_H_

// numpy array shape [15, 10]
/*
input_t w3_3[N_LAYER_12 * N_OUTPUT_3] = {
        2, 1, 1, 1, 1, 1,1, 1, 1,1, 1, 1,1, 1, 1,
        2, 1, 1, 1, 1, 1,1, 1, 1,1, 1, 1,1, 1, 1,
        2, 1, 1, 1, 1, 1,1, 1, 1,1, 1, 1,1, 1, 1,
        2, 1, 1, 1, 1, 1,1, 1, 1,1, 1, 1,1, 1, 1,
        2, 1, 1, 1, 1, 1,1, 1, 1,1, 1, 1,1, 1, 1
};*/
input_t w3_3[N_LAYER_12 * N_OUTPUT_3] = {
        0.12091643, -0.00518326, -0.14820488, -0.11745045,  0.18632585,
        -0.06738736, -0.0147526 , -0.08045802, -0.14723222, -0.05584885,
        0.11092491,  0.15112205,  0.07854207,  0.14818117,  0.02265843,
        -0.04226252, -0.13151328, -0.21721606, -0.0332644 , -0.11448491,
        -0.05324981, -0.2609983 , -0.2465935 , -0.21612103, -0.09532257,
        0.14575984, -0.04215834, -0.12212227, -0.220495  ,  0.09076414,
        0.12549414, -0.05397974,  0.3843686 ,  0.17071569,  0.35372284,
        0.0697806 ,  0.08102374,  0.10097285,  0.36519152,  0.05804342,
        0.18131395,  0.32655713, -0.03336468,  0.14529711,  0.40971127,
        0.23801646, -0.09057868,  0.12318164,  0.04288942,  0.20808528,
        0.10481465, -0.18708989,  0.23614863, -0.14537248, -0.06383054,
        -0.04834871,  0.182137  , -0.01064075, -0.11486851,  0.22281988,
        -0.12544714, -0.11310886,  0.02982071,  0.05567921,  0.00198966,
        -0.0439762 ,  0.0806685 ,  0.01628305,  0.11047091,  0.08408076,
        -0.02196693, -0.06490741, -0.25151867, -0.07296436, -0.01980002
};
#endif