//#include "../jedi.h"

#ifndef W1_H_
#define W1_H_

// numpy array shape [P, 30];
;
/*
input_t w1_1[2*P * N_LAYER_2] = {
        1, 1, 1, 1, 1, 1,1, 1, 1,1, 1, 1,1, 1, 1,
        1, 1, 1, 1, 1, 1,1, 1, 1,1, 1, 1,1, 1, 1,
        1, 1, 1, 1, 1, 1,1, 1, 1,1, 1, 1,1, 1, 1,
        1, 1, 1, 1, 1, 1,1, 1, 1,1, 1, 1,1, 1, 1,
        1, 1, 1, 1, 1, 1,1, 1, 1,1, 1, 1,1, 1, 1,
        1, 1, 1, 1, 1, 1,1, 1, 1,1, 1, 1,1, 1, 1,
        1, 1, 1, 1, 1, 1,1, 1, 1,1, 1, 1,1, 1, 1,
        1, 1, 1, 1, 1, 1,1, 1, 1,1, 1, 1,1, 1, 1
};*/

input_t w1[2*P * N_LAYER_2] = {
0.067444,0.058716,-0.136230,0.080017,0.043060,-0.072266,0.043182,0.089905,-0.102478,0.055206,0.003550,0.001175,0.092285,-0.075073,-0.090576,-0.024750,0.049255,0.102234,-0.007496,0.033417,-0.050385,0.040070,-0.110352,-0.075012,-0.073853,-0.040588,-0.072266,-0.005886,-0.025375,0.049957,0.096436,0.118042,0.042297,-0.020355,0.113342,0.030884,-0.030930,-0.016251,-0.043884,-0.005699,-0.078430,-0.061768,-0.102661,0.033752,-0.087158,-0.049652,0.005661,0.085571,-0.002647,0.043243,0.084595,-0.123230,0.091125,-0.035492,0.035126,0.000414,-0.046631,-0.021469,0.004070,-0.058807,-0.066589,-0.073486,0.021454,-0.057983,0.066040,-0.038086,0.022934,-0.006592,-0.073242,-0.049011,0.074646,-0.034912,0.000342,0.061462,0.052460,-0.088562,0.006565,0.041870,-0.055939,0.015114,-0.170776,-0.055786,-0.019821,-0.071716,-0.061249,-0.007507,-0.034515,0.085266,0.009140,0.060944,-0.018158,0.040039,0.084473,-0.078064,0.096985,-0.038818,0.029709,-0.079224,0.128906,-0.062134,0.005531,-0.008202,0.123291,-0.010147,0.017838,0.097778,0.016495,0.053284,-0.035461,0.082092,0.034637,-0.007393,0.119568,-0.089966,-0.113281,-0.077637,0.036926,-0.020569,0.039734,0.114868,0.075073,-0.043610,-0.066101,0.056519,-0.072021,0.060699,0.005199,-0.047394,0.095398,-0.009033,0.065308,0.033997,-0.023315,-0.036835,0.021240,-0.086914,-0.009262,-0.069641,0.109924,-0.057892,-0.104858,0.011322,-0.015289,0.044769,0.047485,-0.021561,0.003565,-0.077637,0.069763,-0.050720,-0.034332,0.020218,-0.171143,0.164917,-0.123291,-0.080322,-0.020386,0.079895,-0.080688,-0.072571,0.035522,0.014725,-0.100586,-0.065063,-0.082520,0.115845,0.066528,0.039734,0.177856,0.035309,0.068359,-0.045685,0.076965,-0.197998,-0.061951,0.093079,0.090393,0.060608,0.138062,-0.043823,-0.126709,-0.022720,0.022552,0.078430,-0.069214,0.043304,0.008598,0.084900,-0.082458,-0.051941,-0.016113,0.056885,-0.186646,-0.094421,0.071838,-0.008202,0.082520,-0.092285,0.009262,0.067505,-0.010475,-0.082520,-0.262695,-0.134521,0.008179,0.018387,-0.009285,-0.029373,-0.057159,-0.348877,0.014175,-0.012093,0.017624,0.179077,-0.003750,0.053619,-0.236572,-0.022858,0.065857,0.274414,0.103699,0.098450,-0.146729,-0.164062,-0.213745,0.002773,0.005890,0.009758,-0.189331,-0.213867,0.117676,0.108582,0.232544,-0.104126,0.284424,-0.095764,0.058960,-0.085022,-0.071106,0.012856,0.184937,0.050140,-0.026917,0.135376,-0.039368,-0.110657,-0.312988,-0.011032,0.072937,-0.061096,0.080261,-0.188965,0.015396,-0.084961,-0.056458,0.119568,0.076294,0.111145,-0.117249,-0.075928,0.086548,0.038696,-0.165527,0.001719,0.002695,-0.041382,0.135864,0.120789,0.091187,-0.048492,-0.012825,-0.043945,-0.163818,0.002333,-0.001727,0.016281,-0.008324,-0.118347,-0.042969,0.140503,-0.098022,-0.088074,-0.057434,0.122498,-0.073853,0.155884,-0.009300,0.105896,0.029282,0.057678,-0.064392,-0.070251,-0.052277,-0.046265,0.117554,0.124207,-0.029160,0.008698,-0.190674,0.027039,-0.292480,-0.080994,-0.077637,0.059570,0.157104,-0.153687,-0.037445,0.100708,-0.097229,-0.082275,-0.139160,-0.160522,0.045746,0.011353,0.052094,0.159668,-0.114319,0.048737,0.218384,0.073059,-0.139038,0.199707,-0.119751,0.039246,-0.042633,-0.127075,-0.070312,0.130249,-0.057281,0.123657,-0.016510,-0.088440,0.381592,0.006969,0.179199,0.032654,-0.102966,-0.153198,0.039490,-0.087524,0.033905,-0.206787,0.051178,-0.052460,-0.176270,-0.232178,-0.273193,-0.152954,0.124329,-0.066956,0.094177,-0.133179,0.118164,-0.063538,-0.026794,-0.123718,0.280762,-0.149292,-0.178101,-0.089417,0.066895,-0.163818,-0.468018,0.021164,-0.074585,-0.037170,0.022491,0.033936,0.052429,0.323486,-0.060211,-0.113098,0.006496,0.181885,0.228638,-0.067078,0.096375,-0.003225,0.099609,-0.166016,-0.148438,0.122620,-0.154419,0.083679,0.227661,0.223633,0.051056,0.002296,0.163696,0.027283,-0.088501,0.052551,0.032379,0.096191,0.088745,0.115295,0.010948,-0.064270,0.092102,-0.064880,-0.046021,-0.479248,-0.311279,-0.136597,0.423096,-0.467773,-0.422607,-0.129150,-0.701660,0.229248,0.275879,-0.106079,-0.718750,0.288086,0.604492,-0.017227,0.042053,0.233032,-0.055145,0.212769,-0.299316,-0.160889,-0.137207,0.252930,-0.255859,0.302002,-0.156494,-0.245972,0.060699,0.107300,-0.107178,0.501953,-0.121460,0.013535,0.700195,-0.119019,0.103271,-0.289062,-0.337158,0.801758,0.324951,-0.455811,0.014481,-0.122192,0.328369,0.339600,-0.041351,-0.091064,0.601074,-0.214478,-0.237427,0.017303,0.010551,-0.082947,0.134399,0.101562,-0.065979,0.142944,-0.098083,0.205078,-0.008949,-0.311035,0.154419,0.105225,-0.099121,0.064026,-0.154175,0.132080,-0.014526,-0.086792,0.124207,0.065063,-0.214966,-0.042267,0.058105,-0.025131,-0.073425,-0.289795,-0.025742,-0.069275,-0.000325,0.210693,-0.051575,-0.028229,0.053589,0.065247,0.023972,0.021164,-0.040558,0.126465,-0.375244,0.081055,0.246582,-0.089233,-0.124084,0.188354,0.033936,0.306885,0.116028,0.002937,0.095459,0.215942,0.169678,0.030334,-0.081848,-0.260742,-0.035095,-0.000876,-0.083557,0.090027,0.062469,0.034271,-0.214844,-0.180664,0.008163,-0.103699,-0.133179,-0.103027,0.038177,-0.042938,0.139771,0.057434,-0.042908,-0.137573,0.029114,-0.040985,-0.013443,0.205688,0.030075,-0.060089,-0.195679,0.088745,0.072571,-0.144165,-0.002384,-0.020065,0.070679,0.127319,-0.080688,-0.096802,0.035339,-0.119141,0.013870,0.037659,0.047028,0.021027,-0.058960,0.090149,0.111206,-0.004871,-0.102173,-0.207153,-0.260010,-0.128418,0.184082,0.108521,0.378662,0.244141,0.046753,-0.091675,-0.117920,-0.111694,-0.245850,-0.201782,-0.235596,0.025314,-0.141602,0.055908,-0.110535,-0.077087,0.000700,0.315430,-0.059723,0.201782,0.092834,0.008774,-0.023819,0.255127,-0.038513,0.097778,0.153564,0.060638,0.170410,0.186279,-0.148682,0.084778,-0.171631,-0.029770,-0.165649,-0.168091,0.058502,0.097290,0.298096,0.140015,-0.186035,-0.099731,-0.006493,-0.090820,0.106689,-0.052124,-0.435303,-0.442139,0.272705,2.224609,0.008232,1.721680,1.695312,-1.666992,-0.046143,0.594238,-1.915039,2.025391,0.360107,-0.046417,0.005356,-0.701172,-2.390625,2.164062,-0.321777,0.215332,0.735840,0.153076,0.000210,0.225342,-1.418945,-1.946289,0.847656,-0.917969,1.965820,3.111328,-0.005478,-0.114868,0.455322,1.447266,-0.166504,-1.298828,2.089844,0.816895,1.170898,1.992188,1.257812,-0.763672,0.239136,-0.140625,-0.640625,1.824219,-1.505859,-0.849609,-0.749512,-1.699219,2.078125,0.034943,0.242798,-1.587891,-0.538574,-3.142578,-2.082031,1.991211,0.778320,0.785645,1.341797,-1.399414,0.312988,-1.531250,-1.516602,2.550781,1.238281,-2.951172,-2.822266,-1.404297,-2.269531,-0.632812,1.036133,0.372803,1.458984,1.583008,-1.739258,0.616699,1.610352,-0.258789,-0.130493,0.536621,0.781738,-1.878906,-0.130005,1.913086,-3.253906,-2.453125,-2.435547,-2.904297,-0.112610,2.607422,0.500488,-0.887207,2.582031,-2.373047,0.337891,0.853027,1.126953,1.771484,-0.190552,-0.227051,0.338135,-0.141113,0.010666,-0.223999,0.211426,0.097900,-0.183350,-0.229858,0.011566,-0.288330,-0.549316,0.242065,0.106140,0.109070,0.073242,0.157227,-0.053619,0.118225,0.011497,-0.059845,0.074036,0.082886,0.045929,-0.119629,-0.098328,0.112244,0.074097,-0.106812,-0.046814,0.115723,-0.074402,0.287598,0.204590,0.107788,-0.188721,0.117249,-0.069458,0.301270,-0.122986,-0.183838,-0.116028,-0.089783,-0.107544,-0.015640,-0.171265,0.017487,-0.111023,-0.007416,-0.419434,-0.018219,-0.070679,-0.240601,-0.046967,0.109436,-0.315430,-0.169922,-0.148438,0.206665,0.234619,-0.222046,0.263672,-0.014496,0.215576,0.151489,-0.119812,-0.044342,-0.030716,0.189575,-0.081238,-0.056366,0.049347,0.132812,0.042542,0.191528,0.068359,-0.291016,-0.135010,-0.064453,0.165527,0.135986,0.153076,0.022385,0.195923,-0.178467,0.069763,0.019791,-0.004627,-0.114624,-0.197021,-0.128174,0.031708,0.118347,0.025116,0.137085,-0.117554,0.220581,0.023010,-0.046021,0.051178,-0.044434,-0.070862,-0.065491,0.088135,-0.045776,0.082092,-0.084045,-0.140625,0.111938,-0.039886,-0.082947,0.008316,0.000334,-0.112854,0.001001,-0.053955,-0.138550,0.054657,0.024246,0.078796,0.048340,0.094666,0.053864,-0.018692,-0.027222,0.000637,-0.067017,-0.011559,-0.059052,0.050568,-0.006626,-0.006828,-0.005867,-0.061035,-0.010941,0.009102,0.047394,-0.017624,-0.005722,-0.020630,-0.065247,-0.038696,-0.057343,0.092346,0.074463,-0.047241,0.000504,-0.113831,0.004444,-0.111938,0.049469,-0.086792,0.091919,-0.126587,-0.011284,0.119324,0.125122,-0.003887,-0.083313,0.110901,-0.005535,-0.102600,0.067871,0.008209,0.086975,0.024536,0.043732,0.001452,-0.070190,0.056885,-0.037506,-0.110352,-0.032593,-0.045105,-0.002575,0.003967,-0.051208,0.021133,-0.030121,0.165039,0.047180,-0.059753,0.028107,0.085022,0.021057,-0.085449,-0.050323,0.098999,0.040558,0.041046,0.091980,0.000525,0.019104,-0.079590,0.137817,0.005589,0.094849,-0.065552,0.117249,-0.033875,-0.078552,-0.133057,0.041656,0.065674,-0.099365,-0.029480,0.050812,0.041107,-0.005501,-0.054565,0.049408,-0.122070,0.068298,0.078735,0.069397,-0.011925,0.059143,-0.062012,0.028748,-0.009056,-0.004814,-0.006939,-0.070801,-0.037476,-0.015244,-0.000464,-0.154053,-0.063599,0.055695,0.084167,-0.119141,0.081177,-0.064392,0.074646,-0.041901,0.068542,0.034851,0.011810,0.001362,0.119690,-0.015167,-0.019333,-0.078613,-0.039429,-0.008202,0.067078,-0.068787,-0.125122,0.128174,0.054626,-0.122253,-0.185059,0.054382,0.061005,-0.041351,-0.044586,0.114929,-0.158447,0.035858,-0.136108,-0.070496,-0.066528,0.084961,-0.002850,0.047058,-0.123901,-0.098083,-0.035461,-0.045105,-0.043610,0.041779,0.063416,0.019821,0.034363,-0.021729,0.051300,-0.187622,-0.081604,0.052216,-0.104309,-0.012238,0.133423,-0.024292,0.050568,0.050476,-0.107483,0.128052,-0.090027,-0.059235,0.071350,-0.066589,0.118835,0.085632,0.002602,-0.000638,0.020752,-0.037323,-0.189087,-0.132690,-0.303955,0.285645,-0.149780,-0.093567,-0.035004,0.035156,-0.224243,0.012810,-0.130371,0.021423,-0.085022,-0.282227,0.296631,-0.038177,-0.041412,0.004929,-0.064453,0.113770,0.095032,0.030106,0.128906,0.025757,-0.066345,0.007759,-0.371582,-0.000173,0.033752,-0.127197,-0.150879,-0.158325,0.098999,-0.000012,0.075623,-0.088440,0.111816,-0.139404,0.007488,-0.032196,0.083923,0.191162,-0.002138,-0.110962,-0.044342,0.087402,0.077698,-0.030182,-0.249878,-0.049561,0.141357,0.104248,0.048157,0.100830,0.080261,0.054932,0.140015,-0.147339,-0.093445,0.053864,0.000226,0.036743,-0.120178,0.015213,0.015182,0.062561,0.109558,0.134033,0.002956,-0.162476,-0.129517,-0.084290,0.137329,-0.012321,0.145142,0.109985,0.099426,0.065063,-0.013824,0.034210,0.089722,0.145386,-0.165894,-0.070801,-0.143921,0.036530,-0.114807,0.052460,-0.065918,0.158813,0.056091,0.106445,-0.034332,-0.023453,0.093140,0.151123,-0.129272,0.160522,0.128662,-0.065369,0.038239,-0.137817,-0.272217,-0.066711,-0.070007,-0.093018,-0.040436,0.002045,-0.064880,0.104065,0.123840,0.110291,-0.103271,-0.376953,0.015778,-0.083984,0.019318,-0.059967,-0.091370,-0.018784,0.205444,0.219971,0.026871,0.128662,-0.073975,-0.009521,-0.366699,-0.071350,0.001374,-0.193481,-0.087219,-0.064636,0.043518,-0.105957,0.086975,-0.082703,0.313965,-0.081116,0.047028,-0.226929,0.138062,0.089478,0.297363,0.007618,-0.083435,0.215088,-0.064575,-0.120422,-0.429199,0.170044,-0.049408,0.095032,0.197021,0.033844,-0.081116,0.121826,-0.024658,0.110046,-0.164307,0.009888,-0.326416,-0.187378,0.114746,0.054596,-0.027084,0.024841,0.047546,-0.008812,-0.199463,-0.077576,-0.134155,0.278564,0.082947,0.107239,0.198364,0.057159,0.263184,-0.150024,-0.114807,0.113892,-0.088074,0.055817,0.086487,-0.225220,0.006889,0.123047,0.177979,0.181152,-0.380371,0.068420,0.195068,-0.346680,0.151978,-0.023560,0.149414,0.029556,0.050842,0.080933,-0.159424,-0.052063,0.133423,0.051208,0.435791,0.111389,-0.691895,0.000144,-0.223389,0.430908,0.184814,-0.054138,0.113586,0.147705,0.169189,0.253906,0.234619,0.091919,-0.599121,0.308838,0.177856,-0.029282,0.335205,0.009666,0.279053,0.545410,-0.171387,-0.546875,0.068115,-0.299316,-0.197388,0.225830,-0.110535,-0.020737,-0.108032,-0.680176,0.158325,0.358643,-0.223511,0.154419,-1.180664,0.041168,-0.332520,0.454102,0.099976,0.741699,0.095581,0.264648,-0.399902,-0.115479,-0.126221,-0.231201,0.327637,-0.185547,-0.030762,0.097656,0.550293,0.231445,0.053101,-0.211914,0.218384,-0.003572,-0.664551,0.408203,0.170288,-0.242676,0.043365,0.161987,0.054993,0.117615,0.066101,0.056549,-0.017151,0.106689,-0.039490,0.080078,0.090271,-0.356934,-0.152832,0.028107,0.013855,-0.129395,-0.093079,0.109009,-0.024216,-0.652344,0.010963,0.075439,0.247437,-0.179688,-0.015747,-0.046692,0.551270,-0.830078,0.307861,-0.082581,0.205566,0.094116,0.127930,-0.064514,-0.022568,0.227417,-0.426514,0.014442,-0.020859,0.015587,-0.173584,-0.089966,0.141235,-0.131836,-0.032227,-0.063782,0.006145,0.148926,-0.002724,0.004326,-0.033722,0.026108,-0.080933,-0.024521,-0.005722,-0.002024,-0.007488,-0.145020,0.042908,0.207520,0.051697,-0.033478,-0.121521,0.003153,0.073242,0.262207,0.067566,0.069397,0.159424,-0.045959,0.004444,-0.075684,-0.110168,0.027069,-0.005886,0.149536,-0.079346,-0.057800,0.028595,-0.032074,0.031891,0.028595,-0.023117,-0.157593,0.019577,0.095032,0.126221,0.009018,0.172852,0.216553,-0.189087,-0.248291,-0.072449,-0.254639,0.126221,0.133423,-0.294678,0.244507,0.032043,-0.070435,-0.054565,-0.141968,0.109680,-0.292725,-0.039001,0.101074,0.012878,0.228882,0.004868,0.110840,-0.216919,-0.343750,0.211182,-0.153564,-0.380615,0.217773,0.262939,0.009911,-0.079163,-0.530273,0.202148,-0.056702,-0.139526,-0.122192,-0.479492,0.118652,0.050354,0.253418,0.323486,-0.177856,0.059509,-0.061035,-0.001726,-0.117737,0.061035,0.061340,0.297607,0.102173,2.048828,0.942871,-0.678223,1.291016,0.678223,-1.073242,-0.602051,-0.478027,0.809570,-0.776367,0.308838,-0.568848,-0.081177,1.336914,0.550781,0.123596,-0.484131,-1.014648,-0.770020,-0.408203,0.715820,1.239258,-1.192383,-1.342773,1.705078,1.630859,1.112305,-0.958008,0.503906,-0.350098,0.071350,-0.384277,0.033783,0.865723,-0.634766,-0.134766,-0.404053,-0.010300,-0.687012,0.695312,-0.227783,0.823730,-1.154297,-0.166748,0.148560,-0.044128,-0.714844,-0.820312,1.000977,0.197021,-0.915039,-1.921875,1.297852,-1.769531,-3.259766,-0.035614,-0.555664,0.756348,1.039062,2.423828,-0.327881,-0.128052,-0.882812,-3.164062,-2.441406,2.253906,0.373291,0.074524,-1.240234,-0.476562,-2.412109,-3.478516,2.236328,2.839844,-2.017578,-0.813477,-2.923828,1.354492,1.745117,0.913574,-0.662598,0.824219,1.537109,-1.826172,0.210327,1.912109,-0.093872,-1.347656,0.354004,-1.043945,1.319336,0.265137,3.203125,-2.884766,1.320312,-1.004883,-0.375244,0.167847,0.434082,-0.282715,-0.000227,-0.180786,-0.313721,-0.050323,0.008232,0.062378,-0.104919,-0.123718,-0.337158,0.055725,0.064941,-0.028992,-0.044769,0.156372,-0.128784,0.083374,0.001362,0.115967,0.101196,0.105164,0.040985,-0.103027,0.189819,-0.005894,0.115356,-0.195557,0.161865,0.053772,-0.008324,0.071899,-0.080261,-0.231201,-0.293701,0.072510,0.058411,0.152588,-0.258301,0.025452,-0.055206,-0.072754,-0.042023,-0.273926,0.061859,0.101379,-0.191895,-0.134644,-0.051514,0.018707,0.041779,-0.028870,0.106079,0.313965,0.549805,0.012886,0.130981,-0.237305,0.484619,0.156250,-0.598633,0.190918,-0.098877,-0.438477,0.116089,-0.077393,0.118713,0.006382,-0.045349,-0.080688,-0.039856,0.065735,0.020828,0.116516,0.006561,-0.336670,-0.030518,-0.016129,-0.114868,-0.174927,0.189941,0.134888,-0.061707,-0.583984,0.206909,-0.112671,0.260742,-0.023422,0.110779,0.169312,0.329834,-0.799805,0.180786,-0.313232,0.186279,-0.125488,0.156738,-0.051575,-0.068054,0.135498,-0.186523,-0.026245
};

#endif



