//#include "../jedi.h"

#ifndef W2_H_
#define W2_H_

// numpy array shape [30, 15]
/*
input_t w2_1[N_LAYER_2 * N_LAYER_4] = {
        1, 1, 1, 1, 1, 1,1, 1, 1,1, 1, 1,1, 1, 1,
        1, 1, 1, 1, 1, 1,1, 1, 1,1, 1, 1,1, 1, 1,
        1, 1, 1, 1, 1, 1,1, 1, 1,1, 1, 1,1, 1, 1,
        1, 1, 1, 1, 1, 1,1, 1, 1,1, 1, 1,1, 1, 1,
        1, 1, 1, 1, 1, 1,1, 1, 1,1, 1, 1,1, 1, 1,
        1, 1, 1, 1, 1, 1,1, 1, 1,1, 1, 1,1, 1, 1,
        1, 1, 1, 1, 1, 1,1, 1, 1,1, 1, 1,1, 1, 1,
        1, 1, 1, 1, 1, 1,1, 1, 1,1, 1, 1,1, 1, 1,
        1, 1, 1, 1, 1, 1,1, 1, 1,1, 1, 1,1, 1, 1,
        1, 1, 1, 1, 1, 1,1, 1, 1,1, 1, 1,1, 1, 1,
        1, 1, 1, 1, 1, 1,1, 1, 1,1, 1, 1,1, 1, 1,
        1, 1, 1, 1, 1, 1,1, 1, 1,1, 1, 1,1, 1, 1,
        1, 1, 1, 1, 1, 1,1, 1, 1,1, 1, 1,1, 1, 1,
        1, 1, 1, 1, 1, 1,1, 1, 1,1, 1, 1,1, 1, 1,
        1, 1, 1, 1, 1, 1,1, 1, 1,1, 1, 1,1, 1, 1,
        1, 1, 1, 1, 1, 1,1, 1, 1,1, 1, 1,1, 1, 1,
        1, 1, 1, 1, 1, 1,1, 1, 1,1, 1, 1,1, 1, 1,
        1, 1, 1, 1, 1, 1,1, 1, 1,1, 1, 1,1, 1, 1,
        1, 1, 1, 1, 1, 1,1, 1, 1,1, 1, 1,1, 1, 1,
        1, 1, 1, 1, 1, 1,1, 1, 1,1, 1, 1,1, 1, 1,
        1, 1, 1, 1, 1, 1,1, 1, 1,1, 1, 1,1, 1, 1,
        1, 1, 1, 1, 1, 1,1, 1, 1,1, 1, 1,1, 1, 1,
        1, 1, 1, 1, 1, 1,1, 1, 1,1, 1, 1,1, 1, 1,
        1, 1, 1, 1, 1, 1,1, 1, 1,1, 1, 1,1, 1, 1,
        1, 1, 1, 1, 1, 1,1, 1, 1,1, 1, 1,1, 1, 1,
        1, 1, 1, 1, 1, 1,1, 1, 1,1, 1, 1,1, 1, 1,
        1, 1, 1, 1, 1, 1,1, 1, 1,1, 1, 1,1, 1, 1,
        1, 1, 1, 1, 1, 1,1, 1, 1,1, 1, 1,1, 1, 1,
        1, 1, 1, 1, 1, 1,1, 1, 1,1, 1, 1,1, 1, 1,
        1, 1, 1, 1, 1, 1,1, 1, 1,1, 1, 1,1, 1, 1
}; */

input_t w2[N_LAYER_2 * N_LAYER_4] = {
-0.033600,-0.016388,0.033142,0.096252,0.004269,0.005962,0.091125,0.006931,-0.063843,-0.035736,0.071472,-0.108093,0.074829,0.013390,-0.049072,0.013382,-0.002415,0.014359,-0.045197,-0.086731,0.108459,0.019135,0.115295,-0.089294,0.013168,0.120300,0.040741,0.154907,0.062256,-0.058533,0.081482,-0.166138,0.089783,0.031860,0.023209,0.003021,0.080750,0.072632,-0.011063,-0.012009,0.138916,-0.005676,0.042297,-0.162476,0.090454,0.033234,0.048004,-0.348145,0.089783,-0.082458,-0.003553,-0.005608,0.107727,-0.012955,0.070801,-0.012505,-0.042145,-0.013138,-0.013412,-0.029373,-0.074341,-0.020706,-0.030441,0.049377,-0.051819,-0.080566,0.041382,-0.014160,-0.076721,0.013184,0.061371,-0.020370,-0.026062,-0.031052,-0.136108,0.100525,0.116272,0.088745,0.058350,0.110107,0.017517,-0.104065,-0.011032,0.066162,0.098145,0.079163,-0.099670,0.001449,-0.070129,-0.076233,-0.004395,0.033875,0.053375,-0.059052,-0.133301,0.134766,-0.083862,-0.007927,-0.126221,0.080872,-0.084778,0.079834,-0.275391,-0.067749,0.033386,0.079468,-0.101685,0.026184,0.001528,-0.142578,-0.057983,-0.147095,0.062225,-0.071106,-0.177734,0.047699,-0.092346,-0.045319,-0.054047,0.021622,-0.067200,-0.228882,-0.017609,0.095642,-0.063782,0.054199,0.012627,-0.122070,-0.006268,0.109863,0.041901,0.094971,-0.124756,0.070129,0.049194,-0.284668,0.099976,0.052460,-0.074402,0.036224,0.095642,0.032288,0.067139,-0.095581,0.104553,-0.102783,-0.033630,-0.065674,0.087402,-0.132202,0.010719,-0.006222,0.206665,-0.054230,-0.019196,-0.081482,0.011208,-0.016403,0.081543,-0.015472,-0.086426,0.137695,-0.063232,0.011513,-0.056366,0.085083,-0.039978,-0.050415,-0.125000,0.091003,0.105591,0.022949,-0.048096,-0.022949,0.024094,0.014641,-0.127075,-0.115295,-0.043823,-0.137573,-0.108704,0.138062,-0.008560,-0.069092,0.086243,-0.014519,-0.030502,-0.127319,0.011383,0.125732,0.126709,-0.092163,0.137573,0.086060,0.004448,0.014145,-0.018600,0.061401,0.092041,0.098816,-0.095886,-0.213745,-0.371094,0.057129,-0.419189,0.189087,-0.250977,0.109497,-0.120361,0.108337,0.040771,-0.103882,-0.078125,-0.075867,-0.094238,-0.145508,-0.100342,0.013077,0.025513,-0.059601,-0.069580,-0.006428,0.092529,-0.051422,0.500488,0.062042,0.010262,0.009743,-0.001721,-0.023529,-0.047028,0.064819,-0.167114,-0.034027,-0.005226,0.080627,0.094543,0.019043,0.064148,0.087769,-0.045074,-0.030197,-0.006546,-0.008156,-0.141113,0.013260,0.103821,-0.024368,0.001764,-0.118713,-0.059601,0.056488,0.058167,-0.127930,-0.020782,-0.067810,0.060791,0.127319,-0.110779,-0.727539,-0.310059,0.020279,0.105042,0.135986,-0.024368,-0.092285,-0.129150,0.007008,-0.034790,0.156494,-0.015991,-0.050323,-0.038483,0.121155,-0.074707,0.070374,-0.035004,-0.001262,0.054199,0.051788,-0.036560,0.011803,-0.049469,0.104370,-0.118591,-0.122864,0.078308,-0.007359,0.046814,-0.041321,0.084656,-0.108826,-0.012253,-0.017334,0.080566,-0.041626,0.136597,0.047760,-0.032684,-0.019791,-0.145874,0.057922,0.018250,-0.026382,-0.083435,-0.041077,0.007420,0.000762,0.013657,-0.119446,0.005280,0.056610,-0.039337,-0.124756,0.035400,0.019836,0.197266,-0.061920,-0.039520,0.021835,0.044312,-0.012222,-0.097839,0.048889,-0.154907,0.114990,0.124146,-0.241089,0.048218,-0.124390,-0.105896,0.045929,0.109192,-0.083557,-0.067627,-0.129761,-0.038361,0.132690,-0.053558,0.054626,0.072083,-0.071228,-0.154053,-0.029587,-0.148315,0.104370,0.039581,-0.036407,0.045929,0.091003,-0.029022,0.082886,-0.006756,-0.064392,-0.038086,-0.116150,-0.004169,0.004829,-0.013748,-0.067200,-0.058502,0.029175,-0.157837,-0.029266,0.031433,0.108459,-0.042297,-0.075317,-0.054596,-0.004597,0.061157,-0.038422,0.037872,0.045258,0.025177,-0.145752,-0.031830,0.033966,0.111267,0.127686,0.073364,0.075012,0.091492,-0.169434,0.019531,0.217896,0.160034,0.042084,-0.003565,0.067139,-0.133667,-0.074402,0.097595,0.101624,-0.108276,-0.177612,0.189087,-0.063904,-0.099182,-0.079102,-0.095276,0.013573,0.041901,-0.045380,-0.035706,-0.049988,0.080017,0.119873,0.084473,-0.550293,-0.392090,-0.220093,-0.004879,0.119324,-0.005093,-0.131348,0.049042,-0.104980,0.079712,-0.010399,-0.051453,-0.083740,0.134766,0.100647,-0.003433,0.182373,0.105103,0.083435,-0.066040,0.054321,0.112427,-0.165771,-0.116577,0.173584,-0.105408,0.107849,-0.079834,-0.077576,-0.174805,0.060883,0.009720,0.069885,0.011108,0.025650,-0.014549,0.004429,0.111145,0.073608,-0.018204,0.007282,-0.053833,0.103027,-0.050598,-0.050293,-0.093689,0.001826,-0.101501,0.021164,-0.074951,0.094238,0.057343,-0.131348,-0.011696,-0.061981,-0.094482,0.104065,0.136963,-0.118896,0.025650,0.099060,0.095886,-0.117188,0.048187,0.143921,-0.060638,0.026184,0.115479,0.007156,0.017258,-0.066467,-0.083313,0.117615,0.051880,0.009995,-0.115845,-0.010323,0.024857,-0.022583,-0.118042,-0.072449,-0.024338,-0.050598,-0.059570,0.010208,-0.036163,-0.042664,0.047394,-0.032379,0.076599,-0.132935,0.038086,0.028168,0.020523,-0.043365,0.038849,-0.001955,0.047241,0.065491,0.081665,-0.146484,-0.092407,-0.059326,0.114807,-0.056366,-0.045837,0.004421,0.131348,-0.027374,-0.120117,0.070007,0.091370,-0.141479,0.066284,0.035278,0.090881,0.080383,0.020203,0.004997,-0.037537,0.069336,-0.046326,-0.121338,-0.113647,-0.099487,-0.100708,0.015251,-0.138672,0.145386,-0.114197,-0.093445,0.081360,-0.106323,0.071289,-0.096680,0.070312,0.009842,-0.204834,-0.059570,-0.070740,-0.207275,-0.049377,0.073975,0.055511,0.021790,0.027405,0.019104,0.129883,-0.105225,0.133301,0.026306,0.043579,0.103027,-0.130859,0.097717,0.129028,0.018402,-0.055145,0.105713,-0.007256,0.007343,-0.061462,-0.084045,-0.095093,0.091614,-0.041107,0.066956,0.049866,0.129150,0.042725,0.094727,0.040497,-0.106201,-0.183716,-0.129150,0.066711,0.043488,0.024200,-0.060333,0.065063,-0.060211,-0.085815,0.062500,0.105408,0.101135,-0.035370,-0.132080,0.126831,0.135986,0.148193,0.115723,-0.048859,0.008957,-0.004585,0.037842,0.108093,0.081238,-0.010590,0.157837,-0.117432,-0.008118,0.000922,-0.129517,0.101562,0.015869,0.038818,-0.071411,-0.012138,-0.080444,-0.018738,0.094421,0.038483,-0.109924,0.091858,-0.059998,0.003052,0.016235,-0.006859,-0.054260,-0.055542,0.020630,-0.107117,0.103149,0.027802,-0.031433,-0.113586,-0.170410,-0.117126,0.083313,0.113281,0.040741,0.058563,0.067444,0.129883,0.033203,-0.026978,-0.162354,0.051880,0.036835,-0.072937,-0.107788,0.116760,0.154175,0.081970,-0.141479,0.128052,0.041534,-0.122986,0.069702,0.043854,-0.050629,-0.215820,-0.275146,0.038147,0.000209,-0.168213,0.099670,-0.075317,-0.061768,-0.010063,-0.192749,0.133423,-0.075867,-0.090332,-0.009743,0.018860,0.067566,-0.015778,-0.027710,-0.076355,-0.038300,-0.018555,0.145264,-0.009895,-0.061340,-0.025574,-0.125122,0.046906,0.071777,-0.096130,-0.083313,-0.169556,0.006145,-0.069458,-0.018753,0.096863,0.096741,0.079468,0.114380,0.035736,-0.213379,0.058899,-0.056091,-0.002981,0.228760,0.126709,0.135010,-0.126831,0.050049,0.114197,0.101196,0.076355,0.023941,-0.107727,0.060303,-0.029510,-0.145630,-0.113953,0.024384,-0.020691,-0.157471,0.076660,0.109863,-0.088745,-0.044373,-0.049316,0.109192,0.111694,0.101929,0.163574,0.084900,0.047668,0.096069,0.005157,0.133301,0.070190,0.058319,0.121704,0.042786,0.103394,-0.158813,0.079468,-0.100647,0.053772,-0.105469,0.078674,0.106689,0.054504,-0.180054,-0.112732,-0.105469,-0.294922,-0.338135,0.207397,0.094849,-0.023041,0.216675,-0.008858,0.092285,0.114136,0.032745,0.008148,0.161743,-0.284912,0.054932,-0.053864,-0.277832,-0.330078,0.305420,-0.087646,0.149170,-0.344238,-0.016098,0.057404,-0.036774,0.005108,-0.042999,0.042328,0.047272,0.078430,-0.071716,0.031525,-0.075134,-0.091858,-0.064758,-0.096497,0.026382,0.034851,0.038666,-0.004166,-0.008965,-0.021271,-0.077881,0.042358,0.025833,-0.066650,0.059265,0.176270,0.075867,0.026779,0.117676,-0.005219,-0.060455,-0.018524,-0.006100,-0.021347,-0.047668,0.056000,0.075256,0.087524,-0.074890,-0.013855,0.041504,-0.056702,-0.116943,0.019653,0.014839,0.052765,0.107910,-0.012108,-0.095032,0.003828,0.062012,-0.041779,-0.001562,0.089417,-0.126831,0.075500,0.028748,-0.096069,0.071228,-0.061096,-0.132080,0.019287,0.037506,-0.035156,-0.148804,-0.154297,-0.041138,-0.044922,-0.080872,-0.007538,0.060608,-0.027939,0.034515,-0.091370,0.176147,-0.077576,-0.015808,-0.042633,-0.056824,-0.050049,0.056793,-0.038208,0.017715,-0.051178,0.026428,-0.126099,0.064392,-0.059662,-0.072693,-0.010605,0.039642,-0.008835,0.027481,-0.032715,-0.027939,0.173828,-0.020004,0.019913,0.060425,-0.092102,0.015617,-0.171631,0.073853,-0.063782,-0.001968,-0.068359,-0.146484,0.177002,0.062744,-0.090637,0.098022,0.076477,-0.066467,-0.048645,-0.102661,-0.056732,-0.026489,0.036743,0.057312,-0.157959,0.094055,0.057831,-0.040436,0.071167,-0.042725,0.060150,0.063110,0.147217,0.099976,0.045837,0.071899,-0.234741,-0.750488,0.073364,0.091187,-0.038574,-0.058563,0.054565,-0.107361,0.039764,0.252197,-0.217041,-0.044617,0.079895,0.036163,0.029282,-0.112427,0.146606,0.080017,0.096191,-0.180298,0.121643,0.058563,0.416016,0.042114,0.041992,0.034363,-0.136841,0.027390,-0.070435,-0.050690,-0.063782,0.104492,0.009415,-0.167969,0.105591,0.042969,0.054810,0.062286,0.102966,0.133545,-0.046173,0.121887,-0.124084,-0.102844,-0.016479,-0.078796,-0.071045,-0.016586,0.104675,0.004463,-0.080933,0.027512,0.054260,0.009338,0.015190,-0.087952,0.157837,-0.056305,-0.166016,0.009445,0.068176,0.067627,-0.032928,0.008377,0.149170,0.072632,0.042175,-0.116760,-0.139404,-0.032532,-0.113708,0.033783,0.127075,0.034576,0.025528,-0.054047,0.017731,0.082031,0.074097,-0.087708,-0.083984,-0.089905,0.105469,-0.230957,0.097046,0.056976,-0.111023,-0.092896,0.015099,0.127808,0.088074,-0.019226,-0.067688,0.029022,0.008507,0.082886,-0.077148,0.088257,0.061920,-0.095825,-0.009651,-0.010872,0.009514,0.187622,-0.036072,-0.081299,0.037750,0.124756,0.018875,-0.071411,-0.105652,-0.082397,-0.060486,-0.090332,0.077515,0.116333,0.003025,0.156982,0.044128,0.051849,0.117859,0.014748,0.044067,0.080444,-0.102234,0.036713,0.047485,0.046936,0.104370,0.014877,-0.031891,-0.024750,0.185547,0.044525,-0.016464,-0.091614,0.074097,0.064941,0.097656,-0.070190,0.055878,0.022247,-0.035706,-0.065430,0.008606,0.048798,-0.085876,-0.191528,-0.104492,0.052246,-0.071167,0.133423,-0.021255,-0.072876,0.072327,-0.101685,-0.017899,0.087646,0.006474,0.030258,-0.057465,0.131714,-0.160278,-0.049652,-0.061157,0.074036,-0.040405,0.007492,0.061615,0.137451,-0.061493,0.100281,0.125977,-0.017548,0.159790,-0.027634,-0.156860,-0.013130,0.102539,-0.022980,-0.123840,-0.129761,-0.067444,0.038635,0.054626,0.097900,-0.112732,0.058594,0.107483,0.002148,-0.127197,-0.025620,0.153076,-0.125488,-0.302734,0.078003,-0.022018,-0.120361,-0.038330,-0.063965,0.087036,0.109375,0.012993,-0.018219,0.052673,0.089417,0.096375,-0.229248,0.001905,0.025986,-0.010880,0.076416,0.068115,-0.077209,-0.125122,0.113953,0.024536,0.014809,-0.024277,0.170776,0.147217,-0.048889,0.092285,0.063904,0.149780,-0.035492,-0.050232,0.069519,0.113708,0.099487,-0.149048,0.105652,-0.021103,0.045258,-0.000863,-0.029968,-0.029984,-0.008591,-0.010857,0.051178,-0.096497,-0.091187,-0.033722,0.116455,-0.011658,-0.107056,-0.024673,-0.122253,-0.096680,0.117676,-0.101135,-0.037506,0.037262,0.021545,0.046570,-0.060303,-0.135620,-0.113464,0.027206,0.057495,0.035187,0.128906,0.128296,0.028076,-0.025772,-0.130005,-0.035492,0.036346,-0.033234,-0.110840,-0.017044,0.135498,-0.107178,0.185059,-0.037079,-0.037903,-0.051819,-0.000496,0.057251,0.088074,0.000210,-0.008324,-0.019547,0.120422,-0.022232,-0.034302,0.041290,0.011505,0.037262,0.045624,0.038086,0.082458,0.136963,0.044403,0.109070,-0.027939,0.057190,-0.015343,0.019943,0.030396,-0.069092,-0.005154,0.018250,0.161133,-0.071777,0.107605,-0.015617,0.192749,0.229614,-0.147827,0.153564,0.023163,0.179321,0.006390,0.054657,0.057770,0.057983,-0.007259,0.087341,-0.068481,-0.053833,0.000621,0.452637,0.062866,-0.140381,-0.028107,0.022659,0.075439,0.119263,0.065369,0.088623,0.060791,-0.156006,-0.074646,0.265869,-0.060486,0.113159,0.024231,-0.001052,0.034912,0.181519,-0.119019,0.012383,-0.047119,-0.071594,-0.100159,0.108826,-0.143677
};

#endif


