//#include "../jedi.h"

#ifndef W3_H_
#define W3_H_

// numpy array shape [15, 10]
/*
input_t w3_1[N_LAYER_4 * N_OUTPUT_1] = {
        1, 1, 1, 1, 1, 1,1, 1, 1,1, 1, 1,1, 1, 1,
        1, 1, 1, 1, 1, 1,1, 1, 1,1, 1, 1,1, 1, 1,
        1, 1, 1, 1, 1, 1,1, 1, 1,1, 1, 1,1, 1, 1,
        1, 1, 1, 1, 1, 1,1, 1, 1,1, 1, 1,1, 1, 1,
        1, 1, 1, 1, 1, 1,1, 1, 1,1, 1, 1,1, 1, 1,
        1, 1, 1, 1, 1, 1,1, 1, 1,1, 1, 1,1, 1, 1,
        1, 1, 1, 1, 1, 1,1, 1, 1,1, 1, 1,1, 1, 1,
        1, 1, 1, 1, 1, 1,1, 1, 1,1, 1, 1,1, 1, 1,
        1, 1, 1, 1, 1, 1,1, 1, 1,1, 1, 1,1, 1, 1,
        1, 1, 1, 1, 1, 1,1, 1, 1,1, 1, 1,1, 1, 1,
}; */

input_t w3[N_LAYER_4 * N_OUTPUT_1] = {
0.101990,-0.030746,-0.020370,0.097534,-0.370361,-0.053345,0.025467,0.017059,0.110046,-0.064575,0.016129,0.017792,0.132690,-0.087341,0.108459,0.222412,-0.125610,0.106262,-0.037415,-0.018646,0.081787,-0.166504,-0.036804,0.049988,0.098999,0.124695,0.108704,0.108704,0.083252,-0.203735,0.018494,0.002312,-0.043823,-0.133545,0.121826,0.229004,0.057526,0.451660,0.109009,-0.126465,-0.137573,-0.002216,-0.002813,0.017853,-0.045074,-0.191040,0.013649,0.087463,0.046814,0.135254,-0.037262,-0.085022,-0.094299,-0.181763,0.056274,0.013535,0.044495,-0.038574,-0.004429,-0.108521,0.171021,-0.079834,0.182251,0.026459,0.215698,0.125977,0.078308,0.210815,-0.165771,-0.263916,0.071045,0.150024,-0.223755,-0.070618,0.201538,-0.058990,-0.243408,0.064148,0.084412,-0.198486,-0.063965,0.047791,-0.048187,0.084656,-0.168335,0.047455,-0.005375,-0.055939,-0.059235,0.053497,-0.485107,0.101929,-0.308594,0.080627,-0.057861,0.148315,0.159546,0.216309,-0.012695,0.105713,0.157593,0.067810,-0.296143,0.075500,0.072021,-0.255859,0.135498,-0.099670,-0.010765,-0.066040,0.106445,0.061676,0.093445,-0.028519,0.083252,-0.085876,-0.011017,0.186157,0.014076,0.127197,0.186768,-0.337402,0.027100,0.150757,0.070740,0.306396,-0.223022,-0.033264,-0.143799,-0.160156,0.125610,0.300293,0.105408,-0.077087,-0.046143,-0.151489,0.024567,-0.255127,-0.172363,-0.096130,-0.132690,0.037628,-0.150513,0.131714,-0.034607,-0.169067,-0.064697,0.041443,-0.116089,-0.011055,0.168091,-0.089111,0.106812,0.059113,0.032410,-0.067871,-0.033508,-0.104187,0.183716,-0.022034,-0.120178,0.032166,0.056885,-0.137939,-0.164185,0.164062,-0.106201,0.170044,-0.154907,0.069031,0.140137,-0.059387,-0.393799,0.103943,0.063721,0.116516,0.035461,0.162109,0.030579,-0.085205,0.127930,-0.295654,0.002758,0.107788,0.051086,0.058533,0.190796,-0.021912,0.142456,-0.035065,0.164551,-0.151245,0.011864,-0.167480,0.193115,0.155884,0.119812,0.154785,-0.060059,0.049927,0.009056,-0.001831,0.025513,0.049835,-0.146851,0.146851,-0.111633,-0.090027,-0.319824,-0.005573,-0.089417,0.067627,-0.127808,-0.019104,-0.187012,0.132568,0.000227,-0.030609,0.051788,-0.075134,-0.033264,-0.030060,-0.135742,0.004673,-0.002352,-0.016220,0.114624,-0.003767,0.053375,-0.083740,0.065125,0.013290,0.259766,-0.133179,0.093872,0.084412,0.038116,0.057373,0.041626,0.132935,-0.020599,0.139160,-0.082520,0.016068,-0.177734,-0.053558,-0.022110,0.114319,0.018372,-0.051727,-0.020325,-0.137085,-0.146484,0.326416,-0.059814,-0.178345,0.014580,-0.010483,-0.865234,0.210815,-0.224976,0.126221,0.000687,-0.241821,0.046692,-0.037811,-0.090210,-0.146729,-0.012756,0.109375,-0.008072,-0.014885,-0.243896,0.136353,-0.103333,-0.052216,0.016434,-0.222656,-0.045990,-0.141479,0.147705,-0.100769,-0.129639,0.111450,0.074829,0.213501,0.105835,0.000737,0.018143,-0.103882,0.031403,0.008179,0.155884,0.025360,-0.048370,-0.040588,-0.006310,-0.216797,0.001635,-0.001169
};

#endif


