//#include "../jedi.h"

#ifndef W7_H_
#define W7_H_

// numpy array shape [15, 10]
/*
input_t w1_3[D_o * N_LAYER_10] = {
        2, 2, 2, 2, 2, 2,2, 2, 2,2, 2, 2,2, 2, 2,
        2, 2, 2, 2, 2, 2,2, 2, 2,2, 2, 2,2, 2, 2,
        2, 2, 2, 2, 2, 2,2, 2, 2,2, 2, 2,2, 2, 2,
        2, 2, 2, 2, 2, 2,2, 2, 2,2, 2, 2,2, 2, 2,
        2, 2, 2, 2, 2, 2,2, 2, 2,2, 2, 2,2, 2, 2,
        2, 2, 2, 2, 2, 2,2, 2, 2,2, 2, 2,2, 2, 2,
        2, 2, 2, 2, 2, 2,2, 2, 2,2, 2, 2,2, 2, 2,
        2, 2, 2, 2, 2, 2,2, 2, 2,2, 2, 2,2, 2, 2,
        2, 2, 2, 2, 2, 2,2, 2, 2,2, 2, 2,2, 2, 2,
        2, 2, 2, 2, 2, 2,2, 2, 2,2, 2, 2,2, 2, 2,
        2, 2, 2, 2, 2, 2,2, 2, 2,2, 2, 2,2, 2, 2,
        2, 2, 2, 2, 2, 2,2, 2, 2,2, 2, 2,2, 2, 2,
        2, 2, 2, 2, 2, 2,2, 2, 2,2, 2, 2,2, 2, 2,
        2, 2, 2, 2, 2, 2,2, 2, 2,2, 2, 2,2, 2, 2,
        2, 2, 2, 2, 2, 2,2, 2, 2,2, 2, 2,2, 2, 2,
        2, 2, 2, 2, 2, 2,2, 2, 2,2, 2, 2,2, 2, 2,
        2, 2, 2, 2, 2, 2,2, 2, 2,2, 2, 2,2, 2, 2,
        2, 2, 2, 2, 2, 2,2, 2, 2,2, 2, 2,2, 2, 2,
        2, 2, 2, 2, 2, 2,2, 2, 2,2, 2, 2,2, 2, 2,
        2, 2, 2, 2, 2, 2,2, 2, 2,2, 2, 2,2, 2, 2
};*/

input_t w7[D_o * N_LAYER_10] = {
0.110535,0.281006,0.173096,0.007744,-0.067444,-0.137329,0.172729,0.002539,0.084961,-0.244751,0.055420,0.141602,-0.147339,0.009666,-0.010834,0.146118,-0.078308,-0.276367,-0.109497,-0.244751,0.175903,0.213379,-0.326660,0.111816,0.156982,0.139038,0.221313,-0.210083,0.114441,0.151245,0.165771,-0.067627,0.196289,-0.075989,0.132080,-0.371338,0.011772,0.032898,-0.068359,-0.017227,-0.060181,-0.238525,-0.237061,-0.273926,0.161621,-0.042999,-0.223755,-0.160522,0.082825,0.017960,0.056885,0.129761,0.223145,-0.181152,-0.034485,0.076233,0.127319,-0.287109,-0.257812,-0.247925,0.022781,0.162964,-0.250732,0.246582,-0.008385,-0.089417,-0.068237,0.272949,0.003851,0.013977,0.111694,0.179077,0.081848,-0.033173,-0.176392,-0.182617,0.128296,0.063171,0.194214,-0.281738,-0.022064,-0.237427,0.243408,0.063416,0.099121,-0.191772,0.071472,0.190796,0.097534,0.137329,0.175415,-0.251709,0.167603,-0.158447,0.154175,0.181396,-0.119812,-0.206421,-0.010643,-0.118713,0.103333,-0.070007,0.075256,0.048004,-0.358398,-0.206299,-0.045837,-0.232056,0.034760,0.057312,-0.118347,0.179199,0.247803,-0.140625,0.021011,0.282471,-0.333008,-0.063843,-0.369141,0.697266,-0.012367,-0.384766,0.178589,0.237793,-0.067383,0.032593,-0.086670,-0.161499,0.199829,-0.158081,-0.122253,-0.144531,0.130737,-0.215210,-0.567871,-0.079285,-0.111511,-0.139282,0.146484,0.049500,0.149536,-0.072510,0.021851,0.163818,-0.155151,0.160645,0.704590,-0.051178,-0.083435,-0.034393,-0.043121,-0.099731,-0.116638,-0.033264,0.131836,0.052429,-0.089111,-0.175049,0.126099,0.152100,-0.027985,-0.014366,-0.017883,0.186768,-0.265381,-0.037720,-0.094238,-0.228638,0.082642,-0.032410,0.073608,0.254395,-0.185913,0.038849,-0.058960,0.169922,-0.059692,0.028503,-0.106323,0.153564,-0.100830,-0.072144,-0.166260,0.077515,0.062744,-0.229004,-0.005043,-0.191284,-0.047028,0.049438,-0.019836,-0.151245,0.122009,-0.174438,0.200806,-0.193359,0.132568,-0.003662,-0.136963,0.128906,-0.195435,0.090698,-0.084351,0.044098,-0.032959,-0.342285,0.259277,0.099487,-0.112305,0.026886,0.004993,-0.013580,-0.443359,0.018387,0.054626,-0.173462,0.209717,0.114014,-0.506348,-0.286865,0.260254,0.000165,0.113831,-0.117615,-0.192505,0.065613,-0.512207,-0.473633,-0.185669,-0.131714,0.000032,0.001194,0.054535,0.280273,0.336182,-0.086914,0.135254,0.096252,0.047394,0.295410,-0.030487,-0.075989,0.330811,0.067261,-0.002840,0.097839,-0.494141,0.100159,0.227295,-0.180664,0.218994,0.044769,0.214233,0.051819,0.244019,-0.160156,0.127686,0.250977,-0.109375,-0.151001,-0.145874,-0.092041,0.042206,-0.187500,0.089722,-0.103333,-0.091125,0.203491,-0.082947,0.215088,-0.065369,0.172485,-0.147217,-0.243652,-0.195557,-0.230347,0.199097,0.240845,0.210449,0.157959,-0.247192,0.222412,-0.146851,0.039886,0.008652,0.098694,-0.039917,-0.048096,-0.143188,-0.140503,0.242920,0.231323,-0.107971,0.212646,-0.196533,-0.146606,0.166992,0.131348,-0.163940,-0.110535,-0.041016,0.114258,-0.024368,0.177490,-0.045990,-0.313477,0.131958,0.011818,0.159790,-0.252930,0.045197,-0.212769,0.225830,-0.192871,-0.187256,0.118958,0.226074,-0.149170,0.302002,0.130005,0.119690,-0.158936,0.109497,0.146118,0.265381,-0.085327,-0.316650,0.133667,-0.074463,0.030380,-0.213379,0.284912,0.016220,-0.084290,-0.328613,0.159790,0.109253,0.131714,-0.010506,-0.130981,-0.087769,0.214355,-0.311279,-0.275879,0.124268,-0.067078,0.127808,-0.245972,-0.206909,-0.084106,0.106079,-0.185181,0.152832,0.129883,0.165039,-0.005886,-0.189941,-0.182495,0.161865,-0.164185,0.082397,0.154053,0.000925,-0.062256,-0.025909,0.238281,-0.022156,-0.130615,0.221069,0.240234,-0.009720,-0.237061,-0.165161,0.065918,-0.231689,-0.001493,0.103699,0.031403,0.143555,0.163818,0.129395,0.068909,0.054993,-0.007183,-0.059509,0.071716,0.130493,0.020523,0.137451,0.006142,-0.264404,0.060760,0.097290,-0.225952,0.213623,0.022385,0.297363,-0.249023,-0.430664,0.154907,0.194702,0.209473,0.139038,-0.172485,-0.201660,-0.262939,-0.147461,-0.137817,-0.274658,-0.073608,-0.128540,-0.060059,-0.100586,-0.117981,-0.301025,-0.042206,0.203369,-0.020966,0.026535,0.137451,-0.046875,-0.159668,-0.155273,-0.072876,0.049713,-0.117737,0.011017,0.154419,0.204102,-0.242554,-0.137207,-0.156006,-0.022400,-0.162720,0.148193,-0.261230,-0.044250,0.014977,-0.130615,0.230713,0.091370,0.385498,0.064575,-0.143311,-0.165527,0.158569,0.102722,0.000389,-0.075256,0.045593,-0.074646,-0.120972,-0.137939,0.173340,0.150391,-0.058655,0.101318,-0.150269,-0.048553,-0.130005,-0.201172,-0.050293,0.059418,-0.180176,-0.262207,-0.355957,0.233154,0.189331,-0.159546,-0.161865,0.182007,-0.150635,-0.085388,0.101685,0.220947,-0.157715,0.133667,0.052277,-0.078796,0.019669,-0.108521,0.167358,-0.168579,0.239868,0.108398,-0.133667,0.179688,0.031464,-0.164307,0.089844,-0.135864,-0.064270,-0.196167,0.008011,-0.261230,0.006840,-0.062256,-0.192871,-0.116760,0.080872,-0.141479,0.374268,0.089722,0.176392,-0.281250,0.130127,-0.070496,0.230957,0.040802,0.113220,-0.032898,0.052063,0.117371,0.034180,-0.016098,-0.257568,0.100525,-0.309814,-0.032654,-0.035919,0.268311,0.236816,-0.187134,-0.178711,0.055847,-0.010361,0.256348,-0.095093,0.181763,-0.001200,-0.086548,0.055847,0.279785,-0.269043,0.156738,-0.065186,0.078918,-0.034241,-0.270752,-0.161987,-0.024841,0.375977,0.075806,0.206299,-0.018356,-0.066345,-0.253906,-0.016693,0.102051,-0.031708,0.066345,0.114868,0.173706,-0.070984,0.005283,0.223389,0.327393,-0.235352,0.144775,-0.056580,0.501953,0.185791,-0.141968,0.047272,0.216919,-0.111755,0.121277,-0.015244,-0.370117,-1.487305,-0.101562,0.162720,-0.135010,-0.106995,0.100403,0.114563,0.130493,-0.824219,0.067444,0.102661,0.049896,0.150391,-0.153687,-0.154053,0.225952,0.080750,0.157471,0.043213,0.272705,-0.228394,-0.058685,0.155640,-0.216187,-0.094727,-0.008751,0.027817,-1.093750,-0.214478,0.199585,-0.588867,-0.487061,-0.284424,-0.140015,-0.055054,0.210815,0.127686,0.049805,-0.020523,0.179077,0.058258,0.107849,-0.162598,-0.005936,0.136719,0.295898,-0.260254,0.196533,0.227905,-0.170410,-0.139526,0.018524,0.251221,0.039398,-0.353760,-0.002968,0.203247,-0.079041,-0.163818,0.091370,0.209717,0.235229,0.291504,-0.071533,0.179810,-0.032227,0.390137,-0.000678,-0.093262,-0.086487,-0.354980,-0.060547,0.179810,0.164551,-0.198242,-0.060547,-0.125488,-0.001755,-0.245850,0.154541,-0.056549,-0.278320,0.169434,-0.427490,-0.029907,0.101257,0.376953,-0.406738,-0.191528,-0.266357,-0.028839,0.151489,-0.180054,0.303711,-0.224976,0.294922,-0.016769,-0.067627,0.280518,0.208008,0.026489,0.006084,0.197388,0.084045,-0.023590,-0.509766,0.064392,-0.133789,0.255615,-0.167236,0.206299,0.221558,0.153809,0.252686,-0.261963,-0.065125,0.031342,-0.115784,-0.307373,-0.221558,-0.328125,0.271973,0.064270,-0.016586,0.103455,0.085571,0.254395,-0.158203,0.227295,-0.336914,0.223755
};

#endif


