//#include "../jedi.h"

#ifndef W9_H_
#define W9_H_

// numpy array shape [15, 10]
/*
input_t w3_3[N_LAYER_12 * N_OUTPUT_3] = {
        2, 1, 1, 1, 1, 1,1, 1, 1,1, 1, 1,1, 1, 1,
        2, 1, 1, 1, 1, 1,1, 1, 1,1, 1, 1,1, 1, 1,
        2, 1, 1, 1, 1, 1,1, 1, 1,1, 1, 1,1, 1, 1,
        2, 1, 1, 1, 1, 1,1, 1, 1,1, 1, 1,1, 1, 1,
        2, 1, 1, 1, 1, 1,1, 1, 1,1, 1, 1,1, 1, 1
};*/
input_t w9[N_LAYER_12 * N_OUTPUT_3] = {
-0.177002,-0.083923,-0.059235,0.173462,0.007866,-0.036774,0.126465,0.145874,-0.231445,0.149414,-0.015572,0.110352,0.076477,0.106995,-0.221558,-0.171875,-0.292480,0.143188,0.102173,0.083618,-0.064087,-0.089600,0.071716,-0.082642,-0.070374,0.181641,0.203613,-0.358643,0.232910,0.075195,0.292480,0.055420,-0.200684,0.069092,-0.091003,0.033875,0.069275,0.067993,-0.505371,0.116394,0.116516,-0.064270,0.038635,-0.006588,-0.208496,0.206421,-0.061951,-0.209839,-0.255859,0.242310,0.091919,0.101868,0.158203,0.244873,-0.125122,-0.009605,-0.061829,0.054688,0.066895,-0.146851,0.058746,0.076904,-0.092346,-0.068298,0.215454,0.024338,0.087524,0.078003,0.243896,-0.331787,0.206299,0.044250,0.143677,-0.111450,0.094604,-0.101379,0.037292,0.297119,-0.462158,0.094360,0.095337,-0.071106,0.085999,-0.010719,0.158691,-0.041412,0.135864,0.096252,0.181519,-0.052826,0.155884,0.092407,0.016434,-0.140625,-0.040497,-0.087646,-0.100525,-0.036621,0.165527,-0.096436,-0.091125,0.231323,-0.097961,0.178223,0.124329,0.280762,0.199219,-0.268799,0.280273,-0.087769,0.249268,0.135864,-0.254395,-0.037659,-0.075745,0.158325,0.021637,0.017548,-0.181519,0.059784,-0.045959,0.036835,0.133301,-0.015472,-0.242676
};
#endif


