//Numpy array shape [32, 32]
//Min -2.697610378265
//Max 1.022780895233
//Number of zeros 0

#ifndef W6_H_
#define W6_H_

#ifndef __SYNTHESIS__
fc3_weight_t w6[1024];
#else
fc3_weight_t w6[1024] = {1.0227808952, -0.3946741819, 0.2081474811, 0.6296994090, -1.3131325245, -0.1990858763, -0.5799059868, -0.1705424935, 0.1175321713, 0.4953967035, -0.1880605221, 0.6360114813, 0.0567391180, 0.8611791134, -0.1335941255, 0.9187014103, 0.0265799519, -0.0680950657, -0.2811690569, -1.3976234198, 0.3673177958, -0.4259376228, 0.2366465628, -0.2225236148, -0.0319095813, 0.1242106780, 0.5286437869, -1.0364122391, -0.2386347353, 0.1435288489, -1.4534209967, -2.1633925438, 0.2314317524, 0.4619678855, 0.3097355366, -0.0863650292, 0.4070682526, -0.1833177209, 0.1572092324, 0.0934066921, -0.0303274374, -0.0656008422, 0.0100202821, 0.3392308652, -0.6355434060, 0.1727429479, -0.5897611976, 0.0145048350, 0.1550582349, 0.4335616529, -0.3362623155, -0.0800930932, 0.1369238645, 0.0745961219, 0.0820101574, -0.4097109735, 0.0645974725, 0.3202958703, 0.4387242198, 0.2701855600, 0.2083590031, 0.1339924484, 0.0468505807, -0.0993961245, 0.1359244287, -0.0924101248, 0.0076990118, 0.0036738743, 0.5517903566, -0.1796005368, 0.0840859711, 0.2504782081, 0.2512101531, 0.0554555319, 0.5403254032, 0.1607187390, -0.2459224164, 0.0038515572, -0.4119193554, -0.1228739694, 0.4565436244, -0.0474141389, -0.0236000568, 0.0840626806, -0.3586198688, -0.2565278411, -0.3269921243, 0.3019869626, 0.4444907308, 0.2776317596, 0.0895928666, -0.1020359099, 0.0986180902, 0.0542608090, 0.1305882037, 0.0842447057, -0.0264870003, 0.3428208232, 0.4478382170, 0.0415726267, 0.4918371141, 0.3632117212, 0.2797420323, -0.1606518030, 0.2142835706, -0.2003070116, 0.1269871593, 0.2041096091, -0.0155425603, -0.2447342873, 0.0255999770, -0.3710816503, -0.1463447213, 0.4935869277, -0.2561181784, 0.6624220610, -0.0338036753, 0.3636942506, 0.0636929646, -0.1412855238, -0.1962715983, 0.0435333811, -0.1544994712, -0.0369784497, 0.5076729655, 0.1029770598, 0.4317354858, 0.1407865733, -0.6568999290, 0.3204852641, 0.2385565042, -0.3733412623, -0.4111146629, 0.0618963391, 0.0505404882, -0.1516590863, -0.0980426520, -0.0645000711, -0.0366203487, -0.2527899146, 0.0904464796, -0.5739384890, 0.1935289055, -0.5983338952, -0.5080435276, 0.4625047445, 0.0609344058, -0.1061535552, -0.2111354023, -0.0198622178, 0.2547725737, 0.1515865922, -0.0657887831, 0.3351215124, 0.1718415767, -0.4763369560, -0.2241636515, -0.0328808650, -0.1711377054, -0.0916875377, -0.2078317404, -0.1607906073, -0.1264019907, -0.0519110747, 0.3787980676, 0.1259950548, -0.1870323718, 0.3018971682, -0.0098987268, -0.4885894656, 0.0483842790, -0.0177794751, 0.0211750474, -0.0660822392, 0.0296016950, 0.2114650160, -0.0558081791, 0.0173833445, 0.0925929993, 0.1754979491, 0.2487959713, 0.1048710495, -0.0671875700, 0.0605608486, 0.4641615450, 0.3111796975, -0.0976784825, 0.2276909053, 0.0176061224, -0.3249050379, 0.0487376116, 0.2849155366, 0.0555845611, -0.4595104456, -0.5277379155, -0.2068932950, -0.3842039108, 0.0047434880, 0.1683896482, -0.1083575785, -0.3149633706, -0.1574777514, -0.0197780691, -0.0086976644, 0.3673370779, 0.1534208804, -0.1822200269, -0.0937142447, 0.3432816267, 0.0122751826, 0.1415684223, 0.0771443397, -0.0634610727, -0.0216253046, 0.1803674698, 0.4889924824, 0.3747471571, 0.4027493298, -0.7548971176, 0.0340924114, 0.1761701107, 0.1570430845, -0.2901178002, 0.3035155535, 0.0992963687, 0.5474745035, 0.1798305362, 0.0408331268, 0.1258675605, 0.4045896828, -0.0823108181, 0.2403287739, -0.0676147565, -0.1937927306, 0.3993234932, -0.0983037949, 0.2265063971, -0.0020068658, 0.1144398227, 0.0296258610, 0.0470427908, 0.2766055167, -0.2387343794, 0.3257810771, 0.1016231179, -0.3765905499, 0.2000486255, -0.4107775092, 0.0627700016, 0.0970679522, -0.0345085710, 0.1715808511, 0.3974139392, -0.1125795767, 0.1410764158, 0.3351001441, 0.1237478703, -0.6065273285, -0.0867993608, -0.1465239376, -0.0502121225, -0.1395671070, 0.2106477022, 0.3544223309, -0.1614806503, -0.6375764608, 0.3236238062, -0.1196097508, -0.3057482243, 0.1867383569, -0.0050715809, 0.2105872929, 0.1703378409, -0.0278127845, 0.1812459230, 0.0149355028, 0.2433277816, 0.1702528596, 0.2600693107, 0.4449780881, 0.2381733656, 0.1859998107, -0.6502361298, 0.1192150041, 0.0771817490, 0.0682183579, -0.2676993310, 0.0160809886, 0.2238292843, 0.3101842105, -0.1092633232, 0.3349782228, 0.1943364292, 0.3729269803, 0.4975841939, -0.0489312634, 0.5661270618, -0.0706537664, 0.0095484126, 0.0246873982, 0.3431356251, 0.5079802871, -0.4623887241, 0.4417680800, 0.3987714350, 0.1898346245, -0.1720999330, 0.4069213867, -0.1135575399, -0.1379751116, 0.1193387434, 0.0957118943, -0.1236180961, -0.2775608003, 0.1610532105, 0.3138456643, 0.5053174496, 0.1539584845, 0.0114427106, 0.0986859426, -0.2920196056, 0.0054124761, -0.1903680414, -1.2036182880, -0.5072017908, 0.3802975714, -0.0111156125, -0.5461334586, 0.0370306708, -0.2285065800, -0.2126614153, -0.6665483117, -0.1530924141, 0.0246731248, 0.0366356298, -0.5878638029, -0.1070947871, 0.0425864123, 0.1083817780, -0.5394567251, -1.1508966684, -0.0079561695, -0.3229705989, 0.4428034127, -0.1215258762, 0.2297296822, 0.1360016912, -0.9424032569, -0.2435021251, -0.4044002295, -0.4874259233, -0.7435864210, -1.5428757668, 0.0750694573, 0.0906070545, -0.4065101445, -0.7722657323, 0.0496530198, -1.2425278425, -1.1458401680, 0.1724128425, 0.2021732926, -0.2371199876, -0.7826250792, 0.1571817696, -1.3139038086, -0.1047693193, -0.3324660361, 0.2662139237, 0.0165200066, 0.2861251533, -0.4963293970, -0.0217200499, 0.2274343371, 0.2802458405, 0.0592028908, -0.0597268045, 0.2482945919, 0.5655783415, -0.1976311505, -0.1491983235, -0.0344950296, -0.0406673551, 0.4701091349, 0.0169394687, 0.3327951729, 0.0943730026, 0.3751963079, 0.5183651447, 0.0600720011, -0.2248455435, 0.4116412699, 0.2919248939, 0.7229169011, 0.2165094167, -0.1371930540, -0.2655261755, 0.0997142941, 0.2412321568, 0.1166526899, 0.2453729361, 0.0781219155, -0.2721844316, 0.4030378759, -0.0938885286, -0.1829589158, 0.1458829492, 0.1429950893, -0.1875646114, 0.1604476720, 0.1717790812, 0.0090915188, 0.4575573802, 0.0430807956, 0.1494622082, 0.1417700648, 0.0489823520, -0.2591178715, 0.0014646346, -0.0408310629, -0.0745450780, 0.0764383152, 0.3144940436, 0.2066800296, -0.4407145381, -0.4638033211, 0.0488074571, 0.1803139448, -0.1224278957, 0.2066754103, 0.0100124003, 0.1660724729, 0.1461716741, 0.0044577047, 0.2528558373, 0.1268697828, -0.2253017873, -0.1494018286, 0.0131751206, -0.1283594668, -0.0913520381, -0.0995998830, -1.2091820240, 0.0672056898, 0.1267953366, 0.2776109874, -0.2885740995, -0.1802615076, 0.3127355576, -0.1324847788, 0.1421893239, 0.2684374750, 0.1885669976, -0.0831751376, 0.0429052338, 0.0641483292, -0.5360579491, -0.7389228940, -0.1440589279, -0.1266588718, 0.0146462535, 0.0552718416, 0.3453393579, 0.1906382293, -0.0872448757, 0.3132082224, -0.2649730742, 0.0340219997, 0.1786684841, 0.3483780622, -0.2559228241, -0.0072368444, 0.2666626573, -0.1356918365, -0.4321519732, 0.1867063642, 0.1100076362, -0.0626277998, -0.0816111416, -0.1085432321, 0.1115373746, -0.7481737733, -0.1995162517, -0.2518128157, -0.0428609364, 0.2802696824, 0.0876319334, -0.2475643456, -0.4282945991, -0.1665957421, 0.1382094175, 0.0344347209, -0.1566801369, -0.2073784173, 0.2789030671, -0.4302693307, 0.0208423622, -0.2347230315, -0.3398125172, -0.2019571215, -0.0518701263, 0.2659742534, -0.4635574818, -0.0925223157, -0.2651256621, -0.1629206687, 0.1656253785, -0.0936372429, 0.2170897573, 0.1581592262, 0.1114763021, -0.1257192045, -0.2538053393, -0.0412252620, -0.0729903653, -0.1067023352, 0.1846509725, 0.2894661129, 0.2315025628, 0.0085858461, 0.1572466940, 0.0947331563, -0.5299284458, 0.1248176470, -0.5309282541, -0.0402826555, -0.3101685643, -0.1199102551, 0.3460677266, 0.4721964002, 0.2338556349, 0.3368597031, 0.0045678732, 0.4011593461, 0.2243722230, -0.1567732692, 0.0110173272, 0.1094738096, 0.2014419585, 0.0960337073, 0.2620898783, 0.1318449676, -0.0550343394, 0.2308218926, -1.9059522152, 0.1577119827, -0.0048696315, -0.1062932014, 0.0976661742, -0.0022750522, 0.2359111458, 0.5776857138, -0.1105044931, 0.2047506124, -0.3053724468, -0.2031549662, 0.0936790034, -1.9044500589, 0.3572167456, -0.9758985639, -0.0768822506, 0.1395775825, -0.0471239164, 0.2499480247, -0.1726741046, 0.1361105293, 0.0480816998, 0.3391898572, 0.0628817827, -0.4696490169, 0.1608680636, 0.2390118986, -0.2123043686, -0.1345715821, 0.2184922099, 0.4896946251, 0.3181994259, 0.3703385592, 0.2214456350, 0.3195562959, 0.3794334829, 0.3191403151, -0.1163085848, 0.2695885599, -0.0558382869, 0.0138198938, -0.1324995309, 0.1505426019, -0.0583550557, 0.0648306534, 0.0291134324, 0.1682467759, 0.3148831427, 0.2304884344, 0.1594541967, -0.0373220891, 0.2088829428, -0.2527814507, 0.0712795258, 0.2000153959, 0.3509786427, 0.0491598099, -0.0654556230, -0.0911452621, -0.2364160269, 0.2505871058, -0.2661327720, -0.1492905468, 0.2212801278, -0.1556522995, 0.0886885151, -0.2355623096, -0.5304786563, 0.1658919752, -0.6597187519, -0.9049114585, 0.3763882518, 0.4862439036, -0.0035281535, -0.0558364764, 0.0183459539, -0.0895219892, -0.0631846935, 0.7761437297, 0.4244525433, 0.0537661649, 0.0525348522, -1.1462599039, -0.5706155896, 0.0977075621, -0.3199116886, 0.1037923023, 0.0571001731, -0.0032713134, 0.5334848762, -2.6976103783, -0.1420588642, -0.8378591537, -0.6693624258, -1.7504336834, -0.0947373882, -0.1414017230, -0.0203254558, -2.2617213726, -0.2389142662, 0.6608620882, -2.0558831692, -1.6525170803, 0.2600504160, -0.1149346307, 0.1506829262, -2.0455605984, 0.0422855616, -0.9949871898, -0.0815131739, -0.6249529719, -0.2027342618, 0.5020940304, 0.0983996466, -0.1572899371, -0.4625313580, 0.3711548746, 0.0815356821, 0.2114653438, -0.1326942444, 0.3459639549, 0.4041168094, -2.0474777222, 0.2643555701, -1.3364658356, 0.6480469704, -0.1541095674, 0.0002571619, 0.2614301145, -0.3053486645, -0.0114310775, -0.0485809259, -0.4808377326, -0.0941060409, -0.1158740446, 0.0565994084, -0.0880541578, -0.2786827087, 0.1764824688, 0.2425116748, -0.1086096019, 0.1359817982, -0.0175672378, 0.3496133387, -0.0313178077, 0.2026198208, -0.0832947791, 0.4607374668, -0.4021553099, 0.0589508750, 0.4107088149, 0.3108351231, 0.5889970064, 0.3756048083, -0.2578384876, -0.4321023524, -0.2344532311, 0.0179261509, 0.1444165409, 0.3085690141, 0.1655253619, -0.1530895531, 0.3016057909, 0.2410667688, 0.3102686107, 0.1066173464, -0.0878723264, -0.4378845990, -0.5774891973, -0.2830686271, 0.4484537244, -0.4776153564, 0.0404662788, 0.2272628099, 0.1146842465, 0.0608057790, 0.0188553669, 0.1221001074, 0.3695003986, 0.0139683941, 0.0589865334, -0.1478961557, -0.4026907682, -0.1839775592, -0.3301948905, -0.1085688174, -0.1886955053, -0.0229807645, 0.0507292338, -0.3433657885, 0.1646541357, -0.0976753160, -0.4752181768, -0.5051368475, 0.0426500551, 0.1269758791, 0.2905648351, 0.1740793586, 0.1371676326, -0.1813061088, 0.1741520464, -0.2224058956, 0.3529435098, -1.2288142443, 0.3524556160, 0.5838351250, 0.3046229184, 0.4439636469, -0.1695344448, 0.2521968782, 0.0646750033, 0.3211829364, -0.0449624062, -0.7750345469, 0.4731044471, -0.3207001090, -0.1073413789, 0.0539883114, 0.0742435530, 0.1011000276, 0.2244170904, -0.2135535032, -0.0422773659, -0.0058932099, -0.1321743727, -0.0009513253, 0.3066753447, -0.9397039413, -0.1894756258, -0.0665064603, -0.3906464875, 0.0902680904, -0.1476854533, -0.4364578724, 0.1172881648, 0.0001395539, 0.3455519974, 0.0205823351, 0.1337666512, 0.4681089818, 0.1193125173, 0.0271052290, -0.0414098166, -0.2653959394, -0.3044800758, 0.2691015005, 0.0261033159, 0.2024916410, 0.0107894503, 0.0084755011, -0.3464674950, -0.1949486881, -0.0263644923, -0.0845245644, -0.2099756300, -0.9139273763, 0.2383902669, 0.0368508212, -0.0094907004, 0.1569729447, 0.0818845853, -0.0069179949, -0.0895984396, 0.2482707053, 0.2676923573, 0.0784836859, -0.3332730234, 0.3782786727, -1.0434671640, 0.1113677472, -0.6622313857, -0.3969650865, 0.4551438391, 0.4159612656, 0.5597100854, -0.2246978879, 0.1613934487, 0.1726126820, -0.0008521662, 0.3508280516, 0.2837231457, 0.3607408702, 0.0753037483, -0.0799306482, -0.0991319641, 0.5276631713, 0.2107195407, -0.0458030738, 0.3543225527, 0.2153652757, 0.0624996834, -0.5322594643, -0.2748127282, -0.5238146186, -0.1001523808, -0.6194560528, 0.0378615111, 0.0982505009, -0.1360696852, 0.3276787996, 0.1717705429, -0.4167673588, 0.1229961365, 0.1731747389, -0.1994307786, -0.1925645918, -0.1044747829, 0.3196173608, -0.1721103787, -0.1562962979, -0.3788500130, 0.0896425471, 0.2326394320, -0.1866786927, -0.0555755757, 0.0675424486, 0.1214323118, -0.1307974160, -0.2032648176, -0.1160703599, -0.9249746799, -0.9603455663, -0.2900656164, -0.5829749703, -0.1538026482, -0.2142319381, -0.4893210232, -0.4342898726, -0.8861686587, 0.0923450142, -0.3779700994, 0.5663448572, -0.5742499828, 0.3014115393, -0.7140019536, 0.3732251525, 0.0765118748, 0.6108110547, -0.2781900167, 0.1145260110, 0.1157061905, -0.1840718687, 0.5356860757, 0.2110411823, 0.5227188468, -0.0786971673, -0.0390924290, -0.5464389920, -0.1528930068, 0.3095255494, 0.5969575644, 0.2005382627, -0.2665618658, -0.1795296818, 0.2061477005, 0.3496253788, 0.0773600340, 0.0445939936, 0.3787470460, -0.0713760629, -0.1963065863, -0.1172769889, 0.0181973260, -0.2590239644, -0.0337309502, -0.4013840556, 0.0053795562, 0.1153582111, 0.3406827450, 0.3166893721, 0.2329055667, 0.0666102096, 0.1173522100, 0.1939202100, -0.0846795514, -0.0687713549, -0.0536935478, -0.8147636652, 0.1439777464, 0.1934066564, 0.1837555915, -0.2778605223, -0.2190050483, -0.1394248456, -0.8327820897, -1.1643173695, -0.0599191263, -0.0122994557, -0.0658635795, -0.0126918806, -0.1149063185, -0.6375828385, -0.5506990552, -0.0900833234, 0.0228105038, 0.5630200505, 0.1407987773, 0.0438957103, -0.2658227980, -0.1810762137, 0.0695663467, 0.1379318833, -0.2384072989, -0.0041418714, -0.1513417065, -0.2586401999, 0.2815293968, 0.0807097033, 0.1773608029, -0.7188873887, -0.0255674124, 0.1206551045, -0.0890604630, 0.2917829156, 0.0979359820, 0.0606034324, 0.2996621728, -0.0499714129, 0.1890100390, 0.4868569076, 0.2507259846, -0.0665130019, 0.0550709888, -0.3287803531, -0.3430738151, -0.0763925686, 0.4165516496, -0.1948289424, 0.3677014410, 0.0089701721, 0.1758211702, -0.2569834590, 0.2628455162, 0.1946465820, 0.2291888595, 0.4646288455, 0.0806583986, -0.2494530380, -0.2817551196, -0.0820819438, 0.1397310495, -1.8765721321, 0.3034004569, -0.2235308886, 0.1982672960, -0.1137670130, -0.0612698942, 0.9995614886, 0.1440461576, 0.4159476459, 0.3126905262, 0.1359662265, -0.2252062857, 0.3294484913, 0.6744145751, 0.0200208519, 0.4636071622, 0.3714780807, 0.2622435391, -0.3668057621, 0.3312232196, -0.1971137673, 0.8420754671, -0.5093576908, 0.2090463638, -0.4439309835, -0.0034155669, 0.1008974090, 0.1563848406, 0.4657197595, -0.5067090988, 0.3902793527, 0.3178985715, 0.5182880163, -0.0677734688, 0.4471575618, 0.2815225422, -0.2907246053, -0.2564797699};
#endif

#endif
