//Numpy array shape [32, 5]
//Min -1.718444943428
//Max 1.974520564079
//Number of zeros 0

#ifndef W8_H_
#define W8_H_

#ifndef __SYNTHESIS__
output_weight_t w8[160];
#else
output_weight_t w8[160] = {0.0803797096, 0.1926435083, -0.1841388047, 1.9745205641, -1.3213260174, 0.3680383563, -0.0531019233, 0.1283393204, -0.8528735638, 0.8352646828, -0.6653398871, -0.7338603139, 0.8056651354, 0.0796636268, 0.5464315414, 0.3920907378, -0.3496018648, 1.3562556505, -0.2780942917, -0.3233062923, -0.0346255451, 0.5808984637, 0.0474622659, -0.8913726807, -0.3063652217, 0.4012936354, 0.2558894455, -0.5746607184, 0.0067467121, 0.4533203244, 0.3735189140, 0.2799520195, -0.2508471906, 0.0378079377, 0.1906244159, -0.2963987589, -0.6989121437, 0.0976870880, 0.4537129402, 0.2231324613, 0.3607917130, 0.3410927355, 0.7399523258, -0.9242292643, -0.6331584454, 0.0911683589, -0.3301008642, -0.2892951369, 0.1419425905, -0.0804854035, 0.8346329927, -0.1097921878, -0.2881273925, -0.6532386541, -0.7339406013, 0.3577890992, -0.4652740955, 0.0542792045, -0.5411971807, 0.1231779680, 0.2422331870, -0.7267373800, -1.4663820267, 1.3737803698, 0.1119815409, -0.6001418829, -0.0812432170, 0.9401195049, 0.1899818778, 0.0103812329, 0.3376182616, 0.3116143942, 0.7678397298, -0.1349168569, -0.8368882537, 0.3522162437, -0.0619417466, 0.3298927844, 0.7601034045, -1.0785927773, -0.3550558090, -0.2002962232, 0.3313997686, -0.6436581612, 0.8799015284, -0.2225228548, 0.2703123987, -0.8171578646, 0.3102737665, 0.5871992111, -0.2928106785, 0.3939360678, 0.0915575549, -1.6176490784, 0.1291152090, -0.1312145442, -0.1513057798, 0.0576427206, 0.1045120358, 0.2392922491, 0.0546292625, 0.0606030822, 0.7751511931, 0.7603448033, -1.2147576809, -0.1328244954, 0.5221815109, 0.1194323972, -0.8297916055, 1.1264853477, -0.4004279077, -0.5241804123, 0.8758254647, 0.4058859348, -0.2871100903, -0.0142181935, 0.3729793429, 0.5630449057, 0.6017991900, -0.7762649059, 0.2054423392, 0.2084843069, -0.4052978754, -0.2515283227, 0.3941946626, -0.0519514866, 0.1235538349, -0.3561697006, -0.9125456214, 0.4028336406, -0.3261726201, 0.3486084938, -0.8619608283, 0.4159035385, 0.2409255207, 0.8084102869, 0.0387754254, -0.0636714771, -0.2855835855, -0.7945951223, 0.2334051877, 0.2306356132, -0.5139847994, -0.6312003732, 0.4065966308, -0.4117665589, -0.2106444091, 0.1517572850, 0.0986440927, 0.5184361339, -1.7184449434, -0.5470340252, -0.1361462623, 0.4621166587, 0.6416233778, -0.0102866357, -0.0674866363, -0.7768385410, -0.4569448829, 0.3425215185};
#endif

#endif
