//Numpy array shape [32, 5]
//Min -1.605352759361
//Max 1.372503876686
//Number of zeros 0

#ifndef W8_H_
#define W8_H_

#ifndef __SYNTHESIS__
output_weight_t w8[160];
#else
output_weight_t w8[160] = {0.3064495325, -0.0211438406, -0.5578204989, -0.8932984471, 0.1518073827, -0.8349694014, -0.5308743715, 0.4579395950, 0.1573847979, 0.1445833296, -0.0916657746, -0.4104365408, 0.3262663186, -0.2965507209, -0.6820167303, -0.0210646670, -0.0194538552, 0.8256051540, 0.6065753102, -1.3466802835, -0.4908756316, -0.4795961082, -0.4264475703, -0.0018093477, 0.7358739376, -0.2394214720, 0.1374355555, -0.0677801594, -0.1896540076, 0.6472779512, -0.2687761188, 0.2912487090, 0.5459417105, 0.7515482306, -0.6663708687, -0.3660240173, -0.5791069865, 0.4788743854, 0.6742663383, -0.6031605005, 0.3955511451, 0.0193660147, 0.2306937277, -0.5068144798, 0.0738721266, 0.2323151231, 0.6812502146, 0.2362883240, -0.9654802084, 0.1009508073, 0.3555695117, 0.0039013457, -0.1730957031, -0.2901035249, -0.2795431316, 0.2366913557, 0.3355033994, 0.6185202003, 0.3957073390, -0.4641121924, -0.4387829304, -0.1455606073, 0.5300217867, -0.3022757471, 0.7580913901, 0.2469234914, 0.4741511047, -0.3266405761, -0.8976929784, 0.2126265019, -0.2185923606, 0.2927961349, -0.9142183661, 0.3001734316, 0.1916671544, 0.5022214651, 0.2113840729, 0.3614435792, -1.0250461102, -0.0808146149, 0.0221218206, 0.1377454847, 0.0525160208, -0.5738971829, -0.3310652375, -0.2939518392, -0.2992931008, 0.0296039302, -0.2939722240, 0.3711083531, 0.6478946805, -0.1451387852, -0.7619627118, -0.2841175795, 0.1201114208, -0.3557471931, -0.2531875372, -0.5591086745, 0.2293710113, 0.3805516064, 0.2440780401, 0.0088013820, -0.1212659702, -0.1505744159, -0.7590300441, -0.6050772667, -0.0052712783, -0.1558826715, 0.2648613453, 0.4226104021, -0.6647905707, -0.5027235150, 0.4843887389, 0.1844462305, -0.3280317187, 0.2942620218, -0.0445109047, -0.4330292642, -0.6075811386, -0.2095206231, 0.4968384504, -0.4104608595, -0.0878133476, 0.2172245681, -0.3610954285, 0.3655414879, -0.3010175228, 0.2662045360, -0.5827013850, 0.0311826114, 0.1969691068, 0.2599302232, 0.2344745845, 1.3725038767, -1.0591268539, -0.2866880298, 0.0204344708, -0.7868472934, 0.5462512374, -0.5589003563, 0.0215621833, 0.3880752921, -0.7593497038, -0.0856243223, 0.2111202031, 0.2083566636, 0.3159273565, -0.0410080329, 0.4938032925, -0.4368853271, 0.5411797762, 0.2415716350, 0.5774585605, 0.0756690279, -1.6053527594, 0.4172842205, 0.0684009865, -0.1573753953, 0.6308218241, -0.8552489877};
#endif

#endif
