//#include "../jedi.h"

#ifndef W1_1_H_
#define W1_1_H_

// numpy array shape [P, 30];
;
/*
input_t w1_1[2*P * N_LAYER_2] = {
        1, 1, 1, 1, 1, 1,1, 1, 1,1, 1, 1,1, 1, 1,
        1, 1, 1, 1, 1, 1,1, 1, 1,1, 1, 1,1, 1, 1,
        1, 1, 1, 1, 1, 1,1, 1, 1,1, 1, 1,1, 1, 1,
        1, 1, 1, 1, 1, 1,1, 1, 1,1, 1, 1,1, 1, 1,
        1, 1, 1, 1, 1, 1,1, 1, 1,1, 1, 1,1, 1, 1,
        1, 1, 1, 1, 1, 1,1, 1, 1,1, 1, 1,1, 1, 1,
        1, 1, 1, 1, 1, 1,1, 1, 1,1, 1, 1,1, 1, 1,
        1, 1, 1, 1, 1, 1,1, 1, 1,1, 1, 1,1, 1, 1
};*/

input_t w1_1[2*P * N_LAYER_2] = {
        0.02463749,  0.03916547,  0.00273376, -0.00946079, -0.1771846 ,
        0.03812888, -0.20644717, -0.06804381, -0.00450971,  0.15993612,
        -0.08687773, -0.20640422,  0.95326096,  2.0896013 , -0.04161198,
        -0.00505687,  0.01902776, -0.04216315,  0.10189301, -0.03062141,
        0.11261243,  0.0333839 ,  0.10441399,  0.06348035, -0.06133313,
        -0.16831669, -0.08119088, -0.1693892 ,  0.14373802,  0.14328696,
        -0.10344269, -0.15348168, -0.13678862, -0.08176684,  0.04973133,
        0.07607666,  0.0585034 ,  0.14750758, -0.23920542, -0.11627196,
        0.05677337, -0.08938488,  0.12824643, -0.06220558, -2.1676345 ,
        3.0075119 ,  0.01860528, -0.06543979,  0.00685545,  0.05484531,
        0.08898295, -0.0529016 , -0.11069942,  0.08973045, -0.08607299,
        -0.23094694,  0.13513927,  0.12800424, -0.11979268,  0.05956915,
        0.26703957,  0.7567728 , -0.11713424,  0.04861605, -0.00290005,
        0.00071868,  0.13069235, -0.7039677 , -0.73193926, -0.81872517,
        -0.90976727,  0.1915653 ,  0.14208668, -0.00155441, -0.012736  ,
        -0.16576134,  1.4720225 , -0.8943117 ,  0.02997073,  0.07476875,
        -0.00219494, -0.05537121,  0.04496374, -0.07803489,  0.05753144,
        0.09004159, -0.01154022, -0.10441739, -0.09265979, -0.11978371,
        0.03496732, -0.11214311,  0.7170437 ,  0.5440176 ,  0.05892017,
        -0.22579145,  0.00860639,  0.07471159,  0.04075043, -0.00265834,
        -0.22057004,  0.14376661,  0.03190274, -0.05075234,  0.26158372,
        -0.02217845, -0.18204494,  0.07712107, -1.7739831 ,  2.87074   ,
        -0.05049417,  0.0776113 ,  0.07413675, -0.01824005, -0.02093357,
        0.16911341, -0.07998292, -0.06213058, -0.00886168,  0.13048862,
        0.065671  ,  0.01934893,  0.10140715,  0.11819344, -0.10071398,
        1.1714844 , -0.10844075,  0.03299712, -0.00144611,  0.01658529,
        0.01580584,  0.00923042, -0.05979899, -0.00541694, -0.08091554,
        -0.10030539,  0.20724621,  0.2852399 ,  0.00189067,  0.13408658,
        1.2384658 ,  0.8656171 ,  0.00455608,  0.35329247, -0.06045116,
        0.08803935, -0.05713882, -0.13079719, -0.19654717, -0.16766505,
        -0.25681755, -0.06782782, -0.10284473,  0.02204132,  0.04406255,
        0.10232212,  0.17582583, -0.43798506,  0.09738749, -0.03398936,
        -0.0337843 ,  0.02819613, -0.04847796, -0.08810937,  0.06561106,
        -0.02243437,  0.07502064, -0.04767965,  0.056553  , -0.14908262,
        -0.06834961, -0.18012202,  0.87915   ,  0.23972534,  0.14099813,
        -0.01419552,  0.08609156,  0.03688063,  0.07120667, -0.08678345,
        -0.26380312,  0.03840502, -0.31634077, -0.06671844,  0.07250883,
        0.05413985, -0.13102356, -0.06446084, -0.04908589, -0.13955615,
        0.04952569,  0.11529943,  0.00435666, -0.00575733,  0.02082858,
        0.02748898,  0.14307588, -0.0731586 ,  0.04525676,  0.01916905,
        0.3173461 , -0.0767466 , -0.00814176,  0.12180433, -1.3595388 ,
        0.5695413 , -0.21698177, -0.02903792, -0.01730389, -0.09426981,
        0.02021184, -0.05891849,  0.20513484, -0.09857318,  0.00209877,
        -0.05759012, -0.03808189,  0.02467858,  0.06758355, -0.21510115,
        0.6426131 ,  0.17846383, -0.00344775,  0.15294625, -0.05307133,
        0.04049987, -0.04471646,  0.10607946,  0.07902969, -0.12720715,
        0.07680809,  0.17121074,  0.08981122, -0.10099702, -0.11357453,
        -0.01553921,  0.3704146 , -1.7066654 ,  0.01022883,  0.08756258,
        0.08965878, -0.0802689 ,  0.19124831, -0.2669995 , -0.22279757,
        -0.16804248, -0.00337834, -0.00232824, -0.24080628, -0.02985989,
        -0.05923466,  0.13820432, -0.2455694 , -0.15045372, -0.09760158,
        -0.20401236,  0.00990994,  0.06998203,  0.03349134, -0.01374212,
        0.18069665,  0.16015537,  0.07871243, -0.06979844, -0.10647736,
        0.03566826, -0.11643917, -0.02269417,  1.8171791 , -3.498693  ,
        -0.20980844, -0.04949728, -0.1039012 ,  0.00807027, -0.06819738,
        -0.11064649, -0.26948187, -0.22085139, -0.1731672 , -0.11217981,
        0.03308557,  0.13544099, -0.12592238,  0.09158819, -0.26778254,
        -0.70234895,  0.02685809, -0.14767255,  0.00986639,  0.03818922,
        -0.02079632,  0.11243267,  0.0601382 , -0.06625366,  0.06231503,
        -0.11404289,  0.01700665, -0.05269075, -0.017036  ,  0.04387983,
        1.3204076 , -2.4006605 , -0.04345185,  0.08825581,  0.03565152,
        -0.08312036,  0.08184791, -0.11476187, -0.22869028,  0.09521072,
        -0.19163185,  0.08551773,  0.04701719,  0.06460649, -0.18276599,
        0.16189294, -0.40569225, -0.0881114 , -0.08784798, -0.20991069,
        0.01101796, -0.13725963, -0.19594997, -0.13440137, -0.11119292,
        -0.38560665, -0.1471562 , -0.20805383,  0.06803768, -0.09548105,
        0.05085598,  0.00644978,  1.2518256 , -0.01367604,  0.09852602,
        0.13329284,  0.05433403, -0.02387347,  0.04211339, -0.24929258,
        -0.2996732 , -0.05253494, -0.30437598, -0.00788566, -0.11461892,
        -0.04297184, -0.0745194 , -0.09394196, -0.24916875,  0.06562214,
        0.01140806, -0.28399134, -0.00154762, -0.00342519, -0.00002343,
        0.00265966, -0.01261209, -0.00380054, -0.00265093, -0.02973733,
        0.1054756 ,  0.03235232,  0.05059918,  0.05617674,  1.7585894 ,
        1.1198567 ,  0.11110652, -0.17820041,  0.03295763, -0.03133127,
        0.00721685, -0.04255145, -0.33205348,  0.18938367, -0.16269755,
        0.01080771,  0.00239949, -0.17985119,  0.04305726,  0.14437129,
        0.3079517 ,  0.31815496, -0.01105779, -0.1574728 ,  0.0133081 ,
        -0.07859553,  0.10034604,  0.09870541,  0.02628937,  0.0703259 ,
        0.2581588 , -0.21066418, -0.13911365,  0.05933963,  0.19623892,
        -0.01305239,  2.3759546 , -2.6315424 ,  0.05162001,  0.05155034,
        0.03682613,  0.09927051,  0.00032558,  0.10554063, -0.00043689,
        0.17589846, -0.19683267, -0.20003022, -0.01037814,  0.00490312,
        -0.02240259, -0.01217742, -0.3944455 , -0.37480754, -0.19645911,
        0.10508586,  0.11931543, -0.04391074,  0.01735074,  0.09537253,
        -0.23437189,  0.1116044 , -0.26005873,  0.11828592, -0.08333408,
        -0.16609432, -0.04032015,  0.04407602, -1.2842672 ,  1.705084  ,
        -0.12846427, -0.09916834, -0.07704517, -0.03003658, -0.01638319,
        -0.16249365,  0.11491546, -0.05806378, -0.0603676 ,  0.05302117,
        0.0228603 ,  0.03898397, -0.05409866, -0.12527303,  0.7739827 ,
        0.08551438, -0.08604656,  0.03662431, -0.0311504 ,  0.02406368,
        0.00064437, -0.01197609, -0.3048873 , -0.05382002, -0.15351956,
        0.11012567, -0.04853746, -0.02859452, -0.03619695,  0.10419175,
        -0.00258923,  1.3260947 ,  0.0688846 ,  0.121971  , -0.03228879,
        0.06297013, -0.08869913,  0.03177404, -0.06488585,  0.3010935 ,
        -0.04802651, -0.17012025, -0.10540307,  0.136743  , -0.06834652,
        -0.22590332, -0.02684084, -0.46704397,  0.12041117, -0.01536878,
        0.00153599, -0.00693261, -0.00263115,  0.00529796, -0.15819769,
        -0.0455455 , -0.09337494,  0.03115646, -0.0428182 , -0.04839003,
        0.04805824,  0.00715156, -1.3019141 , -0.564725  ,  0.09906379,
        -0.07144911,  0.08359098,  0.03225476,  0.01998669, -0.00606451,
        -0.08421266, -0.07401342, -0.18917908,  0.09843143,  0.2066807 ,
        -0.09863758, -0.05005582,  0.06426837, -0.6097772 , -0.57468873,
        -0.16072941,  0.09259039, -0.12107766, -0.0023033 , -0.0297774 ,
        0.05220628,  0.14062607,  0.09987955, -0.04655489, -0.08290669,
        -0.03060001,  0.04186597, -0.1391655 , -0.03745192,  2.4504626 ,
        -3.9594212 ,  0.08416768, -0.19748561,  0.01965029,  0.03573863,
        -0.05748036,  0.05524301, -0.02075356, -0.12101045,  0.03277852,
        0.00036604, -0.04384979, -0.00401807,  0.04466563, -0.07113939,
        0.10225287, -0.8238086 ,  0.2072592 , -0.19968936,  0.01666536,
        -0.00108678,  0.10233767, -0.09275186, -0.1157186 , -0.43961036,
        -0.4731677 ,  0.12189531, -0.29300663, -0.10867539,  0.00701389,
        -0.08491382,  0.42162758,  0.39948803, -0.11758792,  0.106969  ,
        -0.06960566,  0.16911395, -0.0782025 ,  0.06256475, -0.06561715,
        -0.01563849, -0.21282637,  0.01968909,  0.03884212, -0.05224677,
        0.02390601, -0.03702131, -0.2612297 , -0.23317681,  0.01819828,
        -0.13413368, -0.00554567, -0.00508784,  0.03261568,  0.05135455,
        0.02825466, -0.06440388,  0.01702504, -0.01635764, -0.12080192,
        -0.11780729,  0.11180556,  0.00526497,  1.7121838 ,  1.0544329 ,
        -0.11524954,  0.09073959,  0.03997332, -0.02898753,  0.04256015,
        0.06639895,  0.18328722, -0.14891331, -0.00673016,  0.04657851,
        -0.04230995,  0.24922119, -0.04612394, -0.03648803,  0.19011468,
        -0.05596527, -0.00724583,  0.30104524, -0.03394593,  0.02783714,
        0.00115754, -0.00712117,  0.15352988, -0.05245743,  0.03903779,
        -0.01412063, -0.06092893,  0.05353373, -0.00128421, -0.02559157,
        -1.2558439 , -0.86223376,  0.06300651, -0.01983888,  0.02164227,
        -0.00856732,  0.10597177,  0.1605087 ,  0.09178945, -0.18213113,
        0.17889136,  0.13015203, -0.17380132, -0.03084525,  0.10121253,
        0.0888718 , -0.30890217, -0.26137677,  0.02997607,  0.03095174,
        -0.02191154,  0.0374127 ,  0.06946844,  0.15726034, -0.11576694,
        -0.10281529,  0.07449295,  0.05677715, -0.0856826 ,  0.07439275,
        0.08700722,  0.07254194, -2.62287   ,  1.8739129 , -0.17884006,
        0.09968159, -0.00929786,  0.03313041, -0.13624606,  0.01607423,
        0.2924434 , -0.13105457,  0.15787305, -0.00567692,  0.28932306,
        -0.21470334,  0.01835496, -0.08372695,  0.36919203, -0.0161387 ,
        0.0863275 , -0.09495707, -0.01111025, -0.0274379 , -0.03466064,
        -0.00642822,  0.06698862,  0.12375017, -0.2225132 ,  0.07359041,
        -0.11337285,  0.01194117,  0.00496928,  0.08608469, -0.591412  ,
        2.1081243 ,  0.08130122, -0.01730223, -0.03993615,  0.09954224,
        -0.07061738,  0.07108244, -0.04499141, -0.05455047,  0.01064852,
        0.12633768, -0.07070283,  0.06855796, -0.03318682, -0.10707337,
        0.3802366 ,  0.9992372 ,  0.21028404,  0.00425778, -0.00172726,
        -0.00260448, -0.10967659,  0.15767002, -0.14666878, -0.1139809 ,
        -0.0581336 , -0.08146038, -0.5652326 , -0.08171348, -0.00709349,
        -0.00485607, -2.0278013 ,  2.2889888 ,  0.26613176, -0.03921387,
        -0.02629134,  0.03558217, -0.16389756, -0.20729555, -0.1303146 ,
        0.0293878 , -0.21751821,  0.04049871, -0.11219705, -0.15981716,
        -0.05519677, -0.10163037,  0.22800893, -0.42776048,  0.14895576,
        -0.12067909,  0.00959047, -0.00513037, -0.00179678, -0.04701947,
        -0.17031364,  0.10789162, -0.16510732, -0.09661666,  0.03468249,
        0.15641049,  0.02893891, -0.03853578, -1.6126786 , -1.4976547 ,
        0.1915954 , -0.10597395,  0.01904738,  0.00449755,  0.0848057 ,
        -0.02522781,  0.13627066, -0.05230858,  0.0957019 , -0.03425262,
        -0.05864364, -0.15238254, -0.03923498,  0.11756339, -0.2758322 ,
        -0.25700113,  0.02884812,  0.15359743, -0.05460046,  0.03580635,
        -0.04465688,  0.10625533, -0.06061099, -0.12099186, -0.0137676 ,
        0.07415869, -0.16628538, -0.14139758, -0.12134303,  0.00477976,
        -0.07514787,  2.6265244 ,  0.11890726, -0.0091696 ,  0.03436834,
        0.01212057,  0.12011706, -0.03065076, -0.17187056, -0.01276643,
        0.14338204,  0.03284262,  0.20566188, -0.09072606,  0.0055208 ,
        0.14772364,  0.3933246 ,  0.2256312 ,  0.08596583,  0.11109204,
        -0.00973875, -0.03992494,  0.05155932, -0.02631902,  0.13259219,
        -0.02806823,  0.20447212, -0.03945383, -0.5230086 , -0.2934124 ,
        0.1449371 , -0.09130573,  2.0414345 , -1.354128  , -0.05559184,
        -0.33292493, -0.03425865, -0.01967894, -0.14269131, -0.01485303,
        -0.05041904, -0.12980045, -0.27719167,  0.17051476, -0.07353222,
        0.18436831, -0.10397483, -0.01278791, -0.29669216, -0.27635193,
        0.06012091,  0.07552338,  0.04921213, -0.06188472, -0.03954452,
        0.08960899,  0.06840518, -0.00638602,  0.22272766,  0.08620866,
        0.02609736, -0.03229101, -0.06752096,  0.168742  ,  1.8335599 ,
        -1.941847  ,  0.04198753,  0.00590909, -0.12205379,  0.062621  ,
        -0.03458506,  0.13213074, -0.30473608,  0.2349051 , -0.09481171,
        -0.14190689, -0.00755895,  0.00884162,  0.04016041,  0.22221464,
        -0.7409439 ,  0.09984849,  0.17256694,  0.00768677,  0.00726633,
        0.03183287, -0.07360266,  0.08082982, -0.11459874, -0.03315631,
        -0.04681396,  0.09980065, -0.5234243 , -0.08941134, -0.03275795,
        0.0625589 , -1.4988219 ,  2.3442378 ,  0.13816243, -0.00039532,
        0.03834379, -0.05004502,  0.03662156, -0.17323175, -0.10075525,
        0.03872123, -0.17084976,  0.03724165, -0.2937942 ,  0.09237309,
        -0.19141866,  0.0578279 ,  0.5813679 , -0.20969285,  0.0124841 ,
        0.10248449, -0.01380635,  0.03307267, -0.01813338,  0.13261229,
        -0.11855768, -0.07424891,  0.07593013,  0.11869374, -0.09154627,
        -0.04153887,  0.07820807,  0.09697217,  2.2172754 , -3.5428314 ,
        0.09735896,  0.05001469,  0.02213102, -0.02798629,  0.02002468,
        -0.05862157,  0.05780337, -0.02170271,  0.02331145, -0.13478361,
        -0.07975914, -0.06721912,  0.06096873, -0.12593623, -0.01631856,
        -0.23168178,  0.10413516, -0.23860075, -0.02553179,  0.02069971,
        -0.04279588, -0.11731994, -0.20403555, -0.345921  , -0.04589584,
        -0.07805789,  0.2067446 ,  0.06244827,  0.06878742, -0.01780855,
        0.52202207, -0.70368004,  0.03818313, -0.20930688,  0.0583198 ,
        -0.08245081,  0.10545456,  0.10415687, -0.21930589,  0.3027434 ,
        -0.00081375, -0.00950097, -0.02369655, -0.10511771,  0.05575566,
        0.20481496, -0.3411574 , -0.68404114,  0.16173238,  0.07400329
};

#endif

