//#include "../jedi.h"

#ifndef W2_1_H_
#define W2_1_H_

// numpy array shape [30, 15]
/*
input_t w2_1[N_LAYER_2 * N_LAYER_4] = {
        1, 1, 1, 1, 1, 1,1, 1, 1,1, 1, 1,1, 1, 1,
        1, 1, 1, 1, 1, 1,1, 1, 1,1, 1, 1,1, 1, 1,
        1, 1, 1, 1, 1, 1,1, 1, 1,1, 1, 1,1, 1, 1,
        1, 1, 1, 1, 1, 1,1, 1, 1,1, 1, 1,1, 1, 1,
        1, 1, 1, 1, 1, 1,1, 1, 1,1, 1, 1,1, 1, 1,
        1, 1, 1, 1, 1, 1,1, 1, 1,1, 1, 1,1, 1, 1,
        1, 1, 1, 1, 1, 1,1, 1, 1,1, 1, 1,1, 1, 1,
        1, 1, 1, 1, 1, 1,1, 1, 1,1, 1, 1,1, 1, 1,
        1, 1, 1, 1, 1, 1,1, 1, 1,1, 1, 1,1, 1, 1,
        1, 1, 1, 1, 1, 1,1, 1, 1,1, 1, 1,1, 1, 1,
        1, 1, 1, 1, 1, 1,1, 1, 1,1, 1, 1,1, 1, 1,
        1, 1, 1, 1, 1, 1,1, 1, 1,1, 1, 1,1, 1, 1,
        1, 1, 1, 1, 1, 1,1, 1, 1,1, 1, 1,1, 1, 1,
        1, 1, 1, 1, 1, 1,1, 1, 1,1, 1, 1,1, 1, 1,
        1, 1, 1, 1, 1, 1,1, 1, 1,1, 1, 1,1, 1, 1,
        1, 1, 1, 1, 1, 1,1, 1, 1,1, 1, 1,1, 1, 1,
        1, 1, 1, 1, 1, 1,1, 1, 1,1, 1, 1,1, 1, 1,
        1, 1, 1, 1, 1, 1,1, 1, 1,1, 1, 1,1, 1, 1,
        1, 1, 1, 1, 1, 1,1, 1, 1,1, 1, 1,1, 1, 1,
        1, 1, 1, 1, 1, 1,1, 1, 1,1, 1, 1,1, 1, 1,
        1, 1, 1, 1, 1, 1,1, 1, 1,1, 1, 1,1, 1, 1,
        1, 1, 1, 1, 1, 1,1, 1, 1,1, 1, 1,1, 1, 1,
        1, 1, 1, 1, 1, 1,1, 1, 1,1, 1, 1,1, 1, 1,
        1, 1, 1, 1, 1, 1,1, 1, 1,1, 1, 1,1, 1, 1,
        1, 1, 1, 1, 1, 1,1, 1, 1,1, 1, 1,1, 1, 1,
        1, 1, 1, 1, 1, 1,1, 1, 1,1, 1, 1,1, 1, 1,
        1, 1, 1, 1, 1, 1,1, 1, 1,1, 1, 1,1, 1, 1,
        1, 1, 1, 1, 1, 1,1, 1, 1,1, 1, 1,1, 1, 1,
        1, 1, 1, 1, 1, 1,1, 1, 1,1, 1, 1,1, 1, 1,
        1, 1, 1, 1, 1, 1,1, 1, 1,1, 1, 1,1, 1, 1
}; */

input_t w2_1[N_LAYER_2 * N_LAYER_4] = {
        -0.1020889 , -0.02539065,  0.0001658 ,  0.0477556 , -0.09219774,
        0.14310327,  0.03754205,  0.11523625,  0.12900236,  0.10368889,
        -0.09692232,  0.06225131,  0.1517555 , -0.16146982, -0.05237113,
        0.11582049, -0.10516834,  0.094808  , -0.24786374,  0.00007862,
        -0.02591164, -0.09370196,  0.05532123,  0.14568487, -0.11626749,
        0.11377751,  0.05136771,  0.11099661, -0.04014707,  0.19266462,
        0.02400425, -0.05805708, -0.10444   , -0.14874509,  0.10483532,
        -0.07782311,  0.15282138,  0.1084024 ,  0.1487369 , -0.2628444 ,
        0.107113  , -0.01283484, -0.03846937,  0.18225089, -0.05561436,
        0.04116558,  0.1433702 ,  0.06883746,  0.10062592,  0.16702713,
        -0.01914187, -0.05248196,  0.06584612, -0.02530095, -0.09243649,
        -0.0613668 , -0.14948818,  0.04019215, -0.04083308, -0.13489248,
        0.12985756,  0.01108538,  0.1230179 ,  0.13960993,  0.05260253,
        0.13397475, -0.01245533,  0.05983229,  0.02578394, -0.15947704,
        0.20128468,  0.2943088 ,  0.04269033,  0.05337423,  0.13700229,
        -0.15081674, -0.16539018, -0.04392138, -0.09339405,  0.02942472,
        -0.0763745 ,  0.08427695,  0.06251756, -0.25581318,  0.01106089,
        0.08161679,  0.00779832,  0.0106202 ,  0.06119735,  0.05332948,
        0.04377484, -0.11004759,  0.09829565,  0.14399736, -0.12556584,
        -0.06322084, -0.01802828, -0.06670846, -0.14360759, -0.07457222,
        -0.15773778,  0.29160225, -0.00565173,  0.0751138 ,  0.00079987,
        -0.1115652 ,  0.08490103,  0.00525481,  0.22041066, -0.20123693,
        -0.06903267,  0.15647903, -0.14033   , -0.12380287,  0.18842515,
        0.19853517, -0.03714164,  0.07497118, -0.12543152, -0.14814964,
        0.08749557, -0.05311977,  0.08178964,  0.05201192,  0.14093097,
        0.10819185, -0.09163881, -0.12182637, -0.12281532, -0.11532557,
        -0.16128264,  0.18263578, -0.03310978,  0.02190294, -0.15241219,
        -0.19852751,  0.07886864, -0.1697621 ,  0.12796165,  0.00921157,
        -0.07127719,  0.02549334, -0.09336354, -0.1645148 ,  0.17889123,
        0.12581314,  0.02947492,  0.0262302 ,  0.01219021, -0.3368975 ,
        -0.05316664, -0.15106983, -0.01183819, -0.18112555, -0.1775114 ,
        -0.13340253,  0.19161056,  0.03467359,  0.12098804,  0.13528755,
        -0.16250896, -0.2469634 ,  0.14724395, -0.02705653, -0.00177339,
        0.0837509 ,  0.15674679, -0.21116608, -0.12945797,  0.11670005,
        -0.08091483, -0.13212028, -0.0941122 ,  0.2710006 , -0.03917943,
        -0.11334055,  0.03843156, -0.06772283,  0.18622312, -0.2150957 ,
        0.04229053,  0.093219  , -0.21134709, -0.1304025 ,  0.08661427,
        0.01472337, -0.11847746, -0.10553046, -0.07903165, -0.05458026,
        -0.13447914,  0.19285002, -0.14712131,  0.11724671, -0.11622   ,
        -0.0182899 , -0.08916074, -0.23352192,  0.18459779, -0.1165578 ,
        0.05126378,  0.1308176 ,  0.05946714, -0.03041361,  0.06814032,
        -0.06479919, -0.19730999, -0.11050501,  0.10311205, -0.15971805,
        0.16410047, -0.04458652, -0.10979106, -0.10507388,  0.15558274,
        -0.02613854,  0.21550836,  0.10785052, -0.15741533, -0.05582388,
        0.0673343 ,  0.13929246, -0.22233364, -0.09063671,  0.12819639,
        0.07804185, -0.3071292 ,  0.22671801,  0.1754369 , -0.04138881,
        -0.00480612, -0.01019887,  0.1680105 , -0.34235278,  0.20331025,
        0.00835894, -0.15953678, -0.10623233, -0.26714057, -0.06067063,
        0.01307479, -0.1985785 , -0.21674632, -0.16331841,  0.03577935,
        0.04876338, -0.08908719,  0.03850447,  0.1505236 ,  0.156398  ,
        -0.07459471,  0.07603766,  0.2067739 , -0.09147034, -0.02902293,
        -0.09487482,  0.21884713, -0.09819518,  0.02447036, -0.00352488,
        -0.19183093,  0.00588738, -0.14085752, -0.04867614, -0.05019282,
        0.05811401,  0.10097028, -0.09241431,  0.20943467,  0.00818923,
        0.02240545,  0.12746549,  0.18225993,  0.07086689,  0.03125516,
        0.00767561, -0.08843837,  0.00578655, -0.04098959,  0.00935747,
        0.04272972, -0.03127949, -0.11629225,  0.14808856, -0.11382132,
        -0.07489723, -0.07057901,  0.06592098, -0.01183303, -0.00920208,
        0.09636761,  0.09898245,  0.12363286,  0.07464652, -0.01177057,
        -0.03737334, -0.09655847, -0.07465937, -0.11947256,  0.01679057,
        -0.16202873, -0.13132156, -0.19447927, -0.19299044, -0.0413568 ,
        -0.0636506 , -0.07502846,  0.15076217,  0.08447962, -0.01804496,
        -0.06347892, -0.2544055 , -0.09165265,  0.15328349, -0.22315098,
        -0.14305416,  0.1598085 , -0.33033228, -0.16143648,  0.03854686,
        0.14198956, -0.05935145, -0.05670584, -0.00478734, -0.1515597 ,
        -0.00778356, -0.04365058, -0.11833253,  0.08624756, -0.23928241,
        -0.05480495,  0.00942504,  0.13655254, -0.01260731,  0.14155953,
        -0.0481893 ,  0.1695502 , -0.15679258,  0.15284935,  0.09343915,
        0.20922914,  0.15244642,  0.05385771, -0.164078  ,  0.08521014,
        0.10193918, -0.02323048,  0.04008235,  0.05756606, -0.15841675,
        -0.17492054, -0.03421314, -0.11016699, -0.11004186, -0.01319639,
        -0.08906452,  0.17584744, -0.07145843, -0.02649147,  0.14352371,
        0.17843455,  0.03118884, -0.18015091,  0.04300588,  0.27398574,
        0.04300209, -0.2660522 , -0.03505489, -0.02310912,  0.02684206,
        -0.03109368,  0.24374536,  0.0714417 , -0.09527735,  0.01386719,
        -0.25239363, -0.13492534,  0.03352528,  0.1390092 , -0.20816875,
        -0.0887412 , -0.05360652, -0.01886013, -0.30029702,  0.252961  ,
        -0.03100143,  0.13942368,  0.06350502, -0.1617408 ,  0.03622198,
        -0.12012399, -0.15876031,  0.02014622, -0.13832502, -0.04703999,
        -0.14609171,  0.05428902, -0.05601585,  0.13262431, -0.00573403,
        -0.13666138,  0.06557283,  0.06900102,  0.01634992,  0.17036158,
        0.27613044,  0.14390062,  0.07223911,  0.10082595, -0.17575781,
        0.0238119 , -0.00907739, -0.14045395,  0.07939677,  0.1823646 ,
        -0.06708857,  0.0562097 ,  0.11432471, -0.10468631,  0.22341041,
        0.26014274,  0.04213299,  0.14624241, -0.02479902,  0.28554556,
        -0.01635095,  0.08462808,  0.03563587, -0.05336562, -0.12901944,
        -0.0943644 ,  0.09707851,  0.08244525,  0.05189963,  0.23102939,
        -0.18150337,  0.06427542, -0.07456969, -0.01781585,  0.00486923,
        -0.12365668, -0.1133981 , -0.01991184, -0.1332398 ,  0.03094375,
        0.12256619, -0.05525338,  0.12421171,  0.0031408 ,  0.08472694
};

#endif