//#include "../jedi.h"

#ifndef W3_1_H_
#define W3_1_H_

// numpy array shape [15, 10]
/*
input_t w3_1[N_LAYER_4 * N_OUTPUT_1] = {
        1, 1, 1, 1, 1, 1,1, 1, 1,1, 1, 1,1, 1, 1,
        1, 1, 1, 1, 1, 1,1, 1, 1,1, 1, 1,1, 1, 1,
        1, 1, 1, 1, 1, 1,1, 1, 1,1, 1, 1,1, 1, 1,
        1, 1, 1, 1, 1, 1,1, 1, 1,1, 1, 1,1, 1, 1,
        1, 1, 1, 1, 1, 1,1, 1, 1,1, 1, 1,1, 1, 1,
        1, 1, 1, 1, 1, 1,1, 1, 1,1, 1, 1,1, 1, 1,
        1, 1, 1, 1, 1, 1,1, 1, 1,1, 1, 1,1, 1, 1,
        1, 1, 1, 1, 1, 1,1, 1, 1,1, 1, 1,1, 1, 1,
        1, 1, 1, 1, 1, 1,1, 1, 1,1, 1, 1,1, 1, 1,
        1, 1, 1, 1, 1, 1,1, 1, 1,1, 1, 1,1, 1, 1,
}; */

input_t w3_1[N_LAYER_4 * N_OUTPUT_1] = {
        -0.00817206,  0.02919323,  0.06277875,  0.12318029, -0.02742499,
        -0.35150748, -0.23572862,  0.19604634, -0.23514873,  0.02000419,
        -0.25542858,  0.21834137,  0.10119486, -0.16442679, -0.07898823,
        -0.04078866,  0.00990154, -0.02143666, -0.12039522, -0.07318701,
        0.16226709, -0.02233632,  0.15111214,  0.04703317, -0.207092  ,
        0.01486217, -0.30997148, -0.12852   , -0.04442763, -0.13475795,
        -0.1437817 , -0.23190685,  0.06106632,  0.08222069, -0.07692   ,
        0.17924197, -0.16249254,  0.04885668,  0.20397823,  0.00464673,
        -0.35435474,  0.06720147, -0.07207862, -0.22944948, -0.10032004,
        -0.01090554,  0.04964842,  0.19126019, -0.04462888,  0.3237849 ,
        -0.14915039,  0.2085709 ,  0.06359141,  0.22598426,  0.14122534,
        -0.1490036 ,  0.10775338,  0.14048673,  0.10875279,  0.1055479 ,
        0.05720482, -0.08740443,  0.00269725, -0.13772708, -0.05834663,
        0.0191792 , -0.08569766,  0.10982933, -0.80050856,  0.10513847,
        -0.1008602 , -0.13426712, -0.13010064, -0.02605814, -0.04731509,
        0.10627072,  0.09171245, -0.00828282, -0.16217868, -0.09056114,
        -0.04127213,  0.06708705,  0.18933341, -0.11929055,  0.22262618,
        0.11455956,  0.03489668, -0.20656304,  0.18062527, -0.04516093,
        0.10877075, -0.11385288,  0.14050592, -0.05119023,  0.15261354,
        -0.23255533,  0.23989192,  0.3112571 ,  0.08601335, -0.14530754,
        0.07909203,  0.24034877,  0.13818045,  0.22490959,  0.17744663,
        -0.11974493,  0.21749686,  0.11732078,  0.12253812, -0.22235309,
        -0.20620379,  0.11801372, -0.00376893, -0.582106  ,  0.21393491,
        0.04805372, -0.12681866, -0.0115268 , -0.13877214,  0.04587963,
        0.095723  ,  0.05121938,  0.06709221, -0.03719033,  0.10365832,
        -0.02645598, -0.12188658, -0.10124543,  0.15888129,  0.17965567,
        -0.03291218,  0.14069927, -0.16433454,  0.05184902,  0.01608244,
        0.04404797,  0.20388876, -0.04162637, -0.01103053, -0.23706558,
        0.16475642, -0.09403487,  0.31786966,  0.14236881, -0.14015424,
        0.0139758 , -0.05806551, -0.01417164,  0.05177455,  0.08298162
};

#endif